tree
version=v4
num_class=1
num_tree_per_iteration=1
label_index=0
max_feature_idx=30
objective=binary sigmoid:1
feature_names=running_style_last1 running_style_mode running_style_mode_win_rate running_style_last1_win_rate jockey_rides_surface_distance jockey_win_rate_surface_distance is_jockey_change finish_pos_best_last5 racecourse_encoded surface_encoded going_encoded race_class_encoded distance sex age horse_weight weight_change bracket_number horse_number days_since_last_race time_index_zscore_last1_improved time_index_zscore_last2_improved time_index_zscore_last3_improved time_index_zscore_mean_3_improved time_index_zscore_best_3_improved time_index_zscore_worst_3_improved time_index_zscore_trend_3_improved last3f_index_zscore_last1_improved last3f_index_zscore_last2_improved is_consecutive_race rest_period_category
feature_infos=[0:3] [0:3] [0:0.3125] [0:0.3125] [0:1025] [0:0.75] [0:1] [0:18] [1:10] [0:1] [0:2] [0:5] [1000:3600] [1:3] [2:12] [336:630] [-46:66] [1:8] [1:18] [0:1574] [-3.029560476785031:15.183530127475287] [-23.243911400430985:39.650310867947063] [-32.302917149559846:39.650310867947063] [-32.302917149559846:37.557576636633158] [-999:39.650310867947063] [-32.302917149559846:999] [-39.404762690525843:22.602631135719548] [-2.7807404859219336:33.738245845812763] [-3.1761829047083112:33.738245845812763] [0:1] [0:4]
tree_sizes=3388 3468 3480 3483 3477 3470 3481 3518 3494 3514 3494 3493 3498 3507 3491 3518 3515 3516 3516 3507 3490 3489 3508 3499 3518 3520 3522 3504 3518 3514 3517 3513 3527

Tree=0
num_leaves=31
num_cat=0
split_feature=5 5 5 7 7 14 5 5 5 3 11 7 25 7 27 20 7 14 7 7 11 3 14 11 15 27 20 7 20 11
split_gain=5582.77 1271.79 1081.69 556.647 543.645 266.293 236.312 215.945 204.562 183.464 133.65 130.547 125.098 120.264 120.111 112.042 89.359 80.8886 80.2107 61.8433 61.6757 57.0342 55.739 52.1555 51.9147 51.867 50.1412 49.0259 48.8529 75.2429
threshold=0.10106684825785948 0.21525096525096532 0.048820211329149141 3.5000000000000004 3.5000000000000004 4.5000000000000009 0.019230769230769242 0.3026779422128259 0.14110105580693824 0.080198259187620899 1.5000000000000002 3.5000000000000004 -0.39430306563662998 2.5000000000000004 -0.64295588014964122 -0.64382322829439109 1.5000000000000002 4.5000000000000009 2.5000000000000004 1.5000000000000002 1.5000000000000002 0.079455266955266959 4.5000000000000009 3.5000000000000004 461.00000000000006 -0.93858376391309328 -0.034648555236378713 1.5000000000000002 -0.65418676764528128 3.5000000000000004
decision_type=2 2 2 2 2 2 2 2 2 2 2 2 2 2 2 2 2 2 2 2 2 2 2 2 2 2 2 2 2 2
left_child=2 4 6 9 5 8 -1 13 16 -4 12 27 -11 23 20 17 28 -12 -18 24 -10 -22 -9 25 -16 -3 -21 -8 29 -2
right_child=1 7 3 -5 -6 -7 11 22 14 10 15 -13 -14 -15 19 -17 18 -19 -20 26 21 -23 -24 -25 -26 -27 -28 -29 -30 -31
leaf_value=-2.5935716983966683 -2.4471519272677216 -2.3185459181422128 -2.5382055978444034 -2.5688492480160328 -2.5358335372147529 -2.5188032729467587 -2.5660435073503858 -2.3118860405756005 -2.3397666617572526 -2.4190672011267207 -2.4796087400519391 -2.5826280862729534 -2.5008562766182822 -2.4727856998566424 -2.5092002722038433 -2.5388787123598822 -2.437275894440349 -2.5348395802774699 -2.4947585229801787 -2.40639292241285 -2.4518833131161553 -2.3898465418261656 -2.4153438794536148 -2.4378815532787756 -2.4587243866933273 -2.3932864951916244 -2.4633709484606108 -2.5449617059686584 -2.5113982813953659 -2.5220833380118313
leaf_weight=1823.6316716298461 89.892092347145081 28.56510765850544 1183.62434245646 1161.5574583411217 487.56983522325754 283.07886309921741 691.58697854727507 87.387568689882755 27.414380572736263 71.006630174815655 209.09388046711683 957.60800484567881 136.86883337795734 63.357679545879364 73.917292803525925 337.90762424468994 149.52683132141829 97.067214176058769 102.14395131915808 80.280136689543724 75.406469032168388 72.834255546331406 15.29790125787258 50.564301945269108 163.87707497924566 123.87238629162312 74.391121603548527 458.66627842187881 261.62118744105101 53.40727474540472
leaf_count=26941 1328 422 17486 17160 7203 4182 10217 1291 405 1049 3089 14147 2022 936 1092 4992 2209 1434 1509 1186 1114 1076 226 747 2421 1830 1099 6776 3865 789
internal_value=-2.54075 -2.47417 -2.56283 -2.54123 -2.48994 -2.4751 -2.58039 -2.3889 -2.46499 -2.52547 -2.50778 -2.56899 -2.47292 -2.41265 -2.44303 -2.51903 -2.484 -2.49712 -2.46061 -2.45841 -2.40866 -2.4214 -2.3273 -2.39388 -2.47441 -2.37928 -2.4338 -2.55764 -2.49854 -2.47508
internal_weight=9493.02 2364.41 7128.62 3197.13 1995.36 1507.79 3931.49 369.045 1224.71 2035.57 851.944 2107.86 207.875 266.359 568.121 644.069 656.591 306.161 251.671 392.466 175.655 148.241 102.685 203.002 237.794 152.437 154.671 1150.25 404.921 143.299
internal_count=140243 34930 105313 47232 29478 22275 58081 5452 18093 30072 12586 31140 3071 3935 8393 9515 9700 4523 3718 5798 2595 2190 1517 2999 3513 2252 2285 16993 5982 2117
is_linear=0
shrinkage=1


Tree=1
num_leaves=31
num_cat=0
split_feature=5 5 5 7 7 7 14 3 5 3 11 27 11 20 20 11 25 14 27 5 5 23 14 7 23 7 27 14 21 11
split_gain=4863.72 1165.06 803.447 501.039 496.115 217.495 217.022 153.049 152.259 150.249 133.831 131.532 113.167 99.0338 95.4934 94.4831 88.9198 74.7472 80.7616 62.5499 60.7042 59.3342 57.1716 52.9418 51.1235 48.671 47.5383 46.5499 45.423 42.9511
threshold=0.087129054520358892 0.17782169521299959 0.031957446808510655 3.5000000000000004 3.5000000000000004 3.5000000000000004 4.5000000000000009 0.081080230964524033 0.28248081841432232 0.064167523020814604 1.5000000000000002 -0.70533204453333098 1.5000000000000002 -0.66251675502018081 -0.13833979545222591 3.5000000000000004 -0.76106186777746032 3.5000000000000004 -0.032791980033285976 0.012739370334307047 0.052631578947368453 -1.1382567464736773 4.5000000000000009 2.5000000000000004 -1.276768894347952 4.5000000000000009 1.1939267577293913 4.5000000000000009 -1.7769279643639315 4.5000000000000009
decision_type=2 2 2 2 2 2 2 2 2 2 2 2 2 2 2 2 2 2 2 2 2 2 2 2 2 2 2 2 2 2
left_child=2 3 19 6 7 8 9 20 17 -2 14 15 23 22 -9 24 -14 18 28 -1 -4 -19 -12 26 -11 -5 -13 -10 -3 -30
right_child=1 5 4 25 -6 -7 -8 10 27 11 13 12 16 -15 -16 -17 -18 21 -20 -21 -22 -23 -24 -25 -26 -27 -28 -29 29 -31
leaf_value=-0.053251018089236518 0.037284583154098626 0.43090644688416557 -0.018703162003962309 0.019274570468881085 -0.032692659871513055 0.041913836337993608 0.013779758564205855 0.088340223594554901 0.18034304307098792 0.27718390414193911 0.041118469266173407 0.11170427720460048 0.062989506139559046 -0.0089457516329694824 0.025156947947233221 0.051507837718481456 0.016428603744636099 0.13978801511213976 0.093067042540781228 -0.036495551178793516 0.0019293978300673491 0.066223735644126119 -0.0027967398789892576 0.056844507895838871 0.11475901717375846 -0.011323110611128335 -0.0055145080205379372 0.09987418327453966 0.1598324974103241 0.076071988593392259
leaf_weight=1541.267297744751 549.07814026623964 1.4420211240649212 630.91280600428581 184.42247588932514 1565.0048741698265 93.652411691844463 342.23699943721294 98.557771883904934 122.65743304044008 4.9760650321841231 238.40712389349937 138.21253407001495 234.64814815670252 405.73702811449766 152.07352992892265 71.410970196127892 182.13147137314081 35.029073722660542 103.41264385730028 872.20273668318987 819.61184670776129 126.0215200483799 107.54404462128878 97.258442312479019 183.33103282749653 440.15603138506413 9.2268926650285703 21.057720363140106 115.91938310116529 17.633245632052422
leaf_count=23816 7784 19 9421 2732 23784 1319 4980 1378 1520 67 3410 1881 3282 6012 2182 998 2590 478 1393 13266 12077 1703 1589 1362 2504 6528 127 280 1522 239
internal_value=0.000333155 0.0520673 -0.0243937 0.036332 -0.0106968 0.112285 0.0496404 0.00333741 0.124418 0.0579877 0.0183623 0.0703277 0.0584891 0.00781247 0.050003 0.10048 0.0426425 0.10854 0.126316 -0.0471958 -0.00704484 0.0822242 0.0274668 0.0854795 0.119051 -0.00228838 0.104369 0.168552 0.151787 0.148773
internal_weight=9505.23 3073.91 6431.32 2437.09 4017.85 636.825 1812.51 2452.84 543.173 1470.27 1002.32 921.196 661.477 751.688 250.631 259.718 416.78 399.458 238.407 2413.47 1450.52 161.051 345.951 244.698 188.307 624.579 147.439 143.715 134.995 133.553
internal_count=140243 43308 96935 34835 59853 8473 25575 36069 7154 20595 14571 12811 9242 11011 3560 3569 5872 5354 3173 37082 21498 2181 4999 3370 2571 9260 2008 1800 1780 1761
is_linear=0
shrinkage=0.05


Tree=2
num_leaves=31
num_cat=0
split_feature=5 5 5 7 7 5 7 14 30 11 27 20 6 20 14 14 20 14 27 14 11 23 27 0 7 27 11 20 11 5
split_gain=4282.18 984.594 692.184 423.795 380.172 257.303 202.829 198.761 134.484 167.531 118.314 116.286 86.1341 85.525 72.6719 64.9801 67.3641 60.0924 57.8793 56.2587 52.6472 49.6493 51.9609 45.0289 42.8685 41.8339 42.0586 41.5193 41.5146 40.6409
threshold=0.082724466169282238 0.15384615384615399 0.027907580477673954 3.5000000000000004 4.5000000000000009 0.27165775401069531 3.5000000000000004 4.5000000000000009 2.5000000000000004 1.5000000000000002 -0.062246153733517641 -0.12757192949866245 1.0000000180025095e-35 -0.71566083431945982 4.5000000000000009 5.5000000000000009 -1.1696150092381385 3.5000000000000004 -0.032791980033285976 3.5000000000000004 3.5000000000000004 -0.19214650873147218 -0.52360112372927003 1.5000000000000002 6.5000000000000009 -1.0978037777570282 1.5000000000000002 -1.2703358714742756 3.5000000000000004 0.011904761904761913
decision_type=2 2 2 2 2 2 2 2 2 2 2 2 2 2 2 2 2 2 2 2 2 2 2 2 2 2 2 2 2 2
left_child=2 4 29 8 7 6 15 10 9 11 12 -4 20 14 -11 16 28 18 -18 21 -2 -7 -23 -12 -5 -14 -27 -9 -3 -1
right_child=1 5 3 24 -6 19 -8 27 -10 13 23 -13 25 -15 -16 -17 17 -19 -20 -21 -22 22 -24 -25 -26 26 -28 -29 -30 -31
leaf_value=-0.05319757217946889 0.082076441627887783 0.15631482874023206 0.069752597635119332 -0.026044600016737904 -0.015521087495594416 0.18878805680086208 0.019382018986545735 0.036897520149370325 -0.017393987303065319 0.028876338679244586 0.035166684500724459 0.014890895253722634 0.075789185047743471 -0.01250010710755161 -0.0091582959968747098 0.018646565234693244 0.10682825790913855 0.055119430628919198 0.069841156658572837 0.098098339403661541 0.03322656320748376 0.18718868684351886 0.10197564133533206 0.0050732270973613963 -0.042950276416759102 0.063223262379312348 0.025891085707990986 -0.0045805105202361618 0.093088115236993355 -0.038266288237219129
leaf_weight=1444.1272424980998 315.26772997528315 47.785667672753334 157.59331108629704 850.19047050923109 451.41256022453308 52.145212486386299 159.24547048658133 74.772359944880009 736.77562360465527 325.46963227540255 517.67239675670862 249.51959572732449 75.625807702541351 690.94045729935169 204.49639232456684 39.039701983332634 219.62921465188265 189.12221314013004 204.02588049322367 82.450757309794426 66.850831888616085 25.323017627000809 60.945388667285442 163.58512058854103 670.88368556648493 100.68963312357664 300.91141013801098 312.42342352867126 56.847502507269382 665.86153030395508
leaf_count=23366 4205 579 2176 13298 6810 568 2282 1080 10978 4678 7161 3612 1012 10315 3046 532 2658 2462 2627 955 922 278 683 2285 10501 1347 4091 4525 731 10480
internal_value=0.000258805 0.0440705 -0.0254309 -0.0129125 0.0257825 0.0823538 0.07067 0.0354541 0.000330409 0.00835175 0.0435028 0.0361278 0.0558399 -0.000910223 0.0142 0.081467 0.0848855 0.0785543 0.0890158 0.130794 0.0735303 0.150271 0.126989 0.0279406 -0.033501 0.0416751 0.035251 0.00342942 0.121964 -0.0484856
internal_weight=9511.63 3515.77 5995.86 3885.87 2379.21 1136.56 915.696 1927.8 2364.8 1628.02 1540.6 407.113 859.345 1220.91 529.966 756.45 717.41 612.777 423.655 220.864 382.119 138.414 86.2684 681.258 1521.07 477.227 401.601 387.196 104.633 2109.99
internal_count=140243 47793 92450 58604 33438 14355 11871 26628 34805 23827 21023 5788 11577 18039 7724 9589 9057 7747 5285 2484 5127 1529 961 9446 23799 6450 5438 5605 1310 33846
is_linear=0
shrinkage=0.05


Tree=3
num_leaves=31
num_cat=0
split_feature=5 5 5 7 7 14 7 5 27 5 14 27 7 7 11 7 21 11 0 25 30 14 20 5 7 27 26 14 20 11
split_gain=3800.9 784.419 674.777 402.933 357.655 187.161 185.138 110.534 104.755 96.9683 69.595 84.5758 58.7646 111.352 56.7391 59.7713 53.206 52.4375 54.0817 51.4676 50.1374 45.7958 64.626 41.5804 39.1244 37.8496 36.7563 36.158 45.1431 45.3048
threshold=0.082724466169282238 0.16637220259128391 0.027907580477673954 4.5000000000000009 4.5000000000000009 4.5000000000000009 3.5000000000000004 0.052631578947368453 -0.75443584408070008 0.27165775401069531 4.5000000000000009 -0.14829870274682988 1.5000000000000002 2.5000000000000004 1.5000000000000002 2.5000000000000004 -0.98744982870914555 3.5000000000000004 1.5000000000000002 -1.0644008923188018 2.5000000000000004 3.5000000000000004 -0.7385621574454454 0.011904761904761913 1.5000000000000002 -1.041854165093375 1.0000000180025095e-35 4.5000000000000009 -0.070102526507154733 1.5000000000000002
decision_type=2 2 2 2 2 2 2 2 2 2 2 2 2 2 2 2 2 2 2 2 2 2 2 2 2 2 2 2 2 2
left_child=2 4 23 7 5 8 9 20 17 21 11 14 16 -14 15 -9 -10 18 -2 -16 27 22 -3 -1 -24 -26 -15 28 29 -4
right_child=1 6 3 -5 -6 -7 -8 10 12 -11 -12 -13 13 26 19 -17 -18 -19 -20 -21 -22 -23 24 -25 25 -27 -28 -29 -30 -31
leaf_value=-0.052997560566124903 0.098854586119866555 0.12441611908440786 0.038252433306305365 -0.037361227515848014 -0.013502669562366721 0.0043229972952094466 0.026236055322598741 0.092860028251038354 0.06110700689612994 0.1152648613757711 -0.01343343525402429 0.00064153560056156927 0.068084074090854527 0.037118090875592293 0.041086398083307274 0.025499390756391439 0.019970557712659744 0.032725815317385526 0.056296058971317536 0.0036331742539817712 -0.027375523426522209 0.060027154023549745 0.06020708786434345 -0.037610221585195641 0.20628297288741537 0.090115552224655338 0.00096576328091201578 -0.023207355611558844 -0.0163376478961356 0.00048009673889682221
leaf_weight=1378.7497320994735 128.8883917927742 91.019583620131016 105.37851341441274 1139.351936455816 471.52569383382797 414.45764449238777 148.18420607596636 61.409579336643219 89.908050157129765 221.34993363171816 299.34806841611862 576.60377739369869 300.9117498844862 229.97326306253672 153.77127516269684 71.0158576592803 625.21190720051527 101.42020903527737 177.38074441999197 227.33537767082453 388.7029855363071 247.42628767341375 166.79769130796194 644.15746281668544 7.4321266785264006 123.99877264350653 101.26612314581871 229.14052949473262 269.43797446787357 321.82440251484513
leaf_count=23366 1532 990 1467 18388 7191 5963 2010 816 1176 2216 4508 8466 3737 3100 2165 1033 8425 1335 2247 3330 6000 3036 1967 10480 77 1406 1385 3528 4093 4810
internal_value=0.000196128 0.040278 -0.0247236 -0.0124207 0.025965 0.0345433 0.0778447 -0.00191176 0.0416803 0.0867577 0.00792082 0.0137846 0.0349604 0.0460669 0.028542 0.0567365 0.0251424 0.0638871 0.0742061 0.018745 -0.0123053 0.0768467 0.0875381 -0.0480977 0.0762829 0.0966846 0.0260656 -0.00597791 -0.000310765 0.00979743
internal_weight=9513.38 3647.15 5866.23 3843.32 2640.94 2169.42 1006.21 2703.97 1754.96 858.024 1389.48 1090.14 1347.27 632.151 513.532 132.425 715.12 407.689 306.269 381.107 1314.48 636.674 389.248 2022.91 298.229 131.431 331.239 925.781 696.641 427.203
internal_count=140243 47793 92450 58604 36091 28900 11702 40216 22937 9692 20318 15810 17823 8222 7344 1849 9601 5114 3779 5495 19898 7476 4440 33846 3450 1483 4485 13898 10370 6277
is_linear=0
shrinkage=0.05


Tree=4
num_leaves=31
num_cat=0
split_feature=5 5 5 7 7 7 3 3 5 11 20 27 11 25 11 25 5 5 3 11 5 14 28 5 11 27 21 27 14 24
split_gain=3385.98 665.349 645.627 375.755 263.733 178.706 114.573 110.125 109.075 88.8117 92.0098 59.8786 57.9987 64.8845 57.1198 54.0805 48.8723 48.0561 45.8528 45.1459 42.5438 42.1424 39.4948 36.3195 34.0645 42.8518 33.2787 33.0498 32.1429 31.8764
threshold=0.081632653061224539 0.1471728226174191 0.027907580477673954 4.5000000000000009 3.5000000000000004 3.5000000000000004 0.070127468722952307 0.081080230964524033 0.19478319783197839 2.5000000000000004 -0.6339175009465704 -0.47597615621273764 1.5000000000000002 -0.36337555839975083 1.5000000000000002 -1.3991020044306333 0.051818870784388037 0.39444444444444454 0.083082662395425028 2.5000000000000004 0.011904761904761913 4.5000000000000009 0.23764660700776849 0.28248081841432232 1.5000000000000002 -0.21021551822485182 -0.27932090943892302 0.12839175852159726 4.5000000000000009 -0.57532185390178459
decision_type=2 2 2 2 2 2 2 2 2 2 2 2 2 2 2 2 2 2 2 2 2 2 2 2 2 2 2 2 2 2
left_child=2 4 20 7 6 8 21 16 18 10 26 19 13 -13 22 -11 -4 28 24 29 -1 -2 -12 -7 25 -3 27 -8 -10 -9
right_child=1 5 3 -5 -6 23 9 11 17 15 14 12 -14 -15 -16 -17 -18 -19 -20 -21 -22 -23 -24 -25 -26 -27 -28 -29 -30 -31
leaf_value=-0.052806858472922359 0.022055505032908412 0.11319586163389866 -0.0198269536911901 -0.03686465354993014 -0.0078537274749077429 0.015301631819060302 0.11886064764830623 0.11029302019159835 0.088035201389206189 0.050603546166950279 0.074160149962710573 0.058194198409205582 -0.0081384836494106001 0.0046224656113532823 0.022593520240597405 0.01023829151858152 -0.0022107440958719421 0.15195113614026806 0.070711980142761408 0.010190492314899508 -0.036950522257741286 -0.0066240534685291551 0.027346070174312523 0.085004576767764073 0.031165009860181139 0.047303530886632555 0.061911268229546373 0.0071729257136432445 0.05451987983601693 0.039032717148852786
leaf_weight=1316.1240665391088 657.01202803105116 32.790720291435719 739.40112624689937 1093.033891633153 617.29267701134086 199.9128876850009 76.431639216840267 17.610840305685997 481.82414399087429 123.06365817040205 150.37294436991215 81.432134550064802 475.43860926479101 184.76111038029194 191.88707131147385 254.74829937517643 842.1147794239223 26.498812481760979 296.111806884408 175.84555752947927 623.40560165420175 159.10916523635387 64.32612568885088 20.615884460508823 207.67648683488369 99.679806210100651 67.077354483306408 7.2521481588482848 84.011722937226295 144.12795767188072
leaf_count=23366 8588 343 11530 18224 9309 2790 911 240 4794 1607 1777 1037 7134 2660 2535 3376 12503 235 3400 2543 10480 2284 777 227 2526 1206 804 90 937 2010
internal_value=0.000143592 0.0365754 -0.0242861 -0.0121831 0.0202485 0.0632615 0.030154 -0.00204387 0.0707005 0.0421013 0.0547876 0.01027 0.00232404 0.0210108 0.042417 0.0233864 -0.0104468 0.086141 0.0563259 0.0277264 -0.0477103 0.0164642 0.0601342 0.0218177 0.0438023 0.063614 0.0881499 0.109182 0.0830591 0.0467919
internal_weight=9510.99 3817.7 5693.3 3753.77 2368.57 1449.12 1751.28 2660.73 1228.59 935.159 557.347 1079.22 741.632 266.193 406.586 377.812 1581.52 592.335 636.259 337.584 1939.53 816.121 214.699 220.529 340.147 132.471 150.761 83.6838 565.836 161.739
internal_count=140243 48516 91727 57881 32058 16458 22749 39657 13441 11877 6894 15624 10831 3697 5089 4983 24033 5966 7475 4793 33846 10872 2554 3017 4075 1549 1805 1001 5731 2250
is_linear=0
shrinkage=0.05


Tree=5
num_leaves=31
num_cat=0
split_feature=5 5 5 7 7 14 23 11 27 14 7 14 5 27 11 20 5 27 11 23 5 15 27 24 4 15 5 23 24 22
split_gain=3026.36 579.364 550.822 359.1 308.782 171.62 140.964 96.5386 92.7821 124.458 81.886 70.2781 64.7389 64.1059 53.7886 55.6287 53.5418 49.3987 46.9505 72.5661 44.8267 42.9112 42.811 35.3816 34.2031 36.25 33.8567 33.8463 33.8197 33.1448
threshold=0.077097902097902141 0.18490028490028498 0.027907580477673954 4.5000000000000009 4.5000000000000009 3.5000000000000004 -1.0000000180025095e-35 4.5000000000000009 -0.044237108509288428 4.5000000000000009 3.5000000000000004 5.5000000000000009 0.10626411506002616 -0.54430967903583671 1.5000000000000002 -0.71566083431945982 0.31558704453441294 -0.71101833847310514 1.5000000000000002 -0.59720031459280942 0.01065722722798516 455.00000000000006 -1.1998812445006128 0.98622277834919869 142.50000000000003 435.00000000000006 0.12937598459653424 -1.3391045288966688 -0.37882865780479846 -0.46223311807702672
decision_type=2 2 2 2 2 2 2 2 2 2 2 2 2 2 2 2 2 2 2 2 2 2 2 2 2 2 2 2 2 2
left_child=2 3 20 5 8 6 7 18 9 14 16 13 -8 26 17 -16 -3 -4 24 27 -1 -14 -23 -21 -2 -26 -7 -20 29 -27
right_child=1 10 4 -5 -6 11 12 -9 -10 -11 -12 -13 21 -15 15 -17 -18 -19 19 23 -22 22 -24 -25 25 28 -28 -29 -30 -31
leaf_value=-0.052656744347547441 0.12845595731566226 0.069169580598431618 0.073152356496285834 -0.013654044940051808 -0.036772467305135753 0.022993551300717563 0.011524532007016692 0.0051653183950790922 -0.014785041034566944 -0.018601374754109955 0.026358671646886062 -0.01296834222274186 0.017785034120950182 0.0072677708376597027 0.021338920825364344 -0.006679603033215519 0.10387702047587682 0.021845986760665761 0.17664922900784191 0.032506591017684355 -0.03620580785536355 0.15359268890811137 0.045039087654655002 0.14219884753951839 0.019773141384104579 0.064554288483664776 0.049588105560570445 0.073614277732333505 0.075112736283638348 0.2091812792653879
leaf_weight=1229.1700782179832 33.953555479645729 562.51608236134052 60.356332913041115 565.37743163108826 1004.4498502761126 322.17268645763397 373.42607185989618 79.182074256241322 1096.1660436838865 405.82462793216109 94.13175456225872 184.62541167810559 174.45141347497702 467.34545516967773 348.16775865107775 360.6645943634212 138.4725696593523 210.66823192313313 8.3841052427887899 232.03799982368946 624.46345034986734 9.3058002665638906 378.55939150601625 7.5918375775218001 26.537693150341511 6.6457015424966821 190.39942979067564 161.54316639900208 144.59125115722418 9.8079298734664917
leaf_count=22864 380 5538 824 8803 17301 4231 4993 997 16692 6313 1174 2626 2135 6157 4904 5487 1147 2923 91 2860 10871 100 4582 88 298 72 2271 1851 1623 106
internal_value=-0.000164406 0.0317482 -0.0250916 0.0227046 -0.0133821 0.0300186 0.040411 0.0572057 -0.00391558 0.00468289 0.0701457 0.0153294 0.027663 0.0206609 0.0143265 0.00708267 0.0760257 0.0332718 0.0637351 0.053705 -0.0471147 0.0383803 0.0476435 0.0359818 0.082278 0.0739196 0.0328723 0.078698 0.0828421 0.150766
internal_weight=9510.99 4171.06 5339.93 3375.94 3486.3 2810.56 1646.02 710.275 2481.85 1385.68 795.12 1164.54 935.743 979.918 979.857 708.832 700.989 271.025 631.093 409.557 1853.63 562.317 387.865 239.63 221.536 187.583 512.572 169.927 161.045 16.4536
internal_count=140302 52123 88179 44264 54444 35461 20176 8366 37143 20451 7859 15285 11810 12659 14138 10391 6685 3747 7369 4890 33735 6817 4682 2948 2479 2099 6502 1942 1801 178
is_linear=0
shrinkage=0.05


Tree=6
num_leaves=31
num_cat=0
split_feature=5 5 5 7 7 7 5 14 23 27 14 27 3 5 3 6 5 5 6 5 23 3 14 28 7 20 3 7 27 20
split_gain=2722.99 517.966 516.707 271.723 223.055 175.768 125.208 99.1147 78.1486 77.759 104.25 62.9854 46.0161 45.8425 42.4745 41.7499 38.7466 38.6189 35.1071 34.3568 34.1048 34.0195 32.5011 31.3724 30.5543 30.2121 29.9022 35.5632 29.7267 29.6392
threshold=0.076439543869569346 0.027907580477673954 0.12793235133660671 4.5000000000000009 4.5000000000000009 3.5000000000000004 0.20881782945736435 3.5000000000000004 -0.093587522386114466 -0.044237108509288428 4.5000000000000009 -1.0844351634253824 0.083082662395425028 0.01065722722798516 0.090661524076671329 1.0000000180025095e-35 0.064611005692599657 0.39444444444444454 1.0000000180025095e-35 0.3026779422128259 -0.86094436154791076 0.052776860276893725 3.5000000000000004 0.020119229864274123 1.5000000000000002 0.24141697702841722 0.083813578198688135 2.5000000000000004 -0.17674363525614692 -0.97542787832318445
decision_type=2 2 2 2 2 2 2 2 2 2 2 2 2 2 2 2 2 2 2 2 2 2 2 2 2 2 2 2 2 2
left_child=1 13 4 9 7 6 11 8 20 10 15 21 -13 -1 -9 16 -3 23 29 -7 -2 -4 25 -8 -22 -20 -26 28 -28 -14
right_child=2 3 5 -5 -6 19 17 14 -10 -11 -12 12 18 -15 -16 -17 -18 -19 22 -21 24 -23 -24 -25 26 -27 27 -29 -30 -31
leaf_value=-0.052484149609814658 0.081273914179639195 0.015388983952401711 0.034789792105348605 -0.036017848730720135 -0.019774169274153632 0.0094050618231463767 0.07476512175906104 -0.0016506398731107243 0.019412505689000579 -0.01459437456647022 -0.018349313377457321 0.029138054592075632 0.10448687127694556 -0.035537986082994952 0.023385483833984554 0.00208889578023252 0.050057576124946081 0.12524876755737993 0.06512526708639349 0.090687082179732204 0.028313237012201009 0.085247142151853139 0.020503833754397592 0.043416897821235666 0.035045395427905024 0.014455067508435096 0.14325067056008153 0.030979610061596843 0.065142599595650816 0.056625657879732387
leaf_weight=1172.9707368016243 62.482179872691631 372.23338698968291 45.478740617632866 946.89586084336042 436.50015052780509 308.65001846849918 439.80936463177204 528.17955485358834 671.11188753321767 1051.6436023339629 388.16243455931544 543.83467371761799 42.000449202954769 604.88911820203066 249.40034528449178 489.53398334607482 102.86542919278145 32.445839032530785 133.50479640066624 13.572307065129278 196.34122461825609 125.83703911304474 126.01066172868013 97.504697687923908 68.059650652110577 37.732650436460972 25.275871604681015 23.727470181882381 23.513177379965782 140.74308108538389
leaf_count=22864 707 5291 532 16848 7039 4307 3877 7213 8634 16230 6140 6249 436 10871 3279 7083 1390 240 1380 131 2423 1319 1481 865 795 411 249 273 246 1499
internal_value=-0.000191219 -0.0249034 0.0288028 -0.0133307 0.0123729 0.0467873 0.0529871 0.0199657 0.0298343 -0.00439625 0.00353162 0.0437919 0.0390966 -0.0467185 0.00637943 0.0123364 0.0228952 0.0722753 0.0503797 0.0128287 0.047346 0.0718524 0.0397771 0.0690765 0.041054 0.0539599 0.0588488 0.0811893 0.105608 0.0676257
internal_weight=9500.91 5129.19 4371.72 3351.33 2284.59 2087.12 1764.9 1848.09 1070.51 2404.44 1352.8 1195.14 1023.83 1777.86 777.58 964.633 475.099 569.76 479.992 322.222 399.4 171.316 297.248 537.314 336.917 171.237 140.576 72.5165 48.789 182.744
internal_count=140302 86717 53585 52982 30858 22727 18289 23819 13327 36134 19904 13307 11456 33735 10492 13764 6681 4982 5207 4438 4693 1851 3272 4742 3986 1791 1563 768 495 1935
is_linear=0
shrinkage=0.05


Tree=7
num_leaves=31
num_cat=0
split_feature=7 3 14 27 7 11 27 23 11 27 11 14 25 23 14 22 14 15 15 14 26 15 20 11 25 21 8 27 14 27
split_gain=1328.73 324.239 227.538 151.072 124.747 119.303 96.4954 92.6727 98.2177 64.2132 69.9242 57.7134 52.8843 50.7686 50.4813 47.8781 44.4955 41.4282 39.8589 39.4448 38.6667 40.8868 34.0758 32.8456 32.192 31.1391 30.7271 29.7264 29.5726 37.7324
threshold=3.5000000000000004 0.067821300841753168 3.5000000000000004 0.028845680043138051 6.5000000000000009 4.5000000000000009 -0.48488352834487053 -0.70978157666521302 1.5000000000000002 -0.59199838788381154 1.5000000000000002 3.5000000000000004 -0.85466913097570718 0.12973450119275323 4.5000000000000009 0.15429200875192656 5.5000000000000009 469.00000000000006 457.00000000000006 5.5000000000000009 0.017006164223564327 453.00000000000006 -1.1488579642717358 1.5000000000000002 -0.82146380786724393 -1.0030943228625839 5.5000000000000009 -1.0844351634253824 3.5000000000000004 -0.52360112372927003
decision_type=2 2 2 2 2 2 2 2 2 2 2 2 2 2 2 2 2 2 2 2 2 2 2 2 2 2 2 2 2 2
left_child=1 9 3 5 14 7 16 -3 18 10 -1 17 -10 23 15 20 22 -11 -9 25 21 -2 -4 -5 -19 -12 -24 -14 29 -23
right_child=4 2 6 13 -6 -7 -8 8 12 11 19 -13 27 -15 -16 -17 -18 24 -20 -21 -22 28 26 -25 -26 -27 -28 -29 -30 -31
leaf_value=0.051421134692754257 -0.017285829474580666 0.079040950023782308 0.040143539638813501 0.044334148045365417 -0.039432173675575173 0.0022910510109636008 -0.0032300288023505465 0.037795112691954208 0.048651423884115037 -0.00829374278730384 0.027035854089049845 -0.021794739285786634 0.060893875485701146 0.00089005313035876374 -0.033110024549509683 -0.025291519665017304 -0.0094849878637128047 0.048628329086261801 0.067256503807134188 -0.018841171293558931 -0.022819887951599917 0.059223560709931233 0.00032408277067252304 0.014208808200543335 0.0055201221489348017 0.0037330155743576302 0.028029758852527138 0.0079997028602383953 -0.016415001483106567 0.010852438501258093
leaf_weight=94.294617518782616 180.65877297520638 207.58445316925645 256.48126983642578 163.6058817319572 1284.7720451839268 156.79930410906672 853.84106132760644 173.33998898416758 161.20740827545524 820.20486020296812 206.28207775577903 423.19337372481823 29.439397789537907 342.45582912862301 457.4881618283689 526.38177975267172 103.00299645215273 46.680501610040665 339.96893323212862 134.12610232457519 226.86568266153336 49.473383769392967 166.39054520428181 202.43268255889416 599.45870166271925 469.98762018233538 251.09385262057185 271.80371195450425 71.408683679997921 217.82108222320676
leaf_count=1122 3019 2213 3156 1942 23488 1940 12312 1992 1883 12167 2740 6400 331 4629 7959 9036 1531 594 3702 2077 3847 764 2192 2784 8486 6465 3262 3524 1194 3551
internal_value=-0.000212114 0.0125566 0.022308 0.0334017 -0.0276297 0.0432741 0.00837202 0.0487045 0.0422507 -0.000284068 0.0106701 -0.0055288 0.0255379 0.0147277 -0.0188652 -0.0137443 0.021122 -0.00083438 0.0573076 0.00592845 -0.00559907 0.00192326 0.0257997 0.0276737 0.00863449 0.0108411 0.0169875 0.0131689 0.0121691 0.0198054
internal_weight=9488.54 6473.68 3679.45 2048.64 3014.87 1340.14 1630.81 1183.34 975.759 2794.23 904.69 1889.54 462.451 708.494 1730.1 1272.61 776.969 1466.34 513.309 810.396 746.228 519.362 673.966 366.039 646.139 676.27 417.484 301.243 338.703 267.294
internal_count=140302 87444 47393 24940 52858 15585 22453 13645 11432 40051 12404 27647 5738 9355 29370 21411 10141 21247 5694 11282 12375 8528 8610 4726 9080 9205 5454 3855 5509 4315
is_linear=0
shrinkage=0.05


Tree=8
num_leaves=31
num_cat=0
split_feature=5 5 5 7 7 5 14 27 7 14 11 30 3 25 11 11 23 20 27 28 14 20 11 7 11 25 27 11 5 3
split_gain=2408.02 538.518 396.846 243.322 187.359 148.99 79.0308 88.0656 78.645 74.2281 56.0178 53.3968 47.1459 43.8167 45.7366 41.3005 76.7751 39.5995 36.3831 36.3686 38.641 33.8512 37.6707 29.9728 28.619 31.7743 27.0294 45.2278 26.6516 27.923
threshold=0.064611005692599657 0.12184517497348887 0.020876917712691779 4.5000000000000009 4.5000000000000009 0.21525096525096532 4.5000000000000009 -0.21570658949565161 6.5000000000000009 4.5000000000000009 1.5000000000000002 2.5000000000000004 0.076298895598716068 -1.0082394719801349 2.5000000000000004 1.5000000000000002 0.22504975588175888 -0.30070197876520754 -1.0978037777570282 1.0000000180025095e-35 4.5000000000000009 0.48907266883020201 1.5000000000000002 2.5000000000000004 2.5000000000000004 -0.70353969673212824 -0.21021551822485182 1.5000000000000002 0.095906465874178448 0.097415321689006532
decision_type=2 2 2 2 2 2 2 2 2 2 2 2 2 2 2 2 2 2 2 2 2 2 2 2 2 2 2 2 2 2
left_child=2 3 -1 6 11 8 7 10 9 12 23 15 26 14 -12 16 -4 24 -14 20 -7 22 -20 -2 25 -17 27 -3 29 -9
right_child=1 5 4 -5 -6 19 -8 28 -10 -11 13 -13 18 -15 -16 17 -18 -19 21 -21 -22 -23 -24 -25 -26 -27 -28 -29 -30 -31
leaf_value=-0.049674000320278681 0.070388600851332972 0.069897756480066867 0.030243908132175531 -0.022621360167580568 -0.036842925672454806 0.072209008949471618 -0.0040671805994764608 -0.003387933521663564 -0.011743692189124112 0.011199451896108579 0.063211245760373277 -0.021865743290992803 0.081258999484276284 0.011011123638096348 0.023227632156849923 0.019590227621769735 -0.011143222971837029 -0.023815013310980439 0.067226856517382722 0.036719974510852627 0.032708980159009797 0.016246140543547751 0.040040225933795685 0.033579813017436871 -0.011376131952753677 -0.015804569792559866 0.020171293770054364 0.02850997585745535 0.02034312741538831 0.022669255630678536
leaf_weight=1384.8910087049007 116.31324809789658 93.06091396510601 213.39162530004978 528.27982287108898 865.2397837266326 446.92357873171568 430.87165572121739 451.1326928883791 93.930164746940136 267.83434278517962 109.36729776114225 596.14341724663973 76.683808736503124 329.8091251142323 206.68773475661874 208.42620545625687 235.96059290319681 334.27598823979497 194.06615759804845 125.2777907922864 71.871448203921318 89.281277757138014 371.02157302573323 105.43989246338606 423.00886636599898 91.130517095327377 331.48290822282434 227.07255819067359 328.95941454917192 133.15988211706281
leaf_count=28150 1181 984 2872 9167 16377 3657 6361 6327 1438 3468 1235 9649 686 4212 2477 3055 3551 5385 1942 1110 675 1046 3897 1285 6518 1441 3925 2477 4006 1748
internal_value=-0.000220496 0.0229932 -0.0275733 0.00786597 -0.0172595 0.0403467 0.0151479 0.0197969 0.0327588 0.0352914 0.0312044 -0.00919968 0.0399582 0.0237599 0.0370635 -0.00418653 0.008511 -0.00958531 0.048675 0.0608983 0.0667369 0.0448565 0.0493768 0.0528866 -0.00300231 0.0088225 0.0301788 0.0405412 0.00895951 0.00255048
internal_weight=9481 5128.53 4352.47 2740.02 2967.58 2388.51 2211.74 1780.87 1744.43 1650.5 867.617 2102.34 1382.67 645.864 316.055 1506.19 449.352 1056.84 731.053 644.073 518.795 654.369 565.088 221.753 722.566 299.557 651.616 320.133 913.252 584.293
internal_count=140302 63304 76998 37999 48848 25305 28832 22471 19863 18425 10390 32471 14957 7924 3712 22822 6423 16399 7571 5442 4332 6885 5839 2466 11014 4496 7386 3461 12081 8075
is_linear=0
shrinkage=0.05


Tree=9
num_leaves=31
num_cat=0
split_feature=7 3 14 7 27 23 27 14 27 11 11 14 22 11 11 24 11 27 23 25 26 11 25 23 11 25 14 4 28 4
split_gain=1127.83 267.277 148.913 118.442 110.158 78.5544 76.4414 74.8019 95.298 61.9956 58.1964 47.2421 44.0408 42.3413 42.2999 40.3507 40.1417 58.8705 49.0432 36.1949 35.6643 30.8794 38.6283 30.2025 29.593 43.9948 28.7106 32.7118 28.3446 26.9163
threshold=3.5000000000000004 0.073534460561325302 3.5000000000000004 6.5000000000000009 -0.46124175555111663 0.051315989645250727 -0.48488352834487053 5.5000000000000009 -0.60644941184940626 4.5000000000000009 1.5000000000000002 4.5000000000000009 0.15429200875192656 1.5000000000000002 1.5000000000000002 -0.71249000525641282 1.5000000000000002 -0.052171545291197698 -0.33170589213406132 -1.9633186812774968 0.44125445032390315 1.5000000000000002 -1.0082394719801349 -1.0824321051502319 1.0000000180025095e-35 0.26574927480792093 3.5000000000000004 663.50000000000011 -1.1518380244710908 180.50000000000003
decision_type=2 2 2 2 2 2 2 2 2 2 2 2 2 2 2 2 2 2 2 2 2 2 2 2 2 2 2 2 2 2
left_child=1 7 4 11 9 14 -4 8 10 15 -1 12 20 -7 -6 -3 17 -10 26 -12 -2 -17 -23 -16 29 -26 27 -18 -24 -19
right_child=3 2 6 -5 5 13 -8 -9 16 -11 19 -13 -14 -15 23 21 18 24 -20 -21 -22 22 28 -25 25 -27 -28 -29 -30 -31
leaf_value=0.046958083585991302 6.3007184620016311e-05 0.09404953023782904 0.021803212233856638 -0.03829430942581822 0.048911620192868967 0.016184080157673839 -0.0018250835564537109 -0.025040901223103203 0.027783843544372369 0.0093621408036601642 0.064764544835217513 -0.031916957648506675 -0.024118051818337982 -0.01520988683744756 0.085469631219632899 0.064111199595078078 0.013918047594378567 -0.010526632390429176 -0.024152953259912922 0.0094821604061291719 -0.029019760271743095 0.058631130053220321 0.093458926736011472 0.01957160128370955 0.0072835293411379334 -0.029267647311360091 -0.0082006640539542975 0.11799525765764754 0.017393772405597498 0.0096245836916455402
leaf_weight=133.29200836271048 609.02325310185552 54.844643823802471 634.45544563606381 1203.2779340036213 261.39935539662838 388.64081208780408 743.33928456157446 248.97900782525539 199.73997714743018 93.555582411587238 30.703448947519064 435.3126569353044 507.10061507299542 148.41734911128879 18.270146735012531 203.06832313165069 117.1549747698009 235.94648860394955 388.0144857801497 830.09374310821295 127.4804827645421 139.426612816751 13.267475355416535 359.92856619134545 141.17475867271423 197.49710032343864 278.48239018023014 8.0698071084916574 159.27167403697968 556.68999108672142
leaf_count=1440 10127 495 7997 23488 2733 4756 10721 3987 2426 1110 367 7959 9036 2086 195 1958 1520 3818 5852 10958 2248 1401 133 4593 1951 3062 4060 97 1853 7875
internal_value=-0.000236908 0.0111823 0.0214856 -0.0263216 0.0307929 0.0216068 0.00905542 0.00133194 0.00343864 0.0470853 0.0162146 -0.0177407 -0.0127785 0.00750828 0.033445 0.0532782 -0.0025443 0.00275851 -0.0114594 0.011454 -0.00497089 0.0489366 0.0390589 0.022755 -0.00165988 -0.0140314 0.000740703 0.0206251 0.0232428 0.00362611
internal_weight=9465.92 6583.72 3217.89 2882.19 1840.09 1176.66 1377.79 3365.84 3116.86 663.434 994.089 1678.92 1243.6 537.058 639.598 569.879 2122.77 1331.05 791.722 860.797 736.504 515.034 311.966 378.199 1131.31 338.672 403.707 125.225 172.539 792.636
internal_count=140302 87444 40031 52858 21313 14363 18718 47413 43426 6950 12765 29370 21411 6842 7521 5840 30661 19132 11529 11325 12375 5345 3387 4788 16706 5013 5677 1617 1986 11693
is_linear=0
shrinkage=0.05


Tree=10
num_leaves=31
num_cat=0
split_feature=5 5 5 7 7 5 7 14 27 7 7 14 5 6 11 20 20 25 14 23 2 25 26 14 7 15 11 20 11 20
split_gain=2146.68 545.892 338.439 204.221 145.896 124.116 68.3663 65.0321 78.1044 55.825 53.8828 45.3975 39.4535 38.3459 35.4656 34.6008 33.833 29.9312 29.7664 30.4395 28.9812 26.414 26.206 25.1778 24.9679 24.5653 24.5594 24.4925 23.8922 25.2234
threshold=0.060606060606060615 0.12000000000000002 0.022222222222222237 4.5000000000000009 3.5000000000000004 0.20881782945736435 2.5000000000000004 4.5000000000000009 -0.21570658949565161 1.5000000000000002 1.5000000000000002 4.5000000000000009 0.31558704453441294 1.0000000180025095e-35 1.5000000000000002 0.24880913995062506 -1.0670384927025898 -0.66736000591473066 3.5000000000000004 -0.42250715228964214 0.067821300841753168 -0.50923516793318424 0.04067633009705373 4.5000000000000009 2.5000000000000004 517.00000000000011 3.5000000000000004 -0.5626285331710088 1.5000000000000002 -0.12024396641586592
decision_type=2 2 2 2 2 2 2 2 2 2 2 2 2 2 2 2 2 2 2 2 2 2 2 2 2 2 2 2 2 2
left_child=2 3 -1 7 9 6 10 8 14 17 16 15 -7 -8 20 24 25 23 19 -18 -2 -16 -15 -4 -11 26 -3 -10 29 -29
right_child=1 5 4 -5 -6 12 13 -9 27 11 -12 -13 -14 22 21 -17 18 -19 -20 -21 -22 -23 -24 -25 -26 -27 -28 28 -30 -31
leaf_value=-0.048795291284463631 0.020097515789999632 0.060621267858575405 -0.00040260120313554012 -0.021453527704855462 -0.033317639218572774 0.047733160974963648 0.034814581388651941 -0.0051821992106305843 0.026471047105185004 0.028241784199889985 0.051532865978276589 -0.019784771343963999 0.074742196450288234 0.014263975261863486 0.024235976133303982 -0.012474909471622719 0.055176733199901268 -0.025572411689338333 0.0079957409691259994 0.023947848863223486 0.055280095244131869 -0.0029803379753446336 -0.015463827706449846 -0.026718706264400378 0.0022191061074115261 0.09587995887399689 0.02476244590792144 0.036812369288312961 -0.0093561368992332913 0.0048875461319386618
leaf_weight=1355.3838004283607 93.5363256521523 86.135025352239609 331.61410589516163 573.80975288897753 965.06622684746981 530.63594563305378 166.92679354920983 461.84843476116657 127.96251698955894 219.4601282030344 397.46209276467562 176.50914481282234 181.44240710139275 263.73286294937134 600.18299597129226 131.33252558857203 100.36636436730623 471.64705288037658 207.00270519405603 350.63090744614601 156.41256515309215 104.70069954171777 103.12018709257245 125.20690815523267 158.92813938483596 22.5588693395257 107.14561407268047 69.716489516198635 269.39689506217837 549.79832798242569
leaf_count=29023 1039 766 4837 10544 18750 4482 2049 6933 1548 2904 3854 2902 1264 3437 7102 1956 964 7838 2359 3856 1585 1388 1360 2069 2197 218 1159 787 3766 7425
internal_value=-0.000343976 0.0197585 -0.0285656 0.00537915 -0.0179372 0.0369381 0.0299647 0.011706 0.0156619 -0.00874464 0.0362699 0.00206938 0.0546152 0.0149476 0.0259316 0.00963716 0.0293276 -0.0167373 0.0236928 0.0308976 0.042114 0.0201934 0.00590767 -0.0076154 0.0173119 0.0465056 0.0407428 0.00601882 0.00307464 0.00848017
internal_weight=9459.67 5524.52 3935.15 3007.37 2579.76 2517.16 1805.08 2433.56 1971.71 1614.7 1271.3 686.23 712.078 533.78 954.833 509.721 873.839 928.468 658 450.997 249.949 704.884 366.853 456.821 378.388 215.84 193.281 1016.87 888.912 619.515
internal_count=140361 67885 72476 42117 43453 25768 20022 31573 24640 24703 13176 9959 5746 6846 11114 7057 9322 14744 7179 4820 2624 8490 4797 6906 5101 2143 1925 13526 11978 8212
is_linear=0
shrinkage=0.05


Tree=11
num_leaves=31
num_cat=0
split_feature=5 5 5 7 7 5 3 7 7 14 27 7 14 11 27 5 20 6 25 20 14 24 28 11 2 11 28 26 14 5
split_gain=1957.17 477.097 327.29 185.392 136.834 103.513 60.414 57.958 49.232 47.957 51.8628 44.4688 43.7178 36.534 35.6333 32.1033 31.5027 30.7887 29.9654 28.2832 25.542 26.0655 24.8139 23.7966 23.306 22.6197 24.2066 24.7584 22.445 20.9411
threshold=0.059850746268656725 0.12000000000000002 0.022222222222222237 4.5000000000000009 3.5000000000000004 0.20881782945736435 0.097415321689006532 2.5000000000000004 1.5000000000000002 4.5000000000000009 -0.21570658949565161 1.5000000000000002 4.5000000000000009 2.5000000000000004 0.40260938312102523 0.31558704453441294 0.24880913995062506 1.0000000180025095e-35 -0.66736000591473066 -1.0670384927025898 3.5000000000000004 1.2969537432530556 -0.6922751783040445 2.5000000000000004 0.067821300841753168 1.5000000000000002 0.11331325189448331 -1.632613522650517 4.5000000000000009 1.0000000180025095e-35
decision_type=2 2 2 2 2 2 2 2 2 2 2 2 2 2 2 2 2 2 2 2 2 2 2 2 2 2 2 2 2 2
left_child=2 3 29 6 8 7 9 11 18 10 23 19 16 17 -8 -7 -10 -9 28 -3 21 22 -21 24 -2 26 -13 -28 -4 -1
right_child=1 5 4 -5 -6 15 14 13 12 -11 -12 25 -14 -15 -16 -17 -18 -19 -20 20 -22 -23 -24 -25 -26 -27 27 -29 -30 -31
leaf_value=-0.052408653697409407 0.013435872585072806 0.042620139226643899 -0.00024244495762182312 -0.020702652272932512 -0.03282266450012853 0.043797707502721307 0.032666124658470436 0.038499953467679968 0.01636215926681266 -0.0090622920121644582 0.0016567372670738306 0.068249287173291359 -0.020245341548771389 -0.014737588772867422 0.0024117877892157304 0.067632041910000149 -0.012393252552335372 0.010673430590687871 -0.025271657968132612 0.057063955009443335 0.007546209202928463 -0.027901104576282212 0.025723404933696098 0.0075381127842790822 0.03514746738378427 0.033904444992880083 0.16586753696308038 0.026541916654150389 -0.025509750560869418 -0.038171596544338694
leaf_weight=940.90766726434231 210.86359908431768 223.48002139478922 326.95126151666045 572.55680615454912 923.29788799211383 548.90424593538046 416.31368668377399 148.68755254894495 375.31906437128782 385.25715143978596 791.68259042128921 159.75508747249842 170.29938535392284 91.710189539939165 127.01809900999069 190.24877545237541 127.63779285550117 299.92113243415952 453.88064136728644 76.323637925088406 208.33208262175322 19.525452174246311 366.11058681458235 258.53160579875112 298.67633054405451 182.55537797510624 3.3468092307448378 67.456395290791988 120.20315938442945 356.01362125948071
leaf_count=21506 2510 2143 4775 10739 18487 4482 4839 1747 4996 5861 10727 1315 2851 1242 1678 1264 1924 3857 7720 737 2359 208 3875 3122 3306 1930 28 581 2035 7517
internal_value=-0.000350971 0.0183093 -0.0281225 0.00495026 -0.0175408 0.0341194 0.0108529 0.0277919 -0.00857816 0.00673517 0.0106371 0.0334866 0.0016508 0.0140178 0.0255934 0.0499324 0.00906476 0.0198963 -0.0162213 0.0272161 0.0220803 0.0286349 0.0311299 0.0198936 0.0261625 0.0470528 0.0574636 0.0331277 -0.00703475 -0.0485005
internal_weight=9441.77 5647.26 3794.51 3060.9 2497.59 2586.36 2488.34 1847.2 1574.29 1945.01 1559.75 1306.89 673.256 540.319 543.332 739.153 502.957 448.609 901.035 893.772 670.292 461.96 442.434 768.072 509.54 413.114 230.558 70.8032 447.154 1296.92
internal_count=140361 68550 71811 42782 42788 25768 32043 20022 24301 25526 19665 13176 9771 6846 6517 5746 6920 5604 14530 9322 7179 4820 4612 8938 5816 3854 1924 609 6810 29023
is_linear=0
shrinkage=0.05


Tree=12
num_leaves=31
num_cat=0
split_feature=5 5 5 7 7 5 3 7 6 3 14 27 4 7 11 20 11 11 21 27 7 5 20 26 20 28 11 23 15 24
split_gain=1785.83 412.439 322.528 168.174 130.629 87.1023 53.6645 49.4006 44.4187 39.7686 42.4973 42.9956 37.409 37.0758 32.4578 32.0929 36.9169 27.6933 34.8958 29.5654 27.6929 26.5277 25.507 24.0323 23.8126 22.8483 24.4639 27.3549 32.9856 22.4183
threshold=0.059850746268656725 0.12000000000000002 0.022222222222222237 4.5000000000000009 4.5000000000000009 0.20881782945736435 0.067821300841753168 2.5000000000000004 1.0000000180025095e-35 0.05112530855234499 4.5000000000000009 -0.63220991877357335 4.5000000000000009 1.5000000000000002 2.5000000000000004 0.24880913995062506 1.5000000000000002 1.5000000000000002 0.016126377527981413 -0.9911422528328595 6.5000000000000009 0.31558704453441294 -0.41900143917625776 0.04067633009705373 -1.0670384927025898 0.010493762380559565 2.5000000000000004 -0.54763706736967677 471.00000000000006 0.68887325516454789
decision_type=2 2 2 2 2 2 2 2 2 2 2 2 2 2 2 2 2 2 2 2 2 2 2 2 2 2 2 2 2 2
left_child=2 3 -1 6 9 7 -2 13 22 -4 11 12 -11 24 20 16 -13 18 -10 -19 23 -7 -8 -9 -3 26 27 28 -26 -22
right_child=1 5 4 -5 -6 21 8 14 17 10 -12 15 -14 -15 -16 -17 -18 19 -20 -21 29 -23 -24 -25 25 -27 -28 -29 -30 -31
leaf_value=-0.048206049918788726 0.0016478436272355833 0.039187718460393033 -0.021344325594559441 -0.020041820118988019 -0.035561283347047119 0.040322656346205771 0.035928833731860531 0.031598831338769388 0.045907303792916257 0.21309260356042758 -0.022528516003451945 0.017216702830915084 0.015963150265764347 0.043144820816524633 -0.014178698848315019 -0.023568720633096774 -0.009901433029726266 0.029771418405351038 0.0058094935995091383 -0.0011190845559716884 0.03774676348041358 0.061574226520351244 0.015580673744675963 0.0018486210742388945 0.12038232601301944 0.00067682440549592668 0.011225165109503972 0.02757188557254352 0.032750974857607772 -0.022122264937521431
leaf_weight=1241.0401522479951 1057.753679189831 230.70590209215879 525.99599609524012 562.13362963870168 680.93833413720131 565.93755699694157 335.31559761241078 282.45128950849175 100.16969846561551 2.4305338747799388 270.00797577574849 198.67826588079333 244.91906314343214 427.54282794892788 90.588128168135881 195.28675087541342 340.736333116889 90.939797852188349 118.38472509384155 522.54682496935129 20.767786465585232 198.29687313735485 284.83416316285729 89.357735931873322 18.559898100793362 118.78582784533501 208.66607543081045 310.4119366556406 25.482372656464577 63.284689649939537
leaf_count=29023 14428 2143 8990 10739 14525 4482 3762 3202 1053 34 4718 2624 3361 3854 1242 3227 5309 1076 1408 6869 322 1264 3447 1095 170 1256 2227 3295 231 985
internal_value=-0.000355567 0.0171466 -0.0274265 0.00467799 -0.0169391 0.0315965 0.0102143 0.0258279 0.016454 -0.00980743 -0.00496073 -0.000130588 0.0179002 0.0309944 0.0131573 -0.00620096 8.67731e-05 0.0089045 0.0241875 0.00345995 0.0185895 0.0458368 0.0265829 0.0244489 0.0253021 0.0206043 0.0248079 0.032804 0.0696798 -0.00732975
internal_weight=9422.95 5722.92 3700.03 3072.08 2458.99 2650.84 2509.94 1886.6 1452.19 1778.05 1252.06 982.051 247.35 1340.15 546.45 734.701 539.415 832.041 218.554 613.487 455.862 764.234 620.15 371.809 912.612 681.906 563.12 354.454 44.0423 84.0525
internal_count=140361 68550 71811 42782 42788 25768 32043 20022 17615 28263 19273 14555 3395 13176 6846 11160 7933 10406 2461 7945 5604 5746 7209 4297 9322 7179 5923 3696 401 1307
is_linear=0
shrinkage=0.05


Tree=13
num_leaves=31
num_cat=0
split_feature=5 5 5 7 7 5 14 27 7 3 14 14 6 15 27 25 7 7 15 5 8 28 11 20 20 15 21 14 20 3
split_gain=1630.33 357.803 317.923 152.588 132.639 75.1153 50.8058 57.6997 46.7144 46.6767 38.5301 37.5674 32.1898 34.0365 30.8311 29.4937 28.8932 46.6883 27.469 27.3446 25.5581 24.1116 24.6491 22.9701 21.5422 20.9584 20.8452 20.7189 20.6807 20.2667
threshold=0.059850746268656725 0.12000000000000002 0.019230769230769242 4.5000000000000009 3.5000000000000004 0.18490028490028498 4.5000000000000009 -0.21570658949565161 1.5000000000000002 0.072363500373971643 4.5000000000000009 3.5000000000000004 1.0000000180025095e-35 509.00000000000006 -0.63220991877357335 -0.66736000591473066 1.5000000000000002 2.5000000000000004 451.00000000000006 0.31558704453441294 2.5000000000000004 -0.66077445720253702 2.5000000000000004 -1.0896906223605964 0.24880913995062506 423.00000000000006 1.0000000180025095e-35 3.5000000000000004 -1.7722196781179445 0.095254843973565748
decision_type=2 2 2 2 2 2 2 2 2 2 2 2 2 2 2 2 2 2 2 2 2 2 2 2 2 2 2 2 2 2
left_child=2 3 -1 6 8 9 7 16 15 11 14 18 -11 21 -10 27 23 20 -3 -7 -18 22 -14 -2 -16 -9 -20 -4 -8 -27
right_child=1 5 4 -5 -6 19 28 25 10 12 -12 -13 13 -15 24 -17 17 -19 26 -21 -22 -23 -24 -25 -26 29 -28 -29 -30 -31
leaf_value=-0.049361718834062179 0.029674240871230124 0.003132736268709357 0.007398910321087861 -0.019391265859196771 -0.032118612169811399 0.035935110031467023 0.047904431111605673 -0.021455933370627296 0.030425960308117839 0.042612157917953419 -0.019188389168923695 -0.00031365577307303146 0.062765274964215259 0.055972314166582597 0.0089709999790746828 -0.024756756962991823 0.0041771794135886864 0.01378254606442491 0.036311008435079756 0.056345436978362008 0.051744990456771625 0.011500359294223743 0.017941171275072495 0.0071307392701177074 -0.016504205380663658 0.001754088515891648 0.0099059149547542722 -0.014802565531258832 -0.0073189186926745269 0.017186066896894985
leaf_weight=1085.5049540959299 159.60604327172041 138.19104897230864 164.84889672324061 552.20023942366242 921.54480319842696 812.03574432432652 17.615768674761057 70.966317802667618 120.15579867362976 348.83908610790968 170.2441661991179 288.13652286306024 53.576603751629591 68.791065346449614 285.40435829758644 455.28455785661936 32.500497125089169 217.96361017599702 276.53190824016929 205.66253226995468 215.34078174829483 345.26156736165285 71.736194759607315 386.9240065664053 117.00418664887547 665.96136859059334 102.42767363786697 289.86443438008428 450.97545152530074 312.63253536820412
leaf_count=26790 1685 1564 2375 10739 19606 6596 246 951 1546 3255 2980 3436 498 714 3840 8105 305 2534 2919 1264 2121 3635 735 4591 1860 9029 1152 4709 6800 3781
internal_value=-0.000358446 0.0160746 -0.0267338 0.00442202 -0.0170035 0.0293239 0.00961853 0.012996 -0.00831289 0.0228722 0.00147002 0.0141544 0.0307762 0.0231213 0.00820025 -0.0157609 0.0215125 0.0306623 0.0222154 0.0400598 0.0455072 0.0183189 0.0371054 0.0137142 0.00156384 0.00478146 0.0291741 -0.00675378 -0.00524291 0.00668416
internal_weight=9403.73 5793.88 3609.86 3082.69 2524.35 2711.19 2530.49 2061.9 1602.81 1693.49 692.809 805.287 888.205 539.365 522.564 909.998 1012.33 465.805 517.151 1017.7 247.841 470.574 125.313 546.53 402.409 1049.56 378.96 454.713 468.591 978.594
internal_count=140361 68550 71811 42782 45021 25768 32043 24997 25415 17908 10226 9071 8837 5582 7246 15189 11236 4960 5635 7860 2426 4868 1233 6276 5700 13761 4071 7084 7046 12810
is_linear=0
shrinkage=0.05


Tree=14
num_leaves=31
num_cat=0
split_feature=5 5 5 7 7 5 3 7 14 7 3 6 27 27 6 15 14 27 28 3 25 27 14 27 26 5 15 4 28 5
split_gain=1489.61 314.833 309.727 139.428 126.839 64.6735 47.1499 46.1362 40.7395 37.325 36.9935 36.49 33.1226 27.5788 27.0922 22.8748 22.7313 21.8033 21.6892 21.2235 24.2203 20.2093 23.3296 20.0906 19.5782 19.4743 19.3282 18.938 19.1577 18.6643
threshold=0.059348516949152545 0.12000000000000002 0.019230769230769242 4.5000000000000009 4.5000000000000009 0.23508478124345841 0.097415321689006532 2.5000000000000004 5.5000000000000009 1.5000000000000002 0.052209903773584677 1.0000000180025095e-35 -0.6511893448415903 0.40260938312102523 1.0000000180025095e-35 479.00000000000006 4.5000000000000009 -0.63220991877357335 -1.5118372931028177 0.048905719542851236 -1.7918545926438278 -0.14212050133717982 4.5000000000000009 -1.4386287649893077 0.04067633009705373 0.45969387755102048 449.00000000000006 284.50000000000006 -1.6092780106966542 0.051322699705705445
decision_type=2 2 2 2 2 2 2 2 2 2 2 2 2 2 2 2 2 2 2 2 2 2 2 2 2 2 2 2 2 2
left_child=2 3 -1 6 10 7 8 9 12 15 -4 17 -2 -8 -9 -3 29 18 23 -17 -21 22 -11 -12 -16 -7 -5 28 -14 -13
right_child=1 5 4 26 -6 25 13 14 -10 21 11 16 27 -15 24 19 -18 -19 -20 20 -22 -23 -24 -25 -26 -27 -28 -29 -30 -31
leaf_value=-0.049122703741669591 0.017451516454990806 0.015141618670241084 -0.020381106823140701 -0.033294047974449424 -0.035071142901504551 0.039923543555084345 0.027628110433669403 0.026868988928699516 -0.019970696817165578 0.053597813517712971 0.28199001261171136 -0.013085126487363624 0.13834841110149612 0.0014717846504349061 0.010847832333903745 -0.0032386641039164801 -0.028730870915311901 -0.0018811295955115102 0.016084061974146045 0.070805237010951552 0.029595524626835928 0.025446420768318875 0.020589471934242806 0.064324870361903555 -0.013706759318141574 0.09022319013221948 -0.01270788702774623 -0.0033176328670537544 0.008270096313972717 0.0083519709772495229
leaf_weight=1037.4624875076115 566.47633206471801 532.90566738694906 549.34704933688045 161.34560604020953 671.53777532279491 596.37375225871801 441.0798253044486 193.36142830178142 146.96565767005086 251.24203012883663 1.3401131555438039 382.21021183952689 2.8427785262465468 130.62129256501794 298.15583413466811 44.274488940834999 164.13195526599884 382.00098482146859 164.62704871222377 38.815852612257004 437.84827537834644 175.58366183191538 68.023778229951859 5.073982246220111 111.55218759551644 19.884619414806366 388.72289169579744 623.05024711787701 658.85980176925659 138.26678538694978
leaf_count=26790 6636 5177 9800 3213 15272 4124 4871 2146 2329 1913 21 6095 35 1692 3651 464 3007 5909 2355 346 4125 1528 742 78 1441 111 7691 8079 8713 2007
internal_value=-0.000359721 0.0149905 -0.0262127 0.00410027 -0.016545 0.0272654 0.0089904 0.0231753 0.00536782 0.027744 -0.00958303 -0.00479017 0.00737939 0.021652 0.0114427 0.0224249 -0.0125066 0.00476195 0.0195985 0.0298755 0.0329513 0.0390716 0.046565 0.109802 0.00416229 0.0415465 -0.0187462 0.00293837 0.00882893 -0.00739028
internal_weight=9383.98 5887.99 3496 3119.96 2458.54 2768.02 2569.9 2151.76 1998.19 1548.69 1787 1237.65 1851.23 571.701 603.069 1053.84 684.609 553.042 171.041 520.939 476.664 494.849 319.266 6.4141 409.708 616.258 550.068 1284.75 661.703 520.477
internal_count=140361 69027 71334 43259 44544 25768 32355 21533 25792 14295 29272 19472 23463 6563 7238 10112 11109 8363 2454 4935 4471 4183 2655 99 5092 4235 10904 16827 8748 8102
is_linear=0
shrinkage=0.05


Tree=15
num_leaves=31
num_cat=0
split_feature=5 5 5 7 7 7 11 3 11 5 20 14 23 7 7 25 27 3 28 27 3 3 3 23 26 11 2 26 5 27
split_gain=1339.91 359.339 216.21 162.411 77.4688 70.5817 63.4527 57.695 54.819 50.8742 40.1903 39.9546 38.5263 35.0496 29.8242 28.383 27.9565 27.314 26.3618 24.6855 23.2654 23.2017 21.7982 21.3386 21.2896 20.1785 19.8434 19.2112 18.5244 18.4978
threshold=0.049477749972799488 0.10714285714285719 0.020876917712691779 3.5000000000000004 2.5000000000000004 4.5000000000000009 3.5000000000000004 0.067821300841753168 1.5000000000000002 0.20156250000000009 -0.92887571825813664 4.5000000000000009 -0.026857462142586958 6.5000000000000009 6.5000000000000009 -1.6851611702252358 -0.82066888788275805 0.097415321689006532 -0.60356487920815061 -1.0296186399502634 0.084917655030294956 0.096640513826391314 0.066561343368855247 -1.0073523504311415 1.0000000180025095e-35 2.5000000000000004 0.051633300683761853 0.017006164223564327 1.0000000180025095e-35 -0.25225607175841641
decision_type=2 2 2 2 2 2 2 2 2 2 2 2 2 2 2 2 2 2 2 2 2 2 2 2 2 2 2 2 2 2
left_child=2 3 28 7 6 17 9 19 12 16 25 14 21 24 22 -8 -3 -4 -12 -2 -18 -9 29 -11 26 -10 -5 -24 -1 -6
right_child=1 4 5 13 11 -7 15 8 10 23 18 -13 -14 -15 -16 -17 20 -19 -20 -21 -22 -23 27 -25 -26 -27 -28 -29 -30 -31
leaf_value=-0.051974611008028963 0.015301370244393401 0.040532899157332186 -0.01617146628915845 -0.025201546885797173 0.02067844067324992 -0.035558691050467939 0.031894520826546806 0.030559685516260288 0.039891955660796355 0.079465062643194417 0.014582770580331243 -0.012113601165186625 0.017292790702715572 -0.030867779762305061 -0.0063305258717459975 0.0058065410600993267 0.016794564891812514 0.0031145803857726157 -0.0064986765376363765 -0.0056666271379769758 0.031857048737223802 0.070883575771012217 0.032655340961733025 0.042130602059095815 -0.02391599237118686 0.013325558512057398 0.002280916938363116 0.0064845164315592485 -0.036667235671988686 -0.0099305987828397398
leaf_weight=786.35160612687469 167.37348394468427 293.10769138485193 913.97679006680846 83.997294269502163 107.30685069039464 456.19341798126698 141.31337800621986 74.856366753578186 100.52121502906084 41.41052920371294 216.51551121100783 159.56211522221565 252.37138537690043 334.02042951062322 128.93472125008702 397.62597945332527 614.70545596629381 229.73069214075804 470.61097667366266 869.9767594859004 439.77261685580015 68.148782797157764 314.50093798339367 505.06253949552774 197.09055619314313 247.37351958453655 301.22137765958905 90.24416995793581 263.99807333946228 91.400126673281193
leaf_count=21564 2254 2457 15785 1552 1140 10743 1259 682 1024 261 2873 2170 2821 7226 1974 3795 6238 3589 6401 12471 3908 581 3172 3361 3699 3036 5385 1014 6587 1119
internal_value=-0.000401194 0.0114893 -0.0305016 1.92582e-05 0.0231633 -0.0189302 0.0277844 0.00669398 0.0132046 0.0320916 0.00715485 0.0105584 0.0290417 -0.0179563 0.0154978 0.012647 0.0268733 -0.0122976 0.000144147 -0.0022835 0.0230764 0.0497759 0.0201617 0.0449597 -0.0105501 0.0210017 -0.00371166 0.0268202 -0.0481272 0.00659907
internal_weight=9359.28 6709.02 2650.25 3384.08 3324.95 1599.9 2433 2467.75 1430.4 1894.06 1035.02 891.949 395.377 916.33 732.387 538.939 1347.59 1143.71 687.126 1037.35 1054.48 143.005 603.452 546.473 582.309 347.895 385.219 404.745 1050.35 198.707
internal_count=140141 81873 58268 50005 31868 30117 21279 32143 17418 16225 13334 10589 4084 17862 8419 5054 12603 19374 9274 14725 10146 1263 6445 3622 10636 4060 6937 4186 28151 2259
is_linear=0
shrinkage=0.05


Tree=16
num_leaves=31
num_cat=0
split_feature=5 5 5 7 7 7 3 11 20 6 20 11 11 23 11 5 14 27 26 25 5 3 6 27 11 11 5 26 3 23
split_gain=1233.08 319.506 211.286 153.088 72.9172 68.2667 53.3995 52.622 49.3717 34.4035 33.0664 47.4506 33.0008 30.8937 29.4756 25.7141 24.3353 36.9187 24.2276 21.9504 23.1843 21.6431 21.1912 33.235 21.751 21.7352 20.2171 20.1306 19.7756 19.4043
threshold=0.048820211329149141 0.10714285714285719 0.012739370334307047 4.5000000000000009 4.5000000000000009 3.5000000000000004 0.082443489945769569 3.5000000000000004 -0.30692614918873268 1.0000000180025095e-35 -1.0000000180025095e-35 1.5000000000000002 1.5000000000000002 -1.4155796421423794 1.5000000000000002 0.17021276595744692 3.5000000000000004 -0.37670383934248008 -0.22030284041335937 -1.014479055711607 0.16637220259128391 0.1043283253334434 1.0000000180025095e-35 -0.044237108509288428 1.5000000000000002 1.0000000180025095e-35 0.18490028490028498 0.024683255481959602 0.069398959738008109 -1.0216705589786046
decision_type=2 2 2 2 2 2 2 2 2 2 2 2 2 2 2 2 2 2 2 2 2 2 2 2 2 2 2 2 2 2
left_child=2 3 -1 6 10 7 22 8 12 -8 11 18 26 -14 -10 29 17 -7 -4 20 -15 -19 23 24 -2 -25 -3 -20 -16 -9
right_child=1 5 4 -5 -6 16 9 15 14 -11 -12 -13 13 19 28 -17 -18 21 27 -21 -22 -23 -24 25 -26 -27 -28 -29 -30 -31
leaf_value=-0.050740026590046283 0.033686700931089816 0.041788464003767928 0.003338737989550119 -0.022348160760535928 -0.036038771853090769 0.041682948390758624 0.021829918114829521 0.015073718575714932 0.026408459115451578 0.0051463703237011847 -0.02350714294586706 -0.012714711495157556 0.11777171283080862 0.027649787837625308 -0.0067909844399965643 0.02280750349172431 -0.01201571159497088 -0.0015719375435851429 0.066046374655853141 0.022266511618385162 0.050201453838128886 0.042954913599414779 -0.0075463246962139052 0.0027370510826209408 0.0074199252021393755 -0.021223724683897133 0.073912529974213451 -0.0043200486372801531 0.017450732348243604 -0.0096986931555082534
leaf_weight=830.230917789042 108.50333197042346 136.28822918236256 81.837934717535973 628.26966446265578 503.5921490713954 80.679298706352711 561.89266265928745 145.90539211034775 795.90545086562634 686.58071369677782 487.61177918314934 597.89695321395993 10.240921787917612 247.83954282104969 125.096225656569 261.68505565077066 151.1869495138526 249.53454468771815 37.710615064948797 426.81841360032558 210.98638316988945 30.641978085041046 716.93842452764511 271.59825340285897 288.03985210880637 145.26922938972712 76.452239647507668 13.914345189929007 256.89026442170143 172.51919310539961
leaf_count=23783 1237 1001 1122 13535 12380 968 6486 1547 6796 8705 9277 10535 68 2231 1292 2000 2168 3402 525 3795 1455 395 10299 4063 3928 2206 468 192 2360 1922
internal_value=-0.000398032 0.0107458 -0.0300202 -5.83708e-05 -0.0200338 0.0216408 0.00498117 0.0246446 0.0280568 0.012655 -0.0134217 -0.00669754 0.0356301 0.0314263 0.0209289 0.0111953 0.00482441 0.0118799 0.0202586 0.0304279 0.0380199 0.00329782 -0.00127923 0.00424457 0.0146071 -0.00561276 0.0533328 0.0470807 0.00951185 0.00165228
internal_weight=9338.56 6785.76 2552.79 3407.09 1722.56 3378.67 2778.82 2866.63 2286.52 1248.47 1218.97 731.36 1108.63 895.885 1177.89 580.11 512.043 360.856 133.463 885.644 458.826 280.177 1530.35 813.411 396.543 416.867 212.74 51.625 381.986 318.425
internal_count=140141 82327 57814 50459 34031 31868 36924 24935 19466 15191 21651 12374 9018 7549 10448 5469 6933 4765 1839 7481 3686 3797 21733 11434 5165 6269 1469 717 3652 3469
is_linear=0
shrinkage=0.05


Tree=17
num_leaves=31
num_cat=0
split_feature=5 5 5 7 28 7 3 30 11 6 7 7 14 7 5 3 6 15 14 15 14 25 25 27 21 25 11 23 27 21
split_gain=1138.99 322.083 169.351 150.253 66.2753 55.8498 55.8039 54.22 71.7019 41.5881 39.0292 35.9757 34.0405 32.6041 30.151 29.6908 28.9149 28.1373 27.7757 23.4297 21.5884 26.7449 21.5859 21.4746 21.3308 20.7038 28.9625 30.3756 19.8013 19.5525
threshold=0.043636940653760732 0.10344827586206902 0.012739370334307047 3.5000000000000004 1.0000000180025095e-35 4.5000000000000009 0.072363500373971643 2.5000000000000004 1.5000000000000002 1.0000000180025095e-35 2.5000000000000004 6.5000000000000009 4.5000000000000009 6.5000000000000009 0.20881782945736435 0.058456319803813266 1.0000000180025095e-35 449.00000000000006 5.5000000000000009 513.00000000000011 5.5000000000000009 -0.62260691003241331 -0.4462741319766183 0.028845680043138051 -0.018627059865508257 0.060925410429513389 1.5000000000000002 0.094788579899225608 -1.2574177340193953 -0.14585000455646183
decision_type=2 2 2 2 2 2 2 2 2 2 2 2 2 2 2 2 2 2 2 2 2 2 2 2 2 2 2 2 2 2
left_child=2 3 -1 7 6 25 12 8 10 22 17 15 23 -5 16 -6 -8 -2 -17 -18 21 -11 -10 -3 -21 26 27 -4 -23 -19
right_child=1 4 5 13 11 -7 14 -9 9 20 -12 -13 -14 -15 -16 18 19 29 -20 24 -22 28 -24 -25 -26 -27 -28 -29 -30 -31
leaf_value=-0.050591584982167016 0.011979092101694998 0.022829772950515449 0.028706538539017775 -0.011139716006266377 -0.0098067013109041298 -0.037112416151679102 0.036742472939554904 -0.006855070071621068 0.016976735837299726 0.0043044797821304428 0.0089309805982031362 -0.030434657305148695 -0.00078963276772989048 -0.030095204305379999 0.042914415738216583 0.017029129204796749 0.0157404460751604 0.065488753486882822 -0.041242355540804701 0.032752608695176474 -0.028756972578051761 0.083261185169200044 -0.012663185934179901 0.0024295305172632076 0.10319258370111054 -0.02776422624474641 -0.016070405648837875 -0.015241999278806991 -0.020594262938480247 0.034681527141436706
leaf_weight=791.99911062419415 86.826727233827114 976.96150815486908 83.997695993632078 623.40676788985729 147.21646689996123 405.99568757787347 393.26176964864135 711.56762041524053 507.99231304973364 520.78116953000426 226.39613131433725 57.799114443361759 234.90577808767557 356.62406975775957 374.99175641685724 617.84620688855648 524.12746242806315 79.208954446017742 21.150023989379406 50.40196892991662 80.825739081948996 4.7109331786632529 69.875813905149698 148.62661873176694 13.660472743213175 239.32269668206573 568.31154272332788 73.912872433662415 178.21166183054447 147.24662107229233
leaf_count=23783 909 8959 1173 11903 1586 10346 3441 10501 6444 6882 2642 927 2822 8260 2413 5637 5084 742 259 483 1335 62 1010 1739 132 4819 10452 1208 2669 1519
internal_value=-0.000393969 0.00921891 -0.0321829 -0.00134134 0.0198762 -0.0215527 0.0236781 0.00491916 0.0093239 0.00321396 0.0247482 0.00763769 0.016523 -0.0180374 0.0308545 0.0104366 0.0262467 0.0361787 0.0151004 0.0192293 -0.00428347 -0.00147251 0.0133927 0.0201361 0.047773 -0.0150101 -0.010807 0.00813564 -0.0179196 0.0454572
internal_weight=9318.16 7154.62 2163.54 3593.67 3560.95 1371.54 2716.94 2613.64 1902.08 1362.4 539.678 844.012 1360.49 980.031 1356.44 786.213 981.452 313.282 638.996 588.19 784.53 703.704 577.868 1125.59 64.0624 965.545 726.222 157.911 182.923 226.456
internal_count=140141 88360 51781 54878 33482 27998 25073 34715 24214 18402 5812 8409 13520 20163 11553 7482 9140 3170 5896 5699 10948 9613 7454 10698 615 17652 12833 2381 2731 2261
is_linear=0
shrinkage=0.05


Tree=18
num_leaves=31
num_cat=0
split_feature=5 5 5 7 7 3 5 7 6 27 14 27 27 14 27 30 4 3 2 14 23 14 23 20 14 23 7 20 20 2
split_gain=1055.41 312.911 140.035 137.939 70.9537 59.8782 50.0824 48.2043 40.9671 43.688 34.4785 22.8775 22.7326 22.3664 35.7702 22.0317 21.9998 21.259 20.4172 20.2981 22.7978 20.1032 20.5719 19.2274 18.8633 17.7412 20.9604 17.6547 17.1958 17.1124
threshold=0.040202020202020218 0.099382716049382744 0.011904761904761913 4.5000000000000009 3.5000000000000004 0.097415321689006532 0.16637220259128391 3.5000000000000004 1.0000000180025095e-35 -1.0000000180025095e-35 5.5000000000000009 -1.3234030086633595 -0.95373902053289406 3.5000000000000004 -0.37670383934248008 1.5000000000000002 48.500000000000007 0.096640513826391314 0.058456319803813266 4.5000000000000009 -1.5192391572356734 3.5000000000000004 -0.81747826843352611 -0.71566083431945982 4.5000000000000009 0.30496997532452025 1.5000000000000002 -1.136524272997143 0.63907746443960334 0.051633300683761853
decision_type=2 2 2 2 2 2 2 2 2 2 2 2 2 2 2 2 2 2 2 2 2 2 2 2 2 2 2 2 2 2
left_child=2 3 -1 5 6 8 10 15 9 19 12 -7 -3 14 16 23 29 -14 -8 -2 -21 25 -23 -4 -10 26 -13 -20 -16 -6
right_child=1 4 7 -5 13 11 18 -9 24 -11 -12 21 17 -15 28 -17 -18 -19 27 20 -22 22 -24 -25 -26 -27 -28 -29 -30 -31
leaf_value=-0.050752270982886274 0.018469828485263635 0.028943031076544154 0.016244943944642209 -0.02269889817916618 -0.026429631462031634 0.068909946102410524 0.017694500853503568 -0.035692786840672286 -0.0046257873441287855 -0.0058746166937673171 -0.014742271214241834 0.014156929085888096 0.010335763006206958 -0.012739931038465414 0.011058055909343823 -0.021643954182135425 0.027910894731371663 0.023327383707925177 0.044111725218006791 0.071115542310375909 -0.0087859953326742367 0.023345779471424983 -0.0077547418059328759 -0.012529720822219382 -0.01954820890252679 0.0037952094140147816 0.041734918446537261 0.028237452091352946 -0.012005117083751482 0.14756051717789939
leaf_weight=739.72032948769629 495.83269545435905 330.70137601345778 85.078667219728231 687.19946474209428 1.7804643698036651 19.595492091029882 348.06223007291555 445.79383241012692 800.76301329210401 513.17319123074412 89.213489893823862 138.80942133069038 1000.4450147710741 177.33591830730438 178.22354627773166 431.73751494660974 85.452880870550871 459.52073991298676 224.21404478698969 9.595437638461588 128.21649543568492 79.933038607239723 158.81637466326356 182.77500675991178 287.92364571988583 106.23773251846433 136.80183409526944 800.43074424564838 147.88366166874766 6.8509468920528889
leaf_count=23334 5888 2942 1427 15974 25 217 2618 11309 11047 8071 1194 1687 10171 2640 2365 8386 1009 4148 1504 145 2070 1042 2255 3173 4900 1370 1343 5614 2198 75
internal_value=-0.000389711 0.00810508 -0.0337947 -0.00257362 0.0179871 0.00223568 0.0208964 -0.0228431 -0.00162533 0.00496951 0.0155946 0.015718 0.0171061 0.00215076 0.00843516 -0.014655 0.0355951 0.0144248 0.0281571 0.0137519 -0.00322269 0.0140385 0.00265768 -0.00338999 -0.0085723 0.0211542 0.0278455 0.0317111 0.000599328 0.11167
internal_weight=9298.12 7413.01 1885.11 3562.9 3850.12 2875.7 3252.59 1145.39 2235.5 1146.82 1879.88 640.194 1790.67 597.527 420.192 699.591 94.0843 1459.97 1372.71 633.645 137.812 620.598 238.749 267.854 1088.69 381.849 275.611 1024.64 326.107 8.63141
internal_count=140141 92512 47629 56009 36503 40035 28191 24295 32121 16174 18455 7914 17261 8312 5672 12986 1109 14319 9736 8103 2215 7697 3297 4600 15947 4400 3030 7118 4563 100
is_linear=0
shrinkage=0.05


Tree=19
num_leaves=31
num_cat=0
split_feature=5 5 5 7 7 3 7 11 20 11 11 23 23 28 23 26 25 6 27 11 24 26 3 19 30 28 19 26 2 11
split_gain=977.397 277.8 140.255 127.194 62.2941 53.898 46.6441 46.6071 50.0342 32.0972 30.2688 37.7421 36.32 28.3992 24.8186 24.227 23.658 22.4541 30.8465 22.833 23.1949 21.0846 24.2773 20.7247 20.6113 20.406 20.1433 19.9378 19.7617 19.6127
threshold=0.040202020202020218 0.099382716049382744 0.011904761904761913 4.5000000000000009 3.5000000000000004 0.082443489945769569 3.5000000000000004 3.5000000000000004 -0.30692614918873268 1.5000000000000002 1.5000000000000002 -0.026857462142586958 -0.14431877345530822 1.0000000180025095e-35 -1.0660569094206449 -1.0948300783417535 -0.89697913107796812 1.0000000180025095e-35 -0.044237108509288428 2.5000000000000004 -0.5387851017963684 0.017006164223564327 0.067821300841753168 175.50000000000003 1.5000000000000002 0.48080917017826014 48.500000000000007 -0.054834828064772266 0.069398959738008109 2.5000000000000004
decision_type=2 2 2 2 2 2 2 2 2 2 2 2 2 2 2 2 2 2 2 2 2 2 2 2 2 2 2 2 2 2
left_child=2 3 -1 5 7 17 24 8 9 25 11 -7 23 -10 15 -9 28 18 19 20 26 22 -6 29 -4 -3 -2 -28 -11 -12
right_child=1 4 6 -5 21 10 -8 14 13 16 12 -13 -14 -15 -16 -17 -18 -19 -20 -21 -22 -23 -24 -25 -26 -27 27 -29 -30 -31
leaf_value=-0.050622196144897505 0.041567444790434838 0.05224948936720572 -0.003234018655332736 -0.022025879938360454 -0.0061626708050268172 0.042166907198365161 -0.035067345360264575 0.078812717861514836 0.019729304850784741 0.019202306667242729 0.022389167810768818 0.010202893297265805 -0.01408458781036457 0.0023668284040576216 -0.00081833435712390975 0.015220820720601198 0.01550744148738898 -0.010508679885975045 -0.0079603807994882859 -0.0038685659729272939 0.015963777540899959 -0.015177911098006326 0.017034040334538616 -0.030073501517842185 -0.020970971024505392 0.013355120856460762 0.068593673392338239 0.26587227208923653 0.037394875679176647 0.0046221044117110387
leaf_weight=705.40638251416385 13.396913889795544 205.45989620685577 267.07563269510865 673.15058268979192 196.55406116694212 138.02725699916482 431.42496796324849 15.85004799813032 1052.4936972111464 223.88439309969544 264.20535224303603 279.0755399428308 203.62730307877064 303.41233586147428 373.10748622566462 272.02454816177487 364.25408282503486 729.16571143269539 433.41637048125267 160.60682729631662 245.63352335616946 137.19473654776812 264.68864671885967 30.755306839942932 423.52533799037337 40.344730563461781 2.8339508958160877 2.3367704115808001 447.904102306813 376.91650303453207
leaf_count=23334 162 1340 4600 15974 2819 1181 11309 125 9154 1892 3241 3346 3019 2729 3606 2439 3222 11162 7016 2303 3120 2053 3440 432 8386 285 37 29 3399 4987
internal_value=-0.000384248 0.00765318 -0.0331523 -0.00245835 0.0168721 0.00211523 -0.0221692 0.0195646 0.0225397 0.0296221 0.00969523 0.0207804 0.00441409 0.0158441 0.00769203 0.0187221 0.0257683 -0.00405714 0.00142423 0.010999 0.020037 0.00203044 0.00714899 0.0100205 -0.0141116 0.0458656 0.0739216 0.157749 0.0313319 0.0119439
internal_weight=9277.75 7450.32 1827.43 3553.15 3897.17 2880 1122.03 3298.74 2637.75 1281.85 1292.61 417.103 875.504 1355.91 660.982 287.875 1036.04 1587.39 858.224 424.808 264.201 598.437 461.243 671.877 690.601 245.805 18.5676 5.17072 671.788 641.122
internal_count=140141 92512 47629 56009 36503 40035 24295 28191 22021 10138 16206 4527 11679 11883 6170 2564 8513 23829 12667 5651 3348 8312 6259 8660 12986 1625 228 66 5291 8228
is_linear=0
shrinkage=0.05


Tree=20
num_leaves=31
num_cat=0
split_feature=5 5 5 7 7 6 3 2 5 27 11 23 11 28 21 27 2 27 12 3 11 21 11 27 20 15 28 21 5 23
split_gain=933.288 274.036 161.344 108.874 102.063 55.0728 39.3526 38.6881 36.8209 31.7851 27.9932 45.806 27.2803 26.0207 25.7745 24.0195 22.4125 21.3244 23.129 19.3627 19.2121 21.9859 24.9745 23.896 18.6254 18.5327 23.0569 18.4299 18.0856 17.9596
threshold=0.059348516949152545 0.019230769230769242 0.15235814296241715 6.5000000000000009 4.5000000000000009 1.0000000180025095e-35 0.058456319803813266 0.067989507600521262 0.37602459016393447 -0.51488353061542058 1.5000000000000002 0.3654251983635351 1.5000000000000002 -0.66077445720253702 -1.1781032214820646 0.046308130349403363 0.076298895598716068 -0.09510488010055386 1750.0000000000002 0.099151491825948415 3.5000000000000004 -0.70973378276642551 1.5000000000000002 -0.79743748743777765 -2.017142955494589 503.00000000000006 -1.0000000180025095e-35 0.016126377527981413 0.14933950934980281 0.26544711245473357
decision_type=2 2 2 2 2 2 2 2 2 2 2 2 2 2 2 2 2 2 2 2 2 2 2 2 2 2 2 2 2 2
left_child=1 -1 3 5 16 6 -2 24 9 12 11 17 -4 -12 -15 20 -3 18 -9 -14 21 -8 23 -23 -7 -20 -27 28 -19 -16
right_child=2 4 8 -5 -6 7 15 10 -10 -11 13 -13 19 14 29 -17 -18 27 25 -21 -22 22 -24 -25 -26 26 -28 -29 -30 -31
leaf_value=-0.048089244614104534 0.0047581857442845418 -0.013196010424369055 0.047650697207715108 -0.023402864032366702 -0.032557797180040864 0.12035055877914889 0.043214510410487156 0.075419182948788022 0.057321253295433361 0.015781395198474029 0.013854928773486692 -0.0013456380175524236 0.020211332290284573 0.028823214962972334 -0.0033726055816661357 0.0069753267158660249 -0.0017100343862357056 0.030408103648416826 0.017918672797333779 0.042445398606559069 0.0084465838439104039 0.066835407418014733 0.011887030823299493 0.026597747479384551 -0.0080514761637972068 0.024409004480041813 0.2018758854328879 -0.004877737450869498 0.17940989048006994 -0.03079033951147905
leaf_weight=798.14645566418767 717.05888800323009 934.45095748081803 157.60196735709906 304.42520424723625 560.37662329897285 2.8357470557093611 169.02846656367183 46.862121973186731 74.544467248022556 1053.2681303285062 327.9650720320642 172.65390650182962 517.22259765118361 56.652686599642038 529.16379612311721 278.08598339185119 778.5806940458715 68.68683360889554 52.086374826729298 120.78587505966425 162.70760361105204 44.96467699855566 269.36520938202739 205.6644330509007 696.00063616782427 4.168769646435976 3.2626423835754386 49.785138584673405 2.0987513884901992 67.326459769159555
leaf_count=26864 9226 16716 1016 6589 15137 32 1596 401 391 8704 3850 2309 3899 658 6620 3421 12474 714 456 806 1842 354 2856 1909 9526 34 31 572 17 935
internal_value=-0.000373495 -0.022884 0.0108613 0.00540272 -0.0140349 0.00763608 0.0139196 0.00205557 0.0228683 0.0214792 0.00690746 0.0180629 0.0290223 0.00236384 -0.00340623 0.0197341 -0.00797558 0.0328281 0.0491449 0.0244206 0.0238998 0.027549 0.0224568 0.0338167 -0.00753044 0.0284574 0.102323 0.0184318 0.0348259 -0.00646727
internal_weight=9225.83 3071.55 6154.27 4230.85 2273.41 3926.42 1846.88 2079.55 1923.42 1848.88 1380.71 399.605 795.61 981.108 653.143 1129.82 1713.03 226.951 106.38 638.008 851.73 689.023 519.994 250.629 698.836 59.5178 7.43141 120.571 70.7856 596.49
internal_count=139955 71191 68764 53948 44327 47359 21204 26155 14816 14425 16597 4534 5721 12063 8213 11978 29190 2225 922 4705 8557 6715 5119 2263 9558 521 65 1303 731 7555
is_linear=0
shrinkage=0.05


Tree=21
num_leaves=31
num_cat=0
split_feature=5 5 5 7 5 7 14 15 30 11 20 7 27 7 5 20 28 2 27 11 28 20 4 14 11 27 15 8 11 23
split_gain=858.829 231.29 149.09 133.95 59.399 51.9894 48.0901 50.2283 44.1371 38.0626 37.5526 29.0346 27.6742 27.3902 25.7326 25.042 22.683 27.2691 21.8257 25.9435 20.3251 19.899 19.4378 19.3586 18.5116 21.8092 17.4967 17.2937 16.9383 20.664
threshold=0.041712454212454238 0.099382716049382744 0.012739370334307047 3.5000000000000004 0.18490028490028498 5.5000000000000009 5.5000000000000009 451.00000000000006 2.5000000000000004 1.5000000000000002 -0.71566083431945982 2.5000000000000004 -1.671580815346992 6.5000000000000009 0.37602459016393447 -0.20514153744413713 0.39708259684996355 0.080198259187620899 -0.58632940255049582 1.5000000000000002 -0.85415682639618218 0.79253903463914521 18.500000000000004 4.5000000000000009 1.5000000000000002 -0.56022461839968485 447.00000000000006 2.5000000000000004 2.5000000000000004 -0.87059754134634049
decision_type=2 2 2 2 2 2 2 2 2 2 2 2 2 2 2 2 2 2 2 2 2 2 2 2 2 2 2 2 2 2
left_child=2 3 -1 8 6 15 7 21 9 11 28 26 20 -5 18 23 17 24 19 -6 -12 -3 -13 -4 -9 -26 -2 -28 29 -11
right_child=1 4 5 13 14 -7 -8 16 -10 10 12 22 -14 -15 -16 -17 -18 -19 -20 -21 -22 -23 -24 -25 25 -27 27 -29 -30 -31
leaf_value=-0.050172067584455582 0.0085734679038864652 0.0032279696315067503 0.00049799339939457477 -0.012157381247248376 0.055777147840998957 -0.040201765709700785 -0.016910308626143719 0.020463891806492881 -0.0072142683549910949 0.053677371288477098 -0.004663095997954122 0.10196151835523766 -0.0058973697550701257 -0.030171417299711581 0.052996651161237557 -0.023107799130388889 0.0033714328494871184 0.025297653242336893 0.017022177605755612 0.025502076386048064 0.20609005072709696 -0.026569537607866147 0.0029736272691703253 -0.021598328147355166 0.014893631522031162 -0.0061204588807850444 -0.00016925135216352928 0.040823759308537842 0.006066154855709484 0.015352043202683824
leaf_weight=655.8888823967427 80.187132522463799 513.54014223441482 312.26175412163138 584.63669074699283 87.966997154057026 257.77975888550282 141.24230843782425 441.06718050315976 678.6917024217546 44.731748394668102 1.99553657323122 5.0734083838760844 673.97617640346289 330.19268967211246 76.541831038892269 452.22978662326932 277.96112131327391 839.23349313437939 633.89016452431679 361.7918690815568 2.6808820068836203 62.890279326587915 220.5721657127142 145.220787409693 309.34288643673062 205.485545553267 29.445673156529665 203.78289467468858 410.62059658393264 164.54925253242254
leaf_count=23740 823 5213 5392 11759 510 7546 1974 4531 10394 452 27 58 9949 8496 391 9693 3005 7645 4537 2361 34 855 2541 3196 2992 2300 276 1953 5435 1877
internal_value=-0.00036773 0.0072224 -0.0310969 -0.00227469 0.01547 -0.0203807 0.0115171 0.0130326 0.00368209 0.00770647 0.00307007 0.0188752 -0.00505633 -0.0186593 0.0249783 -0.0147641 0.0166627 0.0187207 0.0229993 0.0314235 0.116157 -2.30273e-05 0.00519927 -0.00651614 0.0129465 0.00650619 0.0287212 0.0356483 0.0119666 0.0235437
internal_weight=9205.47 7382.09 1823.38 3431.14 3950.95 1167.49 2790.76 2649.52 2516.31 1837.62 1298.55 539.061 678.653 914.829 1160.19 909.712 2073.09 1795.13 1083.65 449.759 4.67642 576.43 225.646 457.483 955.896 514.828 313.416 233.229 619.902 209.281
internal_count=139955 90388 49567 54074 36314 25827 28515 26541 33819 23425 17774 5651 10010 20255 7799 18281 20473 17468 7408 2871 61 6068 2599 8588 9823 5292 3052 2229 7764 2329
is_linear=0
shrinkage=0.05


Tree=22
num_leaves=31
num_cat=0
split_feature=5 5 7 7 5 14 30 5 6 15 14 7 27 11 25 27 27 11 24 3 7 14 21 23 7 6 26 18 28 26
split_gain=802.115 276.759 132.216 65.5142 65.1096 52.0549 50.4208 46.3003 38.678 38.2304 31.3446 27.2567 27.17 31.0365 38.8123 29.3454 25.4462 30.3404 24.9741 22.17 21.9836 21.3936 20.6248 19.286 19.0888 17.929 17.8026 17.1179 16.5739 47.7005
threshold=0.031957446808510655 0.090127012258159805 3.5000000000000004 6.5000000000000009 1.0000000180025095e-35 5.5000000000000009 2.5000000000000004 0.24305019305019307 1.0000000180025095e-35 449.00000000000006 4.5000000000000009 6.5000000000000009 -1.1998812445006128 1.5000000000000002 -0.5990292211305831 -0.20054651013704175 -1.161269658519217 4.5000000000000009 -0.84032462901207694 0.080198259187620899 4.5000000000000009 4.5000000000000009 -0.82881457571586414 0.38603766651582422 1.5000000000000002 1.0000000180025095e-35 -1.0000000180025095e-35 8.5000000000000018 -1.1518380244710908 0.44125445032390315
decision_type=2 2 2 2 2 2 2 2 2 2 2 2 2 2 2 2 2 2 2 2 2 2 2 2 2 2 2 2 2 2
left_child=4 2 6 5 -1 7 8 9 16 -3 23 21 26 15 19 -14 28 18 -18 22 -6 -4 -15 24 -10 -21 -11 -24 29 -2
right_child=1 3 11 -5 20 -7 -8 -9 10 12 -12 -13 13 14 -16 -17 17 -19 -20 25 -22 -23 27 -25 -26 -27 -28 -29 -30 -31
leaf_value=-0.051387031495149983 0.048158283063237023 0.0033393793030056097 -0.0085064964220233769 -0.014586065557832904 -0.02099577740646634 -0.0093321250199975541 -0.01041076097753494 0.029263376690828392 -0.0013434842498742865 0.022099893229635403 -0.018287160229684119 -0.030906590486198066 0.03417705457099688 0.017793710833866532 -0.0045412516175494678 0.015889191815829089 0.056893568896196539 -0.021915871664038335 0.010765695451623421 0.031396508579817663 -0.041458622524593168 -0.029439612000339406 0.0075627264315477078 -0.017212519592385189 0.01566358172614744 0.014296321120844733 0.048872812439474417 -0.018620321058364833 0.025186228872567093 0.27654755002787218
leaf_weight=564.36839320883155 20.899610467255119 671.31005915999413 468.1133872680366 195.9699996933341 401.08196330070496 209.08125009760261 708.51792457699776 584.53218960016966 371.33312142267823 172.79162900522351 219.51160056143999 379.78778424113989 323.72758033499122 225.88296806439757 336.11689787730575 680.39666390046477 30.612479589879513 69.331727627664804 707.49602307006717 248.71349337697029 195.09713326953351 165.10380223020911 156.98361006751657 101.16288535669446 296.91643967479467 399.49345370009542 96.918425552546978 103.63269268721342 77.591217346489429 2.5669840462505809
leaf_count=21538 282 6600 9822 3379 9321 2665 11677 3421 5263 1431 3791 10485 2496 2231 3595 6658 367 983 8726 2010 6150 3800 1629 1471 3609 3653 815 1087 965 35
internal_value=-0.000361806 0.00525734 -0.00498789 0.0136733 -0.0392149 0.0149889 0.000970728 0.01626 0.0052207 0.0140349 -0.00162158 -0.0203163 0.0166508 0.0150086 0.0103823 0.0217852 0.0126687 0.0097083 0.0126788 0.0148028 -0.0276922 -0.0139646 0.00673556 0.00313307 0.00621309 0.0208576 0.0317206 -0.00284882 0.0363219 0.0731415
internal_weight=9185.04 8024.5 3618.94 4405.55 1160.55 4209.58 2605.94 4000.5 1897.42 3415.97 988.924 1013 2744.66 2474.95 1470.82 1004.12 908.498 807.44 738.109 1134.71 596.179 633.217 486.499 769.412 668.25 648.207 269.71 260.616 101.058 23.4666
internal_count=139955 102946 61276 41670 37009 38291 37169 35626 25492 32205 14134 24107 25605 23359 14205 9154 11358 10076 9093 10610 15471 13622 4947 10343 8872 5663 2246 2716 1282 317
is_linear=0
shrinkage=0.05


Tree=23
num_leaves=31
num_cat=0
split_feature=5 5 7 5 5 7 14 14 15 25 11 27 5 21 11 25 23 3 27 27 11 25 7 19 26 15 4 15 13 27
split_gain=749.042 250.422 107.402 78.4355 63.4731 48.9855 46.2491 40.1091 38.342 27.4347 30.643 31.4022 26.6122 24.113 35.5372 37.5771 34.7005 24.0041 25.2751 23.7691 19.9192 19.875 19.8128 18.8334 22.2474 17.2299 17.0974 15.8437 15.6914 15.2053
threshold=0.031320067264574009 0.07575757575757576 5.5000000000000009 0.15235814296241715 1.0000000180025095e-35 6.5000000000000009 5.5000000000000009 4.5000000000000009 457.00000000000006 -0.9688890926249617 1.5000000000000002 -0.93858376391309328 0.3559907834101384 0.18334200038110729 2.5000000000000004 -1.3146125248250682 -0.70978157666521302 0.072363500373971643 0.062300413378438099 -0.75443584408070008 3.5000000000000004 0.018303651500557634 4.5000000000000009 35.500000000000007 -0.32237716229749297 503.00000000000006 30.500000000000004 465.00000000000006 2.5000000000000004 -1.1307869666859955
decision_type=2 2 2 2 2 2 2 2 2 2 2 2 2 2 2 2 2 2 2 2 2 2 2 2 2 2 2 2 2 2
left_child=4 2 7 5 -1 6 13 8 -2 20 11 25 17 14 16 -16 -3 18 -5 26 23 -13 -6 -10 -25 -11 -18 -15 -26 -17
right_child=1 3 -4 12 22 -7 -8 -9 9 10 -12 21 -14 27 15 29 19 -19 -20 -21 -22 -23 -24 24 28 -27 -28 -29 -30 -31
leaf_value=-0.051317565351796927 -0.010082312243601239 0.03740523126723215 -0.030575935143149588 0.014819999673168044 -0.020855419002991694 -0.017361180912286941 -0.016586868001800117 -0.016457342562927631 0.037060711792521482 0.050003915014688455 -0.0094751319170749606 0.017723877940887561 0.042394384810336687 -0.0082112458847414752 0.016053147360320884 0.014115568740512535 0.096262110699998682 0.022823870632226087 -0.010728633504495195 0.010846161802798711 -0.0016357634085954181 -0.0023051336009990921 -0.040905895136815924 -0.019627614511141131 0.024211338212093175 0.17646559958418973 0.026060419262528035 0.0079880366567027777 0.17720161858578087 -0.0103947923957754
leaf_weight=537.55218643695116 621.12921508774161 173.748439848423 419.36601402983069 737.61833617091179 382.70551849715412 200.88001927733421 178.56863073632121 453.53195680305362 138.98321381956339 16.427992809563879 413.50088063254952 217.39063572883606 115.73299099504948 271.54529015347362 329.22994516417384 76.307402092963457 9.0599875524640066 1029.3575407452881 111.42879309505224 1151.545898001641 97.018296394497156 287.87962543219328 181.70488694123924 40.98056772351265 53.41414088010788 3.2216243259608737 203.10773419216275 339.84632224589586 1.7302926331758488 370.49871132522821
leaf_count=21538 9869 1485 11887 5749 9103 4266 2807 8660 1727 183 6711 2726 582 3264 3381 799 84 7363 1122 12730 1290 5206 5965 526 764 38 1877 3854 27 4372
internal_value=-0.000356012 0.00492832 -0.00727051 0.0112933 -0.0390214 0.00656736 0.0081162 -0.00310307 9.86349e-05 0.00507577 0.0007048 0.00872395 0.0191242 0.00962436 0.0119582 0.00323573 0.0163608 0.0176905 0.011467 0.0136796 0.0174259 0.00631227 -0.0273104 0.0252918 0.00827555 0.0707378 0.0290582 0.000793239 0.0290118 -0.00620881
internal_weight=9165.01 8063.05 2764.57 5298.48 1101.96 3304.34 3103.46 2345.21 1891.68 1270.55 938.421 524.92 1994.14 2924.89 2313.5 776.036 1537.46 1878.4 849.047 1363.71 332.127 505.27 564.41 235.108 96.125 19.6496 212.168 611.392 55.1444 446.806
internal_count=139955 103349 49614 53735 36606 38919 34653 37727 29067 19198 14864 8153 14816 31846 24728 8552 16176 14234 6871 14691 4334 7932 15068 3044 1317 221 1961 7118 791 5171
is_linear=0
shrinkage=0.05


Tree=24
num_leaves=31
num_cat=0
split_feature=5 5 7 5 7 30 5 14 6 15 14 7 27 11 24 7 14 5 11 25 2 3 27 25 7 2 27 11 3 15
split_gain=699.523 224.876 116.696 64.3465 53.5462 45.4211 42.8434 38.9181 34.7791 34.7093 25.8175 25.6932 21.4217 26.9143 20.3231 19.5111 19.3235 18.9018 17.0389 33.917 27.0383 20.2147 18.3252 16.8361 19.5429 18.745 15.9583 22.3829 15.4288 14.8305
threshold=0.031320067264574009 0.090127012258159805 3.5000000000000004 1.0000000180025095e-35 6.5000000000000009 2.5000000000000004 0.18490028490028498 5.5000000000000009 1.0000000180025095e-35 449.00000000000006 4.5000000000000009 6.5000000000000009 -1.161269658519217 4.5000000000000009 -0.84032462901207694 4.5000000000000009 4.5000000000000009 0.37602459016393447 1.5000000000000002 -0.76106186777746032 0.079455266955266959 0.099151491825948415 -0.20054651013704175 -0.10522224004799845 1.5000000000000002 0.067989507600521262 -0.95373902053289406 1.5000000000000002 0.11437013416805929 431.00000000000006
decision_type=2 2 2 2 2 2 2 2 2 2 2 2 2 2 2 2 2 2 2 2 2 2 2 2 2 2 2 2 2 2
left_child=3 2 5 -1 6 8 7 9 12 -3 23 16 -2 14 -14 -5 -4 26 22 20 -20 -21 -11 24 -10 -26 27 -8 -23 -16
right_child=1 4 11 15 -6 -7 17 -9 10 18 -12 -13 13 -15 29 -17 -18 -19 19 21 -22 28 -24 -25 25 -27 -28 -29 -30 -31
leaf_value=-0.051251665103107018 0.03314885924740088 0.00045731724043439565 -0.0079784887937778548 -0.020200985091731027 -0.013697421812569594 -0.0099609843074983159 0.067050361592696589 -0.014285253518582619 -0.0017297464729010917 0.029678302091219102 -0.016951629527397618 -0.029846131018902274 0.050702730570250112 -0.021031069091174345 -0.015264910146471109 -0.040420594045150152 -0.028161447414249443 0.044861556907980008 0.0067190538508342963 -0.0062578992390942105 0.023125056382520912 0.031538045117309683 0.014553635967081653 -0.014368036841399826 -0.0021550487051510579 0.025001969009636596 0.016448409008128086 0.024635491518921852 -0.0081018219832783671 0.012172303478848373
leaf_weight=511.97634709998965 104.95726324245334 573.35368753969669 465.13080458343029 375.53413114137948 191.890420332551 704.19663661718369 36.456946432590485 153.90839558467269 370.12675727903843 299.679846547544 214.79820991680026 363.45789274945855 32.261788811534643 67.730290245264769 53.202796090394258 174.86620856821537 159.1770391985774 80.210593596100807 446.57927186414599 351.05682428181171 573.84918361157179 73.403731882572174 603.74081118032336 122.53963942825794 96.477712549269199 186.13192280381918 846.92185900360346 211.85204175114632 36.881466697901487 663.0922668389976
leaf_count=21538 1290 5843 9892 9103 3379 11760 193 2233 5242 2293 3816 10612 368 985 635 5965 3822 388 4417 3884 5035 729 5996 1773 1241 2127 5594 1317 369 8116
internal_value=-0.000349696 0.00466356 -0.00463537 -0.0384929 0.0121431 0.000894263 0.0132995 0.0102281 0.00489372 0.0115033 -0.00161231 -0.0192774 0.0118858 0.00915186 0.0118828 -0.0266249 -0.0131244 0.0214323 0.0141585 0.0108588 0.0159452 -0.000391629 0.0195707 0.0026376 0.00583011 0.0157311 0.0197164 0.0308629 0.0182817 0.0101344
internal_weight=9145.44 8083.07 3603.28 1062.38 4479.79 2615.52 4287.89 3112.45 1911.32 2958.54 990.074 987.766 921.244 816.287 748.557 550.4 624.308 1175.44 2385.19 1481.77 1020.43 461.342 903.421 775.276 652.736 282.61 1095.23 248.309 110.285 716.295
internal_count=139955 103349 61679 36606 41670 37353 38291 30799 25593 28566 14199 24326 11394 10104 9119 15068 13714 7492 22723 14434 9452 4982 8289 10383 8610 3368 7104 1510 1098 8751
is_linear=0
shrinkage=0.05


Tree=25
num_leaves=31
num_cat=0
split_feature=5 7 5 5 3 7 6 5 14 23 20 23 11 5 0 4 21 26 26 15 11 23 5 21 26 15 14 20 2 24
split_gain=626.588 158.219 136.853 109.659 62.2545 41.325 36.8761 32.68 29.7968 30.1278 26.7331 23.0349 38.9564 21.6047 18.3914 17.7265 17.6768 17.6665 17.1977 17.1331 16.5533 34.2883 17.7132 18.1514 15.8751 15.8876 19.0696 15.541 15.0693 14.8612
threshold=0.040202020202020218 4.5000000000000009 0.01065722722798516 0.15235814296241715 0.08169947516903342 3.5000000000000004 1.0000000180025095e-35 0.10526315789473689 3.5000000000000004 -1.5192391572356734 -0.070102526507154733 0.46688027119227243 1.5000000000000002 0.10626411506002616 1.0000000180025095e-35 294.50000000000006 -2.0292919326938978 0.25848632312581227 -0.023825685828141426 449.00000000000006 3.5000000000000004 -1.1193847044733027 0.28248081841432232 -1.4965368784959245 -0.66415585724007264 505.00000000000006 2.5000000000000004 0.54102447142226262 0.089282918579992196 -1.2228820375384226
decision_type=2 2 2 2 2 2 2 2 2 2 2 2 2 2 2 2 2 2 2 2 2 2 2 2 2 2 2 2 2 2
left_child=2 3 -1 4 8 24 15 19 10 -10 -2 12 -8 -12 -14 16 -6 18 -9 -3 21 29 27 -24 -4 -26 -27 -23 -21 -5
right_child=1 7 5 20 6 -7 11 17 9 -11 13 -13 14 -15 -16 -17 -18 -19 -20 28 -22 22 23 -25 25 26 -28 -29 -30 -31
leaf_value=-0.050520324052760184 0.011653206726196227 -0.03290025200916967 0.0047481742108108054 0.13098523644813717 0.15333742703119252 -0.032272786084164291 0.024630815284820799 -0.013268568750166444 0.037690170181265248 -0.0095024975301522211 -0.0070688541990077923 -0.015017497506633011 0.010352546209864975 0.0091689057067026476 -0.0047018580276594595 0.010292722263584577 0.023091715697174664 -0.028839683532108168 0.012683287687284729 -0.019570548860833037 0.0091164885838750202 0.018362590276367021 0.13916512211861035 0.029248463852151043 -0.01857978187060846 0.086386282409753878 -0.0016001819015907628 -0.0022439981583857503 0.0022746718063494124 0.050265096533434132
leaf_weight=517.60074044764042 579.1310612373054 182.46245962753892 123.59512040764093 6.4933947399258605 2.6181211099028578 371.82637957111001 239.64233241975307 95.859762188047171 35.030022449791431 978.09124712273479 652.68710106983781 135.36786986514926 354.67264289408922 298.55285028368235 474.00982002168894 459.65510735660791 522.07976091653109 47.724230661988258 191.09715047478676 362.38987392000854 387.17419435083866 1082.2667777985334 3.8095425367355338 267.15732161700726 456.93012875877321 6.8104147128760806 64.299480130895972 99.946629211306572 100.93163798376918 46.786957047879696
leaf_count=22744 6274 4857 2229 34 27 11624 2148 1391 459 14112 10081 1678 4254 2981 5844 4512 5437 757 2658 9485 2850 7771 19 1374 9468 142 1325 798 2563 272
internal_value=-0.000495524 0.00539523 -0.0295683 0.0081695 0.00410002 -0.0189721 0.0102836 -0.013351 -0.00121944 -0.00787075 0.00318379 0.0044137 0.00687583 -0.00197253 0.00174136 0.0174615 0.0237416 -0.000670888 0.00401391 -0.0199225 0.0183377 0.0207077 0.0192633 0.0307938 -0.0113827 -0.0151584 0.00682655 0.0166205 -0.0148117 0.0601026
internal_weight=9146.7 7605.64 1541.06 6625.17 4731.54 1023.46 2188.05 980.465 2543.49 1013.12 1530.37 1203.69 1068.32 951.24 828.682 984.353 524.698 334.681 286.957 645.784 1893.63 1506.46 1453.18 270.967 651.635 528.04 71.1099 1182.21 463.322 53.2804
internal_count=140168 92636 47532 70925 57807 24788 23900 21711 33907 14571 19336 13924 12246 13062 10098 9976 5464 4806 4049 16905 13118 10268 9962 1393 13164 10935 1467 8569 12048 306
is_linear=0
shrinkage=0.05


Tree=26
num_leaves=31
num_cat=0
split_feature=5 7 5 5 3 7 5 6 7 25 14 23 3 28 14 7 8 7 19 14 15 14 13 3 20 4 24 25 23 26
split_gain=579.712 143.213 136.205 85.5351 42.9933 39.6217 39.3671 27.7423 23.6873 19.4121 21.8544 23.8736 19.3457 19.3008 19.2157 19.4674 22.2632 20.1176 17.8359 17.6411 16.9583 16.2458 16.1377 17.1599 15.4675 15.4397 14.7664 14.8473 14.6455 14.6198
threshold=0.040202020202020218 3.5000000000000004 0.01065722722798516 0.13310023310023317 0.074047408063801542 3.5000000000000004 0.10714285714285719 1.0000000180025095e-35 6.5000000000000009 -1.6851611702252358 3.5000000000000004 0.38603766651582422 0.067821300841753168 0.44731812858074743 5.5000000000000009 1.5000000000000002 2.5000000000000004 2.5000000000000004 211.50000000000003 4.5000000000000009 475.00000000000006 5.5000000000000009 1.5000000000000002 0.046585537716382602 0.048846914183453799 399.50000000000006 -0.75990321703305241 -0.50201094439688487 -1.5192391572356734 -0.66415585724007264
decision_type=2 2 2 2 2 2 2 2 2 2 2 2 2 2 2 2 2 2 2 2 2 2 2 2 2 2 2 2 2 2
left_child=2 3 -1 4 14 29 8 18 21 24 11 -11 -8 22 15 26 -17 20 25 -14 -18 -3 23 -5 -9 -6 -2 -28 -16 -4
right_child=1 6 5 13 7 -7 12 9 -10 10 -12 -13 19 -15 28 16 17 -19 -20 -21 -22 -23 -24 -25 -26 -27 27 -29 -30 -31
leaf_value=-0.050427982152648369 0.0013040702337244615 -0.0063547030667666753 0.0044916898818528252 0.00055457854875432205 0.020740939688410683 -0.031620843290847432 -0.0091926836846136385 0.025827063228694064 -0.025754996166220484 0.013603324966750405 -0.0066227465111738468 -0.013129468771712277 0.014748742906913123 0.0019803482519838195 0.041071618986651098 -0.019559294662314524 0.0081673328308624008 -0.00048483316927854197 -0.043763827573044645 -0.020315585226013719 0.031661715936239447 -0.031563610837311566 0.012004385411346172 0.022505570689021988 0.15602402967687481 0.0059035541818281342 -0.0059040268344790958 -0.026322896878472463 -0.025271292396156053 -0.014604288665399562
leaf_weight=493.23601492121816 571.47587889060378 568.99893737584352 124.10650416463614 96.128400664776564 614.64561654999852 360.80052961409092 220.63142672926188 58.596158050000668 325.1239724252373 437.14589069783688 428.6080334186554 103.23981318250299 272.36229963228106 224.2633323147893 8.9598045237362367 71.322169903665781 173.35376776009798 249.27474167197943 12.452132947742937 41.310873076319695 137.9065631814301 71.997288927435875 842.5172450914979 1206.0525755286217 2.3735791593790045 245.30980080366135 413.55932412669063 113.45026928931475 116.25500105321407 520.98800198175013
leaf_count=22744 8291 11532 2229 772 6289 11624 3079 681 9367 4480 5685 1230 3220 1676 140 819 1982 3229 151 620 1611 1702 6097 8377 33 2393 5387 1713 2080 10935
internal_value=-0.000480965 0.00510578 -0.0289054 0.00849628 0.00380569 -0.0183518 -0.00873908 0.00908754 -0.014762 0.00353051 0.00180867 0.00849607 0.00215149 0.015937 -0.00160941 -0.000240664 0.00675204 0.0100999 0.0156482 0.0101308 0.0185767 -0.00918619 0.0173964 0.0208851 0.0308957 0.0165084 -0.00426292 -0.0102996 -0.0205241 -0.0109305
internal_weight=9126.45 7627.31 1499.13 6126.89 3757.93 1005.9 1500.42 1902.37 966.12 1029.96 968.994 540.386 534.305 2368.96 1855.56 1730.34 631.857 560.535 872.408 313.673 311.26 640.996 2144.7 1302.18 60.9697 859.955 1098.49 527.01 125.215 645.095
internal_count=140168 92636 47532 63116 46194 24788 29520 20942 22601 12109 11395 5710 6919 16922 25252 23032 7641 6822 8833 3840 3593 13234 15246 9149 714 8682 15391 7100 2220 13164
is_linear=0
shrinkage=0.05


Tree=27
num_leaves=31
num_cat=0
split_feature=5 5 7 5 7 6 11 20 14 25 11 25 7 25 27 8 11 27 7 15 22 23 5 0 17 27 17 23 3 5
split_gain=540.708 172.313 81.8416 75.501 60.508 43.4053 40.3395 35.8494 34.0753 42.0448 39.1011 41.518 26.9112 26.5076 24.7682 22.1543 20.4278 20.2975 19.5996 19.2137 19.0973 18.9138 19.5287 18.5066 17.943 17.4268 17.1861 17.0263 16.9694 20.6778
threshold=0.031320067264574009 0.080051679586563326 4.5000000000000009 0.01065722722798516 2.5000000000000004 1.0000000180025095e-35 3.5000000000000004 -0.62516209225218045 4.5000000000000009 0.018303651500557634 1.5000000000000002 -0.97787240240537932 1.5000000000000002 -1.7208365120444147 -1.4386287649893077 2.5000000000000004 2.5000000000000004 -1.5524591258686988 3.5000000000000004 455.00000000000006 1.0000000180025095e-35 -1.4155796421423794 0.13962038303693572 1.0000000180025095e-35 3.5000000000000004 -1.0164464901449166 4.5000000000000009 -0.018038926771164077 0.051633300683761853 0.068181818181818218
decision_type=2 2 2 2 2 2 2 2 2 2 2 2 2 2 2 2 2 2 2 2 2 2 2 2 2 2 2 2 2 2
left_child=3 2 8 -1 6 20 7 21 9 10 14 16 -9 -8 -2 -16 19 -14 -5 -12 -6 22 -3 -7 -23 28 -21 -17 -10 -30
right_child=1 4 -4 18 5 23 13 12 25 -11 11 -13 17 -15 15 27 -18 -19 -20 26 -22 24 -24 -25 -26 -27 -28 -29 29 -31
leaf_value=-0.050336976616017798 0.17138512465209294 0.012205242009458188 -0.022717478724928943 -0.014218749928981901 0.019443756371749773 0.010327589218596299 0.019089104843760866 0.0065837050221677533 -0.020591551246032524 -0.010732548432786078 -0.0042309900813045764 -0.0089644755235596656 0.1050830652336779 -0.0024316217838044694 -0.011264039829285082 0.033707418315892732 0.002608467129586916 0.018029429502012678 -0.034833730414347557 0.013726830674353312 -0.0019004539586475343 0.012459655009131829 0.13132522128695298 -0.0087528625980658591 0.026888616927583056 -0.019565043934618945 0.049059312433474347 0.012321200954532116 0.0021319740880588593 0.064927163942603422
leaf_weight=470.00759239681065 2.6116093918681136 5.9890538379549971 573.4788026176393 296.96782565675676 332.81678504496813 151.46754645556211 187.82622306793928 1144.1734745763242 44.556920859962702 551.50213699415326 45.070622388273478 566.15798333287239 6.7577028870582572 600.68931943178177 60.09516691416502 161.73614034429193 273.1919809654355 732.02407337725163 188.47287949174643 62.046006873250008 152.96263314038515 316.96262602135539 8.0861225277185422 789.41756603121758 672.80776390433311 347.61538527905941 77.28779373690486 219.19499439746141 47.772642433643341 18.067794591188431
leaf_count=22744 26 41 17065 7107 3808 1778 1589 10715 832 9587 567 8793 45 5691 695 1583 3566 5491 6617 746 1768 2344 40 10623 4963 6570 909 2747 850 268
internal_value=-0.000466412 0.00370426 -0.00569684 -0.0360527 0.00932502 0.00058538 0.0127175 0.0154552 -0.00175605 0.00103725 0.00546079 8.79025e-05 0.0113869 0.00269466 0.0178595 0.0169503 0.0112879 0.0188257 -0.0222225 0.0241463 0.0127229 0.0230863 0.0806391 -0.00568121 0.0222679 -0.0140687 0.0333256 0.0214014 0.0032378 0.0193641
internal_weight=9107.82 8152.37 3050.39 955.448 5101.98 1426.66 3675.32 2886.8 2476.91 2018.89 1467.39 1023.75 1882.96 788.516 443.638 441.026 457.596 738.782 485.441 184.404 485.779 1003.85 14.0752 940.885 989.77 458.013 139.334 380.931 110.397 65.8404
internal_count=140168 103700 54804 36468 48896 17977 30919 23639 37739 29219 19632 14581 16251 7280 5051 5025 5788 5536 13724 2222 5576 7388 81 12401 7307 8520 1655 4330 1950 1118
is_linear=0
shrinkage=0.05


Tree=28
num_leaves=31
num_cat=0
split_feature=5 5 7 5 7 6 11 20 14 25 11 20 23 7 8 7 26 21 11 28 23 22 23 0 23 5 4 24 17 23
split_gain=504.303 154.912 75.9894 75.9011 53.8034 38.9367 35.6762 31.3744 31.1788 38.074 34.6299 37.9537 25.0534 23.7269 19.8787 18.9674 18.7861 16.8812 25.4042 26.0899 18.0184 16.8337 16.7615 16.7579 16.2871 16.2318 16.0047 15.9622 15.5583 15.5227
