tree
version=v4
num_class=1
num_tree_per_iteration=1
label_index=0
max_feature_idx=31
objective=binary sigmoid:1
feature_names=running_style_last1 running_style_mode running_style_mode_win_rate running_style_last1_win_rate jockey_rides_surface_distance jockey_place_rate_surface_distance jockey_win_rate_surface_distance is_jockey_change finish_pos_best_last5 racecourse_encoded surface_encoded going_encoded race_class_encoded distance sex age horse_weight weight_change bracket_number horse_number days_since_last_race time_index_zscore_last1_improved time_index_zscore_last2_improved time_index_zscore_last3_improved time_index_zscore_mean_3_improved time_index_zscore_best_3_improved time_index_zscore_worst_3_improved time_index_zscore_trend_3_improved last3f_index_zscore_last1_improved last3f_index_zscore_last2_improved is_consecutive_race rest_period_category
feature_infos=[0:3] [0:3] [0:0.3125] [0:0.3125] [0:1025] [0:1] [0:0.75] [0:1] [0:18] [1:10] [0:1] [0:2] [0:5] [1000:3600] [1:3] [2:12] [336:630] [-46:66] [1:8] [1:18] [0:1574] [-3.029560476785031:15.183530127475287] [-23.243911400430985:39.650310867947063] [-32.302917149559846:39.650310867947063] [-32.302917149559846:37.557576636633158] [-999:39.650310867947063] [-32.302917149559846:999] [-39.404762690525843:22.602631135719548] [-2.7807404859219336:33.738245845812763] [-3.1761829047083112:33.738245845812763] [0:1] [0:4]
tree_sizes=3392 3466 3480 3470 3486 3495 3479 3498 3487 3507 3477 3501 3497 3491 3496 3506 3496 3493 3502 3513 3508 3513 3502 3527 3509 3497 3491 3508 3536 3530

Tree=0
num_leaves=31
num_cat=0
split_feature=6 6 6 8 8 15 6 6 6 3 12 26 3 21 28 21 8 8 12 15 12 8 28 15 6 28 8 6 12 6
split_gain=5654.13 1302.49 1135.22 603.512 513.801 246.059 221.01 202.864 191.662 180.183 185.609 158.393 128.203 123.844 103.136 93.3151 92.9346 92.233 87.8051 86.1895 79.9312 79.6953 77.898 75.1225 63.2671 56.5323 53.8512 53.0606 49.6396 49.4693
threshold=0.10626411506002616 0.22564832384566738 0.045548849490758221 3.5000000000000004 3.5000000000000004 4.5000000000000009 0.3026779422128259 0.020876917712691779 0.16637220259128391 0.067989507600521262 1.5000000000000002 -0.46954794882553735 0.070127468722952307 -0.6339175009465704 -0.62382485665032494 -1.1488579642717358 3.5000000000000004 3.5000000000000004 1.5000000000000002 4.5000000000000009 1.5000000000000002 1.5000000000000002 -0.12517955228095975 4.5000000000000009 0.39444444444444454 -0.24565445467670213 4.5000000000000009 0.070074110360343903 3.5000000000000004 0.12477758007117441
decision_type=2 2 2 2 2 2 2 2 2 2 2 2 2 2 2 2 2 2 2 2 2 2 2 2 2 2 2 2 2 2
left_child=2 4 7 9 5 8 16 -1 12 27 11 -11 -2 19 18 28 -3 -9 -14 -12 -16 -17 -23 24 -8 -13 -5 -4 -10 -20
right_child=1 6 3 26 -6 -7 23 17 15 10 13 25 14 -15 20 21 -18 -19 29 -21 -22 22 -24 -25 -26 -27 -28 -29 -30 -31
leaf_value=-2.5929316273159717 -2.4955718137402445 -2.3938174537858621 -2.5525696391735408 -2.5514084373856849 -2.5337593237598512 -2.5149865420338076 -2.3197311942127055 -2.5590558661209619 -2.2996417363556172 -2.418821041139084 -2.4900350123037978 -2.4581484930214321 -2.3277812944294913 -2.5418366119788671 -2.4400425604817668 -2.4607486304844497 -2.4893400504841128 -2.5819089690978156 -2.4831883992465689 -2.5368636926504684 -2.4919729611152568 -2.3672482169822553 -2.4525398945612129 -2.4223005210331348 -2.2077191799809617 -2.5175290478425252 -2.5749878595706948 -2.5304532373524329 -2.4138234046938369 -2.4155792486407544
leaf_weight=1907.634748890996 385.29050424695015 193.99904869496822 544.22622174024582 320.37595864385366 441.74382127821445 270.2177956700325 73.172704689204693 969.45372484624386 19.630050286650658 80.550896003842354 300.74590835720301 54.761071316897869 21.322296001017094 484.32072345167398 118.66026949137449 162.25251909345388 29.309695772826672 810.72107683867216 40.207758173346519 145.93927040696144 197.31585029512644 59.905498288571835 48.39822743088007 14.75638262927532 15.230211429297922 149.52683132141829 991.58829879015684 540.57097099721432 18.479323200881481 82.716970518231392
leaf_count=28182 5692 2866 8040 4733 6526 3992 1081 14322 290 1190 4443 809 315 7155 1753 2397 433 11977 594 2156 2915 885 715 218 225 2209 14649 7986 273 1222
internal_value=-2.54094 -2.47053 -2.56209 -2.54217 -2.48665 -2.47204 -2.37839 -2.5816 -2.46198 -2.52673 -2.51352 -2.4782 -2.47429 -2.52432 -2.45648 -2.42826 -2.40635 -2.56946 -2.42145 -2.50533 -2.47247 -2.43858 -2.40536 -2.31787 -2.30043 -2.50161 -2.56923 -2.54155 -2.35501 -2.43769
internal_weight=9493.02 2192.61 7300.42 3612.61 1866.14 1424.4 326.468 3687.81 1154.18 2300.64 1215.84 284.839 845.514 931.006 460.223 308.666 223.309 1780.17 144.247 446.685 315.976 270.556 108.304 103.159 88.4029 204.288 1311.96 1084.8 38.1094 122.925
internal_count=140243 32392 107851 53370 27569 21043 4823 54481 17051 33988 17962 4208 12491 13754 6799 4560 3299 26299 2131 6599 4668 3997 1600 1524 1306 3018 19382 16026 563 1816
is_linear=0
shrinkage=1


Tree=1
num_leaves=31
num_cat=0
split_feature=6 6 6 8 8 6 3 6 3 12 8 6 21 28 15 12 8 15 28 21 28 15 12 6 21 8 28 15 28 12
split_gain=4892.52 1032.82 957.121 507.553 403.607 212.163 178.247 161.412 157.868 151.146 144.783 113.298 102.026 90.242 85.3063 82.6386 77.5503 65.9966 81.6991 65.5364 64.7305 62.9484 55.8375 50.9344 48.2404 47.8746 44.1989 44.0448 50.4829 48.0426
threshold=0.099382716049382744 0.19478319783197839 0.041712454212454238 3.5000000000000004 3.5000000000000004 0.28248081841432232 0.074047408063801542 0.019230769230769242 0.073534460561325302 1.5000000000000002 3.5000000000000004 0.13962038303693572 -0.16069019353378464 -0.39838484873725438 4.5000000000000009 1.5000000000000002 3.5000000000000004 3.5000000000000004 -0.64295588014964122 -0.61682961896423116 -0.46672092073782673 3.5000000000000004 2.5000000000000004 0.068181818181818218 -0.37697352313934124 4.5000000000000009 -0.53295422569416495 4.5000000000000009 -0.92976998829401547 1.5000000000000002
decision_type=2 2 2 2 2 2 2 2 2 2 2 2 2 2 2 2 2 2 2 2 2 2 2 2 2 2 2 2 2 2
left_child=2 4 7 8 6 10 14 -1 23 12 27 15 -10 -11 -2 20 -9 18 -13 22 -8 24 -17 -4 -7 -5 -14 28 29 -3
right_child=1 5 3 25 -6 21 11 16 9 13 -12 17 26 -15 -16 19 -18 -19 -20 -21 -22 -23 -24 -25 -26 -27 -28 -29 -30 -31
leaf_value=-0.052045060918928847 0.046137216816870066 0.27379118612938352 -0.01115559868738745 -0.012181306609348838 0.0032323306473954275 0.23347392822176072 0.16474636035284021 -0.019262330853757257 0.097061282937052629 0.031799613400342368 0.024739748536095604 0.16098565554163455 0.10326977047696616 -0.0021120632005988014 0.004632971061539818 0.10378346425089019 -0.042059406762614299 0.06747200427256661 0.091052833219874577 0.018767265346886042 0.071875426325042527 0.12639053844296977 0.043632037152494862 0.0089873876141054188 0.16396313019764369 -0.034274529055630186 0.022646948062011573 0.06877768610695903 0.10955525905346637 0.14346008931236831
leaf_weight=1740.4499181285501 627.07109360396862 8.3733971416950208 697.02683018147945 323.69207179546356 497.56993302702904 40.74449110776186 24.158847570419312 816.47913611680269 99.437359966337681 359.4460746794939 55.210887156426907 58.690493397414684 19.3596570789814 431.89885594695807 154.26036192476749 57.293455973267555 686.88530761003494 149.54264631122351 144.80361498892307 156.45596621185541 83.996353097259998 59.071109846234322 118.12739153206348 570.87176021188498 64.429941289126873 1011.242847263813 139.44067964702845 48.739165484905243 213.65169556438923 45.45374658703804
leaf_count=26879 8836 108 10368 4836 7341 502 312 12267 1369 5214 797 769 267 6332 2233 806 10514 2083 1982 2237 1148 749 1673 8349 798 15388 1998 667 2825 596
internal_value=0.000146458 0.0584866 -0.0219135 -0.0043591 0.0424867 0.120374 0.0548926 -0.0416791 0.00978719 0.0241303 0.0994486 0.0715914 0.0573452 0.0132914 0.0379429 0.0546639 -0.0296783 0.0926902 0.111222 0.0422943 0.0926202 0.167694 0.0632778 -0.00208621 0.190892 -0.0289174 0.0324758 0.112493 0.120458 0.163735
internal_weight=9503.88 2607.64 6896.23 3652.42 2071.97 535.674 1574.4 3243.81 2317.48 1049.58 371.429 793.069 258.238 791.345 781.331 440.032 1503.36 353.037 203.494 331.877 108.155 164.246 175.421 1267.9 105.174 1334.93 158.8 316.218 267.479 53.8271
internal_count=140243 36462 103781 54121 29420 7042 22079 49660 33897 15180 4993 11010 3634 11546 11069 6176 22781 4834 2751 4716 1460 2049 2479 18717 1300 20224 2265 4196 3529 704
is_linear=0
shrinkage=0.05


Tree=2
num_leaves=31
num_cat=0
split_feature=6 6 6 8 8 15 31 12 6 3 21 8 21 28 15 12 21 12 6 28 12 8 8 15 8 22 6 12 24 27
split_gain=4276.76 901.635 786.643 452.908 430.153 182.51 158.408 185.337 143.727 135.4 120.223 110.404 110.036 105.21 86.6649 82.7186 89.3914 82.8541 57.9572 54.4893 52.7757 49.3794 45.8543 44.1637 42.6904 41.8352 37.6111 37.4727 36.1407 35.8773
threshold=0.088574630801687773 0.19082633053221301 0.031320067264574009 3.5000000000000004 3.5000000000000004 4.5000000000000009 2.5000000000000004 1.5000000000000002 0.28248081841432232 0.061555168766083294 -0.12757192949866245 3.5000000000000004 -0.71566083431945982 -0.95373902053289406 4.5000000000000009 3.5000000000000004 -0.58919277342840626 1.5000000000000002 0.011904761904761913 -0.45350610270396724 1.5000000000000002 2.5000000000000004 6.5000000000000009 4.5000000000000009 4.5000000000000009 -0.95520819662042966 0.064368156259248313 1.5000000000000002 -0.96616747574929784 0.017006164223564327
decision_type=2 2 2 2 2 2 2 2 2 2 2 2 2 2 2 2 2 2 2 2 2 2 2 2 2 2 2 2 2 2
left_child=2 4 18 6 5 9 7 10 11 -2 26 -3 14 20 -9 16 -15 21 -1 -12 -11 -18 27 -10 -5 -19 -4 29 -17 -6
right_child=1 8 3 24 22 -7 -8 12 23 13 19 -13 -14 15 -16 28 17 25 -20 -21 -22 -23 -24 -25 -26 -27 -28 -29 -30 -31
leaf_value=-0.05306472407858203 0.032956203595346088 0.096392074079798967 0.052830066752008402 -0.016601302253624047 0.030954040291938219 0.01408124968272766 -0.015943317548757094 0.03368966807432474 0.14811566667751858 0.17563875031551909 0.067433331144910902 0.023484567882034832 -0.011035982775999912 0.08848346618317901 -0.0064705569437194981 0.055994115940666202 0.090161483408606455 0.082812688846983964 -0.036601982075336117 0.0077533409020352348 0.089821794770157226 0.045799662481814961 -0.020282887434326366 0.077517031685014642 -0.036199290500326872 0.022794662933328175 0.10065381709604843 -0.0093390053905132338 -0.001441230566350036 -0.019445843280523865
leaf_weight=1441.4275731705129 524.93723820149899 364.59485164284706 101.80925340950489 362.96795993298292 187.32132820785046 358.49813205748796 780.74353655427694 349.88270183652639 162.52844116836786 20.353879399597645 46.434916935861111 60.548777177929878 734.55261788517237 239.02634314447641 218.05770057439804 42.10111977159977 147.72238685935736 33.544915676116943 849.80633103102446 216.8940147832036 149.54286217689514 109.02519791573286 215.71167125552893 25.647651173174381 1185.2570597305894 215.95192769914865 68.958526991307735 172.7345552444458 78.379155598580837 43.512382358312607
leaf_count=23285 7220 4421 1428 5539 2776 5101 11593 5053 1741 238 649 858 10904 3115 3226 562 1888 460 13365 3150 1944 1410 3222 308 18633 2968 914 2566 1060 646
internal_value=8.23633e-05 0.0477057 -0.0235292 -0.0103249 0.0345601 0.0462524 0.00276275 0.0111727 0.102112 0.0536428 0.0394669 0.0860086 0.00174279 0.0641281 0.0182704 0.0570684 0.0632825 0.0513836 -0.0469588 0.0182772 0.100103 0.0713237 -0.00167325 0.138493 -0.0316047 0.0308641 0.072142 0.00827381 0.0186292 0.0214536
internal_weight=9508.48 3151.68 6356.79 4065.56 2538.36 1919.08 2517.33 1736.59 613.32 1560.59 434.097 425.144 1302.49 1035.65 567.94 865.751 745.271 506.244 2291.23 263.329 169.897 256.748 619.28 188.176 1548.23 249.497 170.768 403.568 120.48 230.834
internal_count=140243 42504 97739 61089 35176 25966 36917 25324 7328 20865 6141 5279 19183 13645 8279 11463 9841 6726 36650 3799 2182 3298 9210 2049 24172 3428 2342 5988 1622 3422
is_linear=0
shrinkage=0.05


Tree=3
num_leaves=31
num_cat=0
split_feature=6 6 6 8 8 8 15 6 31 3 15 21 12 24 12 21 6 5 15 24 12 8 8 6 8 24 26 12 21 8
split_gain=3799.09 805.995 693.156 380.853 318.65 185.419 139.858 127.007 113.725 107.87 105.269 87.7007 84.062 92.2253 64.2002 77.8151 59.113 56.0698 56.7589 82.3222 48.6791 41.7638 41.5252 38.8486 38.0932 38.0057 37.3017 36.3164 36.2831 35.8906
threshold=0.083551483420593389 0.16224991224991228 0.031320067264574009 4.5000000000000009 3.5000000000000004 3.5000000000000004 4.5000000000000009 0.28876461616675136 2.5000000000000004 0.067390603667126639 4.5000000000000009 -0.70896494276264954 1.5000000000000002 0.051315989645250727 3.5000000000000004 -0.57990244137231739 0.011904761904761913 0.15020169488768526 3.5000000000000004 -1.0660569094206449 1.5000000000000002 1.5000000000000002 3.5000000000000004 0.064368156259248313 2.5000000000000004 0.016803388892343726 -0.38361127628836811 1.5000000000000002 -1.7722196781179445 4.5000000000000009
decision_type=2 2 2 2 2 2 2 2 2 2 2 2 2 2 2 2 2 2 2 2 2 2 2 2 2 2 2 2 2 2
left_child=2 4 16 8 6 7 9 17 10 -2 11 23 13 -13 15 -11 -1 26 19 -19 25 -21 -15 -4 -23 -17 -3 -25 -8 -6
right_child=1 5 3 -5 29 -7 28 -9 -10 14 -12 12 -14 22 -16 20 -18 18 -20 21 -22 24 -24 27 -26 -27 -28 -29 -30 -31
leaf_value=-0.052858272626925211 0.026056268998855117 0.19543072927350311 0.020104429692172847 -0.036027860032162011 0.012739428365346597 0.026936020048703102 0.082630251915679409 0.12622616584809979 -0.017389029802275129 0.080518383013543457 -0.015369622715728018 0.052853110446030173 -0.0094249708197848316 0.017400871814538862 0.02247607324796529 0.092733185847130528 -0.035920949044920034 0.18528545678005087 0.057295229808846083 0.068355594385164239 0.030893345020880682 0.11711072076777147 -0.017769297808078913 0.12369335708992796 0.067799004301843227 0.049648051637524615 0.068304681355213365 0.043755569383592229 0.0040149664706246634 -0.013579471547877654
leaf_weight=1376.3484356179833 590.63539871573448 16.35981356352568 253.21861715614796 1099.6813324913383 185.18221614509821 155.49445777386427 15.350444681942461 161.52759500592947 766.71574285626411 276.03209020197392 463.81650947034359 143.612044878304 537.84533412009478 254.85545624047518 139.50533977895975 74.044933348894119 823.3002367541194 19.917367488145828 282.49438009411097 253.60943774133921 233.93967150896788 114.06426022201777 125.13601557910442 15.950408548116682 59.642143525183201 165.7811951264739 8.9146257117390615 130.07927776873112 334.42587930709124 431.05956849455833
leaf_count=23285 8010 194 3601 17841 2730 2130 216 1559 11579 3375 6985 1963 8087 3582 1826 880 13365 218 3399 2968 3171 1267 1938 196 679 2021 107 1800 4735 6536
internal_value=2.85257e-05 0.0412705 -0.024191 -0.0112354 0.0254264 0.0774208 0.0358998 0.0859858 -0.00110484 0.0426202 0.0053827 0.0119722 0.00445834 0.0187193 0.0536212 0.059416 -0.0465189 0.0773767 0.0748408 0.0859235 0.047121 0.0812922 0.00581889 0.0319487 0.10018 0.0629503 0.150592 0.0524869 0.00746511 -0.00567058
internal_weight=9508.54 3517.98 5990.56 3790.91 2445.96 1072.02 1829.71 916.53 2691.23 1479.94 1924.51 1460.7 1061.45 523.604 889.303 749.798 2199.65 755.002 729.728 447.233 473.766 427.316 379.991 399.248 173.706 239.826 25.2744 146.03 349.776 616.242
internal_count=140243 46021 94222 57572 33500 12521 24234 10391 39731 19283 28152 21167 15570 7483 11273 9447 36650 8832 8531 5132 6072 4914 5520 5597 1946 2901 301 1996 4951 9266
is_linear=0
shrinkage=0.05


Tree=4
num_leaves=31
num_cat=0
split_feature=6 6 6 8 8 8 15 28 6 3 12 8 6 15 28 28 12 6 26 28 12 6 12 0 7 6 21 24 6 21
split_gain=3389.35 760.478 572.096 311.498 289.752 170.449 143.152 115.305 107.986 91.8264 77.933 69.9121 60.2885 57.0257 60.6612 56.6864 53.4073 48.9846 48.65 47.4341 77.9712 46.2101 41.8208 39.634 38.6571 37.797 35.46 33.9097 32.3898 31.2459
threshold=0.077097902097902141 0.14933950934980281 0.031320067264574009 4.5000000000000009 4.5000000000000009 2.5000000000000004 4.5000000000000009 -0.20054651013704175 0.21525096525096532 0.079455266955266959 1.5000000000000002 2.5000000000000004 0.011904761904761913 4.5000000000000009 0.12839175852159726 -0.62382485665032494 3.5000000000000004 0.28248081841432232 -0.81408767381675873 -0.10291242504416317 1.5000000000000002 0.064368156259248313 2.5000000000000004 1.5000000000000002 1.0000000180025095e-35 0.39444444444444454 -1.7722196781179445 -0.90433052145393955 0.10526315789473689 -1.3548524398739998
decision_type=2 2 2 2 2 2 2 2 2 2 2 2 2 2 2 2 2 2 2 2 2 2 2 2 2 2 2 2 2 2
left_child=2 4 12 9 6 8 7 10 15 19 11 -2 -1 14 21 -3 25 -7 22 20 -4 -11 27 28 -19 -10 -8 -12 -9 -24
right_child=1 5 3 -5 -6 17 26 23 16 13 18 -13 -14 -15 -16 -17 -18 24 -20 -21 -22 -23 29 -25 -26 -27 -28 -29 -30 -31
leaf_value=-0.052660797370933723 0.099513692505942705 0.080776112673504472 0.031708228207374796 -0.036669084917383861 -0.016049043847458699 0.028362109981337792 0.070286790983056777 0.015217869844187848 0.09931738476262561 0.016018769853552505 0.11858644003323389 0.042610901988753398 -0.035237084286311934 -0.015445206348908808 -0.0033409031562582612 0.049104079701790745 0.063182006543226407 0.16645631023928406 0.018135390095701434 -0.021090639825631797 -0.010253803284395513 0.05041548276120203 0.062799586845739316 0.001964931612084254 0.057271388960430429 0.16961366673667999 -0.0021081372469313815 0.056930533825241263 0.037701712693988525 0.024101104313236078
leaf_weight=1314.0087408944964 111.93965873867273 226.36859031766653 135.12870049849153 973.86686486005783 484.70160874724388 322.0211141705513 17.641057908535004 318.52267911285162 308.76950623095036 353.26083354651928 26.507975451648235 104.25005467236042 797.96313017234206 195.42290746420622 290.14699808508158 375.82851019501686 108.22574582695961 10.965495109558104 217.53906387835741 656.13294758275151 612.44762272387743 134.94230444729328 71.847807295620441 220.90800404548645 31.094826005399227 20.384356550872326 410.7763601988554 140.49877151101828 322.21615425497293 190.36256511509418
leaf_count=23285 1281 2582 1931 16309 7574 4183 237 4390 3022 5003 327 1342 13365 2964 4257 4445 1081 103 2898 10052 9247 1825 903 2995 296 165 5893 1774 4071 2443
internal_value=-1.58366e-05 0.0346997 -0.0256958 -0.0128515 0.0188775 0.0644322 0.0267404 0.0331663 0.0747434 -0.00309538 0.0460851 0.0720743 -0.0460776 0.00870253 0.0147654 0.0610097 0.0936522 0.0349903 0.0373978 -0.0112797 -0.00266893 0.0255262 0.0471606 0.020228 0.0857369 0.103671 0.000872888 0.0667168 0.0265246 0.0347048
internal_weight=9504.69 4041.37 5463.32 3351.35 2637.71 1403.66 2153.01 1724.59 1039.58 2377.48 862.946 216.19 2111.97 973.773 778.35 602.197 437.38 364.081 646.756 1403.71 747.576 488.203 429.217 861.647 42.0603 329.154 428.417 167.007 640.739 262.21
internal_count=140243 52005 88238 51588 36128 15877 28554 22424 11295 35279 10968 2623 36650 14049 11085 7027 4268 4582 8345 21230 11178 6828 5447 11456 399 3187 6130 2101 8461 3346
is_linear=0
shrinkage=0.05


Tree=5
num_leaves=31
num_cat=0
split_feature=6 6 6 8 8 8 3 31 12 6 21 21 12 3 7 12 6 21 8 12 24 25 12 21 6 6 21 26 24 12
split_gain=3037.89 599.185 543.129 295.385 269.073 148.166 109.284 98.6829 119.351 86.2154 77.1846 57.9291 62.9758 51.7389 50.9676 50.6811 45.5536 45.0934 37.1379 36.2718 39.834 33.7311 33.56 33.9229 32.3476 31.4388 30.831 30.219 29.891 36.5865
threshold=0.077097902097902141 0.14620443957248572 0.027907580477673954 3.5000000000000004 4.5000000000000009 3.5000000000000004 0.089282918579992196 2.5000000000000004 1.5000000000000002 0.31558704453441294 -0.13833979545222591 -0.71566083431945982 2.5000000000000004 0.072363500373971643 1.0000000180025095e-35 2.5000000000000004 0.012739370334307047 -0.6339175009465704 6.5000000000000009 1.5000000000000002 -0.093587522386114466 -0.44751743200901045 1.5000000000000002 -0.1827617232910633 0.064368156259248313 0.10889328063241109 -0.44079148566742427 -1.2773771937027638 -0.99265354036627562 3.5000000000000004
decision_type=2 2 2 2 2 2 2 2 2 2 2 2 2 2 2 2 2 2 2 2 2 2 2 2 2 2 2 2 2 2
left_child=2 4 16 7 6 9 15 8 10 13 24 12 21 22 -8 17 -1 -2 -5 20 -16 -10 23 -3 -4 -19 -24 -21 -15 -30
right_child=1 5 3 18 -6 -7 14 -9 11 -11 -12 -13 -14 28 19 -17 -18 25 -20 27 -22 -23 26 -25 -26 -27 -28 -29 29 -31
leaf_value=-0.052405757394878141 0.046998250970987566 0.10669009415266284 0.042855997370346094 -0.024939715846694206 -0.017112403839428456 0.019030394782869439 0.056415334267083388 -0.018521442975628268 0.072411314798489834 0.100126648223576 0.010597225243806963 -0.013708237691050867 -0.0027715398268151111 0.092496710554813955 0.10475753756179351 0.0032979224766371226 -0.035456144258156783 0.0095139018084705596 -0.041844819465554309 0.046379783687949414 0.036503157110032318 0.020777929631155073 0.046504028852344448 0.053421909358561427 0.095974991782633925 0.029819239243433895 0.011834533061758242 0.011470945793865961 0.068885508847330287 0.032305758514812689
leaf_weight=1276.0159749686718 165.66005109995604 35.255155012011528 116.93499766290188 750.71627418324351 469.56856448203325 225.64083921164274 296.07689376920462 653.63261360675097 44.618087187409401 138.97816161066294 239.88475456088781 626.2261056676507 341.34974547475576 105.27033244818449 28.609972208738327 475.85452132672071 575.05657546594739 442.26675669103861 572.73439975455403 84.548730164766312 84.545874916017056 108.66765256971121 219.47220755368471 196.32571263611317 37.965644918382168 335.03615555167198 90.596234530210495 232.39047099649906 450.13283053785563 80.595485478639603
leaf_count=23668 2034 358 1525 12489 7452 3028 3638 10185 626 1128 3365 9578 4970 1100 303 6467 9959 6047 9911 1083 1019 1523 2414 2140 431 4227 1034 3061 4659 880
internal_value=-0.000307543 0.0317496 -0.0252441 -0.0136396 0.0171698 0.0564662 0.0246747 -0.00228222 0.00472106 0.0628818 0.0283628 -0.00360596 0.00918389 0.0584865 0.04045 0.0166006 -0.0471402 0.0233137 -0.0322555 0.0294595 0.0537604 0.0358073 0.0471301 0.0615313 0.0558753 0.018266 0.0363742 0.0207835 0.0681581 0.0633306
internal_weight=9500.63 4156.82 5343.8 3492.73 2614.56 1542.27 2144.99 2169.28 1515.65 1316.63 394.785 1120.86 494.635 1177.65 726.172 1418.82 1851.07 942.963 1323.45 430.095 113.156 153.286 541.649 231.581 154.901 777.303 310.068 316.939 635.999 530.728
internal_count=140302 52072 88230 54603 35331 16741 27879 32203 22018 13713 5321 16697 7119 12585 9104 18775 33627 12308 22400 5466 1322 2149 5946 2498 1956 10274 3448 4144 6639 5539
is_linear=0
shrinkage=0.05


Tree=6
num_leaves=31
num_cat=0
split_feature=6 6 6 8 8 8 15 31 12 8 8 28 6 26 21 15 26 28 6 15 8 12 28 3 21 12 12 21 3 21
split_gain=2730.61 529.892 498.158 278.27 243.832 116.401 95.8983 90.2596 104.958 86.379 76.544 70.052 68.4566 63.6861 52.6114 56.7439 48.3035 46.6744 46.5416 42.9324 36.6665 35.8413 35.6739 35.3425 34.7403 38.2538 34.6397 32.566 32.1053 31.9979
threshold=0.077097902097902141 0.027907580477673954 0.1471728226174191 3.5000000000000004 3.5000000000000004 3.5000000000000004 4.5000000000000009 2.5000000000000004 1.5000000000000002 1.5000000000000002 2.5000000000000004 -0.74513534428531769 0.2657836644591613 -1.1631671952064526 -0.71566083431945982 4.5000000000000009 -0.18511619259461731 -1.0667571737724064 0.012739370334307047 3.5000000000000004 6.5000000000000009 3.5000000000000004 0.41683028135691774 0.072363500373971643 -0.30692614918873268 3.5000000000000004 4.5000000000000009 -1.1696150092381385 0.095254843973565748 -0.7544785816498053
decision_type=2 2 2 2 2 2 2 2 2 2 2 2 2 2 2 2 2 2 2 2 2 2 2 2 2 2 2 2 2 2
left_child=1 18 4 7 6 12 9 8 11 13 22 -3 17 21 15 26 28 -4 -1 24 -5 -2 -11 -14 25 -19 -10 -21 -13 -8
right_child=2 3 5 20 -6 -7 29 -9 14 10 -12 16 23 -15 -16 -17 -18 19 -20 27 -22 -23 -24 -25 -26 -27 -28 -29 -30 -31
leaf_value=-0.052221039967781692 0.060414275965549061 0.083457395512151686 0.076194097922464565 -0.024227736970696072 -0.0096898066156156197 0.018355684440112055 0.015354922874567814 -0.0178863783308221 0.028291969876055548 0.064435905995915088 0.022739067277473796 0.019002151610177868 0.058901457681481799 0.013702362478915972 -0.013181333058662693 -0.013291530321526558 -0.00060321773244146443 0.078544520756540726 -0.034777689434612784 0.06308213424155476 -0.041281762320452768 0.021407173662462101 0.023981446785847533 0.093729437097735943 0.04519477750670714 0.018523213551272066 -0.019789808171744784 0.023767152922979255 0.061130024009364084 -0.014376753591156652
leaf_weight=1217.969181060791 134.40990808606148 47.312930263578892 159.42028987407684 734.55576745420694 676.36873405054212 224.68236654996872 198.9609489813447 643.26710040122271 269.78458832204342 335.6282569989562 252.98103446513414 110.57986110448837 129.61415161192417 751.43456663191319 618.88675798475742 185.26381449401379 169.75235944986343 193.73563069850206 557.4129196330905 66.70933835208416 552.04584984853864 104.80981773883104 65.058597482740879 166.30165209621191 355.33637661486864 30.761279307305813 43.498299308121204 250.33377899229527 76.520159676671028 165.99500944465399
leaf_count=23668 1577 583 1608 12489 10494 2962 2761 10185 3674 3775 3040 1433 1074 9656 9578 2842 2385 1884 9959 700 9911 1293 777 1340 3707 316 603 2753 920 2355
internal_value=-0.000325933 -0.0245471 0.0293748 -0.0131292 0.016277 0.0516818 0.025018 -0.00218436 0.00445378 0.0301642 0.0442721 0.0262891 0.0572193 0.0208553 -0.00344385 0.00864407 0.0187095 0.0512648 -0.0467444 0.0468336 -0.0315452 0.043324 0.0578674 0.0784744 0.0549227 0.0703202 0.021616 0.0320395 0.0362316 0.00183189
internal_weight=9489.39 5226.85 4262.54 3451.47 2685.65 1576.89 2009.28 2164.87 1521.6 1644.32 653.668 404.165 1352.21 990.654 1117.43 498.547 356.852 1056.3 1775.38 896.876 1286.6 239.22 400.687 295.916 579.833 224.497 313.283 317.043 187.1 364.956
internal_count=140302 88230 52072 54603 35728 16344 25234 32203 22018 20118 7592 5321 13382 12526 16697 7119 4738 10968 33627 9360 22400 2870 4552 2414 5907 2200 4277 3453 2353 5116
is_linear=0
shrinkage=0.05


Tree=7
num_leaves=31
num_cat=0
split_feature=6 6 6 6 3 21 15 28 15 3 15 28 28 28 12 28 3 5 12 26 21 3 15 24 21 15 5 28 12 29
split_gain=2480.03 569.982 381.75 147.252 114.594 110.244 107.014 89.9856 98.2772 83.6436 54.6894 58.8668 53.084 51.9703 50.9284 47.1243 42.2568 39.8479 34.7041 46.5782 34.5926 33.9572 33.8269 38.0445 32.7585 32.3757 43.475 43.245 31.6611 31.1101
threshold=0.063891637803067822 0.12184517497348887 0.020876917712691779 0.18490028490028498 0.089282918579992196 -1.0000000180025095e-35 4.5000000000000009 0.019781475711568363 4.5000000000000009 0.083082662395425028 3.5000000000000004 0.019781475711568363 0.046308130349403363 -0.50478144315329632 1.5000000000000002 0.21591059058140924 0.054804804804804812 0.11500487329434698 1.5000000000000002 -0.95183341176087433 -0.51513865955517224 0.1061075685329705 3.5000000000000004 -0.70978157666521302 0.79253903463914521 3.5000000000000004 0.1688773137967001 -1.1160086061397376 3.5000000000000004 0.028845680043138051
decision_type=2 2 2 2 2 2 2 2 2 2 2 2 2 2 2 2 2 2 2 2 2 2 2 2 2 2 2 2 2 2
left_child=2 4 -1 9 7 6 18 8 16 10 11 -3 17 14 -5 25 -2 -6 -4 -20 28 -16 23 -19 -7 26 -11 -28 -15 -27
right_child=1 3 5 13 12 24 -8 -9 -10 15 -12 -13 -14 20 21 -17 -18 22 19 -21 -22 -23 -24 -25 -26 29 27 -29 -30 -31
leaf_value=-0.049702461413586169 0.0055175834760876471 0.040829328610427228 0.017025444527672511 0.10905518652565496 0.10127726294346003 -0.022708310774611145 -0.027150990035909213 -0.01700459936996173 -0.016393878462427906 0.15306636838835566 0.0050655335566152128 0.0013077493776127644 0.0080625130902837565 0.084721147721124018 0.058126675285665098 0.023104223351848047 0.025520799713993327 0.083414787025275605 0.0098880842575249789 -0.015786003690917264 0.038497122562419273 0.12372573154680032 0.015438917882934305 0.033525953056660923 -0.038940194567647989 0.048211655964425004 0.11806274766169733 0.052869971892061253 0.030015305038424697 0.00024871150939873254
leaf_weight=1399.303293030709 562.16036217659712 392.04192908853292 258.81664634123445 72.541082501411438 20.498964618891478 1011.7130900807679 498.34908056259155 512.63728266581893 328.34446914494038 13.120253309607504 321.74318496882915 124.027228705585 364.49855648726225 91.108226701617241 291.92473337054253 178.01382000744343 497.82458874583244 45.673809345811605 318.7353916913271 396.31183607503772 350.06914213299751 21.157488845288754 219.15657867863774 233.97945651039481 448.68357426673174 156.49573870748281 28.481283821165562 238.03638213127851 37.266761310398579 43.125532731413841
leaf_count=28116 7927 4516 3742 613 266 16941 8325 7864 4979 133 4024 1609 5130 799 2570 2130 6523 513 4759 6342 3284 179 2901 2799 7998 1760 257 2452 350 501
internal_value=-0.000340855 0.0231329 -0.0282147 0.0412159 0.00781366 -0.0179618 -0.00830634 0.000897763 0.00750817 0.0317194 0.0212444 0.0313311 0.0226889 0.0576475 0.0713062 0.0450716 0.0149121 0.0329551 0.00133691 -0.00434167 0.0466387 0.0625597 0.0301474 0.0416739 -0.0276953 0.053231 0.064211 0.0598368 0.0688403 0.0378499
internal_weight=9475.84 5143.93 4331.91 2359.15 2784.77 2932.61 1472.21 1900.97 1388.33 1495.09 837.812 516.069 883.807 864.067 385.623 657.273 1059.98 519.309 973.864 715.047 478.444 313.082 498.81 279.653 1460.4 479.259 279.638 266.518 128.375 199.621
internal_count=140302 64079 76223 25177 38902 48107 23168 27293 19429 17382 10149 6125 11609 7795 3362 7233 14450 6479 14843 11101 4433 2749 6213 3312 24939 5103 2842 2709 1149 2261
is_linear=0
shrinkage=0.05


Tree=8
num_leaves=31
num_cat=0
split_feature=8 5 31 5 15 21 15 12 26 28 5 8 8 12 12 8 15 28 21 26 12 22 22 28 15 2 25 28 16 4
split_gain=1245.68 412.319 167.864 158.2 154.963 107.645 106.5 96.9556 96.3303 79.5698 61.4245 56.2521 54.1256 48.4138 45.1021 40.1932 36.4762 37.4242 36.2019 35.4385 35.1496 32.1047 30.2528 27.9246 27.6936 27.644 26.3526 40.4898 25.4079 25.3884
threshold=3.5000000000000004 0.28581901968998752 2.5000000000000004 0.24107900800388068 4.5000000000000009 -0.12024396641586592 3.5000000000000004 1.5000000000000002 -1.0445492402240721 -0.09510488010055386 0.18754128137384415 1.5000000000000002 4.5000000000000009 1.5000000000000002 3.5000000000000004 2.5000000000000004 4.5000000000000009 -0.66973731763467226 -1.1696150092381385 -0.83524328737877951 4.5000000000000009 -1.4601102456210961 0.17509894034967119 -1.1160086061397376 3.5000000000000004 0.067821300841753168 0.58851468986041489 -0.95373902053289406 453.00000000000006 330.50000000000006
decision_type=2 2 2 2 2 2 2 2 2 2 2 2 2 2 2 2 2 2 2 2 2 2 2 2 2 2 2 2 2 2
left_child=1 2 4 12 5 7 9 15 14 13 -4 -7 -2 26 24 -1 17 25 -8 20 29 -11 -13 -6 -9 -5 27 -3 -19 -15
right_child=3 6 10 16 23 11 18 8 -10 21 -12 22 -14 19 -16 -17 -18 28 -20 -21 -22 -23 -24 -25 -26 -27 -28 -29 -30 -31
leaf_value=0.060164967575557393 -0.019060951151309874 0.12734895186570191 -0.023273801545036304 0.0015374457869081965 0.0088539593240944663 -0.018080268141522037 0.031000537364513372 0.057795151791814894 0.0034415564628762566 0.14951507029016828 -0.0011648931196886001 0.019961225836243719 -0.037696536172946916 0.041647513444524525 0.011056483531234763 0.024294744494528144 -0.029008920516605925 -0.022611222862992077 0.0088433035357820579 0.022666448693482652 0.014786089876084438 0.023389915400419552 -0.003933972726152769 -0.017329530125507427 0.029313860212931739 0.0651293624886745 0.045494178680136992 0.065039343476248332 0.0023415356370330423 0.076739322917013242
leaf_weight=211.52717608958483 499.38929271325469 31.410264492034912 656.66877770796418 33.276279792189598 126.01946362480521 268.90639010071754 261.25509860366583 164.13719690963626 638.6266993060708 5.0861339829862109 602.30651064217091 314.03389070928097 1772.8474976196885 99.38684057071805 163.48563592135906 123.80310486257076 139.85689658299088 147.3808358348906 626.24167539924383 206.03903611749411 54.757454134523869 631.60225080698729 229.09062684327364 530.48039580881596 177.80705961957574 35.133289817720652 119.42906696721911 153.41029063984752 331.43886144086719 107.06838655844331
leaf_count=2441 8586 261 11238 503 1985 4183 2909 2089 9273 51 8834 4416 33576 953 2218 1543 2252 2314 7445 2211 590 6996 3319 8552 2394 503 1124 1419 5103 1021
internal_value=-0.000351341 0.0118874 0.00258662 -0.0272438 0.0091137 0.0152498 0.0289313 0.0232788 0.0163488 0.0374808 -0.0126967 0.000622348 -0.0336008 0.0482779 0.0326576 0.0469218 -0.00622064 -0.000396572 0.0153658 0.0381708 0.0504004 0.0243975 0.0098822 -0.0123034 0.0429852 0.0341965 0.0637999 0.0756289 -0.00533893 0.0598462
internal_weight=9461.9 6502.58 4206.89 2959.32 2947.92 2291.42 2295.69 1479.39 1144.06 1408.19 1258.98 812.031 2272.24 771.501 505.43 335.33 687.086 547.229 887.497 467.252 261.213 636.688 543.125 656.5 341.944 68.4096 304.25 184.821 478.82 206.455
internal_count=140302 87465 62485 52837 42413 31876 24980 19958 15974 14626 20072 11918 42162 7579 6701 3984 10675 8423 10354 4775 2564 7047 7735 10537 4483 1006 2804 1680 7417 1974
is_linear=0
shrinkage=0.05


Tree=9
num_leaves=31
num_cat=0
split_feature=6 6 6 8 8 8 6 3 7 3 28 12 21 12 26 12 22 3 12 24 21 12 21 28 12 26 3 4 28 25
split_gain=2167.61 487.761 341.011 246.253 159.816 117.664 80.1777 76.9153 59.1969 50.7989 47.2814 59.4856 46.7457 36.2169 35.6553 32.3863 32.6203 30.0238 29.1973 42.5412 27.8575 38.2582 27.0144 26.9132 32.8766 25.7649 25.7396 25.6362 24.7641 24.5316
threshold=0.060606060606060635 0.12184517497348887 0.019230769230769242 4.5000000000000009 4.5000000000000009 3.5000000000000004 0.20881782945736435 0.067821300841753168 1.0000000180025095e-35 0.083813578198688135 -1.0844351634253824 2.5000000000000004 -0.30692614918873268 1.5000000000000002 -1.7208365120444147 2.5000000000000004 0.20675755958338563 0.067390603667126639 1.5000000000000002 0.22504975588175888 -0.41900143917625776 2.5000000000000004 -0.6339175009465704 -0.66190800070068623 1.5000000000000002 -1.3146125248250682 0.067989507600521262 306.50000000000006 -1.041854165093375 -0.37132082583921194
decision_type=2 2 2 2 2 2 2 2 2 2 2 2 2 2 2 2 2 2 2 2 2 2 2 2 2 2 2 2 2 2
left_child=2 3 -1 7 9 6 10 -2 20 23 -3 12 13 -12 -13 16 28 -8 19 -11 21 -9 -20 24 27 -17 -7 -4 -10 -15
right_child=1 5 4 -5 -6 26 17 8 15 18 11 14 -14 29 -16 25 -18 -19 22 -21 -22 -23 -24 -25 -26 -27 -28 -29 -30 -31
leaf_value=-0.050179448869455426 0.0031735087167846471 0.056713861605958642 0.0081544196269203433 -0.022369806220935227 -0.037278418953835456 -0.0047411541305038872 0.040761015713907646 0.059395860152088031 0.077596705217533923 0.038096211807659999 0.079987761703641427 0.055646494090056023 0.029457070149791893 0.067245341932199901 0.0094357771143619221 0.018326860020692778 0.00035877256219948861 0.063724293092726397 0.0057524637948813996 -0.006594290410444209 0.021389996628033758 0.024923727135140156 -0.018084787694086581 -0.02152439517645531 -0.010573028847999863 -0.011313932441055488 0.021870329280939883 0.092478968023424063 0.024970143618472163 0.031532637328988276
leaf_weight=1248.441278975457 1028.0260583236814 207.91232128441334 25.518026046454906 592.94568239152431 804.85609322041273 158.05117395892739 215.62101333588362 169.88566021248698 24.002368051558733 105.42474215850234 92.467843167483807 47.409875422716141 540.44462072104216 70.162225089967251 349.19691494107246 117.08312060311437 144.7614674679935 418.84973286837339 226.71951760724187 107.59715846553445 274.15272392705083 152.95214070007205 249.82703939825296 872.08745228871703 304.20796810090542 196.11834095790982 213.7613493911922 13.93558047711849 325.4708301089704 152.82857727259398
leaf_count=26766 14319 2071 346 10462 15683 2174 1742 1861 274 1362 800 502 5672 688 3897 1525 1852 3241 3367 1622 3444 1945 4097 14387 4871 2685 2848 187 4070 1542
internal_value=-0.000352419 0.0199772 -0.0285574 0.00652262 -0.0185972 0.0364792 0.0410798 0.0135656 0.0211725 -0.0107057 0.0346325 0.030967 0.0383845 0.0536789 0.0149597 0.0123457 0.0203173 0.0559204 0.000134698 0.0155231 0.0331107 0.0430639 -0.00674409 -0.0168544 -0.00500366 -0.000233408 0.0105582 0.0379391 0.0285846 0.0427693
internal_weight=9450.72 5492.1 3958.61 3025.4 2710.17 2466.71 2094.89 2432.45 1404.43 1905.32 1460.42 1252.51 855.903 315.459 396.607 807.436 494.235 634.471 689.568 213.022 596.991 322.838 476.547 1215.75 343.662 313.201 371.813 39.4536 349.473 222.991
internal_count=140302 67614 72688 42437 45922 25177 20155 31975 17656 30239 15172 13101 8702 3030 4399 10406 6196 4983 10448 2984 7250 3806 7464 19791 5404 4210 5022 533 4344 2230
is_linear=0
shrinkage=0.05


Tree=10
num_leaves=31
num_cat=0
split_feature=6 6 6 8 8 6 15 28 8 28 12 12 3 3 15 21 12 4 25 24 5 21 5 24 22 27 28 12 5 2
split_gain=2022.96 455.877 335.795 243.235 156.378 125.818 89.6441 82.7623 82.2443 54.0568 52.606 47.6207 43.2213 40.5618 33.255 28.0474 36.4661 31.1201 30.5195 26.7114 25.3342 24.9627 46.2209 30.53 30.6293 29.8469 24.9174 29.2932 24.2747 24.3905
threshold=0.059348516949152545 0.12937598459653424 0.020876917712691779 4.5000000000000009 4.5000000000000009 0.24305019305019307 4.5000000000000009 -0.45350610270396724 3.5000000000000004 -0.9996624994406107 1.5000000000000002 3.5000000000000004 0.09839886657374948 0.083813578198688135 5.5000000000000009 -0.10210642029605123 1.5000000000000002 142.50000000000003 -1.2228820375384226 -1.4155796421423794 0.0761145442507173 -1.0896906223605964 0.18471903248068244 -0.88128504037235211 -0.35215414127930578 0.12327821019680145 -0.6511893448415903 1.5000000000000002 0.26007018708360996 0.077759197324414775
decision_type=2 2 2 2 2 2 2 2 2 2 2 2 2 2 2 2 2 2 2 2 2 2 2 2 2 2 2 2 2 2
left_child=2 3 -1 6 13 8 7 10 9 14 -2 15 -9 26 -3 16 17 -11 -18 -8 -14 22 23 -12 -25 -23 27 -4 -20 -30
right_child=1 5 4 -5 -6 -7 19 12 -10 11 21 -13 20 -15 -16 -17 18 -19 28 -21 -22 25 -24 24 -26 -27 -28 -29 29 -31
leaf_value=-0.049180756428070453 0.05539437389949993 0.060448715623825172 0.037201828876703445 -0.020288668787218786 -0.037083210470574154 0.058569139386716956 0.034412279615506733 0.0063454853419029587 0.0054018534326391986 0.11627734427348908 0.046097623545210464 0.0076263258323211527 0.12330622713630524 0.00017812118823743865 -0.0021100421612628359 0.025616694364343003 0.23607169742738671 0.053548661676940862 0.056968592604231441 -0.0078212593967860646 0.025129244160443338 0.0086355569663997996 0.027950397439570646 0.21157869720528538 0.076729589926810629 0.036960261404048553 -0.020104534977439695 -0.0092143577449501149 0.010148996362410179 0.038447434195099994
leaf_weight=1260.6713683977723 175.06503162905574 247.80167411267757 38.615239925682545 638.3358202688396 729.93999249115586 502.02166377007961 40.55977687984705 1095.0966959036887 281.09245161339641 23.453618012368679 18.215799361467361 193.20352487266064 6.7106060087680808 663.83373199403286 23.235116586089134 463.48944349586964 1.8693834543228138 125.95442897826433 87.06176682561636 486.54583484306931 315.75076291337609 293.73094367235899 167.38026386871934 7.8632153347134617 9.0661025419831258 136.09909237921238 805.07854128628969 283.87097084894776 126.61347185075283 191.02421551197767
leaf_count=28130 1803 2222 507 11425 14689 3758 559 14497 3836 192 212 2065 79 10041 252 4660 16 1043 861 7203 3784 3620 1867 90 102 1714 13478 4579 1270 1807
internal_value=0.000198815 0.0191246 -0.028111 0.00751887 -0.017576 0.036483 0.0139687 0.018361 0.0302003 0.0348985 0.0311384 0.0303865 0.0110831 -0.00962746 0.0550858 0.0346999 0.0422721 0.0633956 0.0345095 -0.00457147 0.0271724 0.0244232 0.0388958 0.0910235 0.139363 0.0176041 -0.0154003 -0.00365638 0.0335784 0.0271674
internal_weight=9439.25 5657.24 3782.01 3390.42 2521.34 2266.82 2752.08 2224.98 1764.8 1483.71 807.42 1212.67 1417.56 1791.4 271.037 1019.47 555.977 149.408 406.569 527.106 322.461 632.355 202.525 35.1451 16.9293 429.83 1127.56 322.486 404.699 317.638
internal_count=140361 68937 71424 46955 43294 21982 35530 27768 18224 14388 9408 11914 18360 28605 2474 9849 5189 1235 3954 7762 3863 7605 2271 404 192 5334 18564 5086 3938 3077
is_linear=0
shrinkage=0.05


Tree=11
num_leaves=31
num_cat=0
split_feature=6 8 6 6 8 3 6 7 28 12 15 15 26 6 24 12 26 8 8 5 27 6 28 12 15 15 24 5 22 6
split_gain=1843.55 413.705 316.112 263.54 139.172 101.674 83.6056 70.3912 56.1996 51.7697 40.1387 38.3485 57.3951 38.0953 37.1734 34.5914 41.3904 35.413 33.4112 30.4989 29.2433 28.8212 28.0359 27.8514 27.4503 26.7812 40.6511 27.6734 26.6291 26.1742
threshold=0.057771773680864606 3.5000000000000004 0.019607843137254905 0.16637220259128391 4.5000000000000009 0.067821300841753168 0.10714285714285719 1.0000000180025095e-35 -1.0667571737724064 1.5000000000000002 5.5000000000000009 4.5000000000000009 0.19411908017261142 0.31558704453441294 0.38603766651582422 1.5000000000000002 -0.71936098893698597 2.5000000000000004 6.5000000000000009 0.19536849452663479 0.017006164223564327 0.28248081841432232 -0.85299073605297104 1.0000000180025095e-35 5.5000000000000009 3.5000000000000004 -0.46876228947765358 0.26416502393691926 1.0129032848361497 0.11796331435800132
decision_type=2 2 2 2 2 2 2 2 2 2 2 2 2 2 2 2 2 2 2 2 2 2 2 2 2 2 2 2 2 2
left_child=2 3 -1 5 11 10 18 19 -9 14 22 12 15 25 28 17 -17 -4 -3 -7 21 -8 -2 -24 -11 26 27 -5 -10 -21
right_child=1 6 4 13 -6 7 20 8 9 24 -12 -13 -14 -15 -16 16 -18 -19 -20 29 -22 -23 23 -25 -26 -27 -28 -29 -30 -31
leaf_value=-0.049504839732701415 0.023312294479556423 -0.010289261887687209 0.031876245205191271 0.1188345857112376 -0.036583212198212957 0.053333284091647795 0.011329323680280126 0.048127315937341313 0.041763761610288705 0.0089816478421554605 -0.023688002312929116 -0.024523719064940944 -0.023190346394233414 0.065528003010206351 0.0040923933260183535 0.003190621489753253 -0.022457695929169321 -0.0015677397993994714 -0.032003474812514726 0.022462682124855891 -0.013652948001762919 0.07074298840965626 0.016267119275438804 -0.0011975841412748432 -0.025242182551829879 0.030296281619064683 0.039861149842900331 0.060272782951674812 0.19137759353828399 0.042903978003266577
leaf_weight=1162.4752015918493 273.16103210300207 477.51797427237034 144.26667476072907 23.798278659582138 699.61755929514766 185.28675222024322 361.32250781729817 125.32122524827719 181.16374062001705 715.93025037273765 100.55418464541435 364.79793699085712 365.59303112700582 183.09572874009609 84.052651569247246 417.9245840087533 252.2322678938508 175.37172190099955 281.63150903210044 404.5160408988595 119.42424661666155 21.633807897567749 360.39471862837672 622.70750150829554 63.813377365469933 382.53941275179386 484.21561975777149 132.43169533461332 3.0237265303730956 255.52325544506311
leaf_count=27221 3392 8094 1890 179 14581 2140 5065 1338 1739 8719 1475 6297 6390 1156 914 6376 4271 2645 5374 4646 1694 174 4783 8077 902 3407 3963 992 30 2437
internal_value=0.000166103 0.0174805 -0.0280755 0.0244619 -0.0177808 0.0172937 -0.00787378 0.0244081 0.016483 0.0126988 0.00670902 -0.0101337 -0.00626064 0.0445235 0.031646 -7.44977e-06 -0.00646284 0.013527 -0.0183449 0.0354081 0.00794913 0.0146857 0.00914207 0.00520479 0.00618081 0.040764 0.0470164 0.0691934 0.0442199 0.0303762
internal_weight=9425.34 5843.06 3582.28 4581.53 2419.8 3375.45 1261.53 2018.63 1173.3 1047.98 1356.82 1720.19 1355.39 1206.08 268.24 989.795 670.157 319.638 759.149 845.326 502.381 382.956 1256.26 983.102 779.744 1022.99 640.446 156.23 184.187 660.039
internal_count=140361 70690 69671 50289 42450 40592 20401 22865 13642 12304 17727 27869 21572 9697 2683 15182 10647 4535 13468 9223 6933 5239 16252 12860 9621 8541 5134 1171 1769 7083
is_linear=0
shrinkage=0.05


Tree=12
num_leaves=31
num_cat=0
split_feature=6 8 6 6 8 15 28 6 6 6 15 15 26 8 8 21 2 16 28 8 5 26 20 29 26 28 15 23 8 25
split_gain=1682.65 364.633 311.982 247.624 133.318 98.6106 90.4398 49.3553 45.8523 44.0047 38.9973 35.8906 53.1809 30.7444 52.6852 31.1798 29.886 28.5874 27.7575 31.0572 28.0116 27.0365 26.6938 24.7515 24.7472 21.9987 21.972 25.7164 29.3182 21.3319
threshold=0.057771773680864606 4.5000000000000009 0.019607843137254905 0.16224991224991228 4.5000000000000009 5.5000000000000009 -0.45350610270396724 0.10526315789473689 0.089358304297328703 0.2657836644591613 3.5000000000000004 4.5000000000000009 0.19411908017261142 1.5000000000000002 2.5000000000000004 -0.51513865955517224 0.081080230964524033 455.00000000000006 -1.2320182753552682 1.5000000000000002 0.26837647998496528 -1.9633186812774968 70.500000000000014 0.37145484593542805 -0.84663628511909395 -1.0164464901449166 3.5000000000000004 1.0000000180025095e-35 9.5000000000000018 1.6332251286296449
decision_type=2 2 2 2 2 2 2 2 2 2 2 2 2 2 2 2 2 2 2 2 2 2 2 2 2 2 2 2 2 2
left_child=2 3 -1 5 11 6 10 -3 -8 25 17 12 13 15 -15 -4 21 -2 -19 24 29 -12 -18 -10 -20 -5 27 28 -9 -21
right_child=1 7 4 9 -6 -7 8 26 23 -11 16 -13 -14 14 -16 -17 22 18 19 20 -22 -23 -24 -25 -26 -27 -28 -29 -30 -31
leaf_value=-0.049260477262151978 0.019091506406585478 -0.023569073445286737 0.0025782218655538806 0.049805457835326028 -0.035948932494370839 -0.016030607254492537 0.0016377842419686166 0.031409246415764917 0.019974451465957995 0.053757008976691716 0.077503124235614521 -0.023817627188850894 -0.022496146479120988 0.025623245897925723 -0.0060294172219565101 -0.023585395512310762 0.039686315244785192 0.0712227198981214 0.038834251160702715 0.067424248393206196 0.034248183543795267 0.0075570191156716267 0.0058180345313171775 0.00046418501783656397 0.0059047803778000223 0.030411882355521298 -0.019540264201519202 -0.01656705421530771 -0.015403754327557972 0.17421223053583049
leaf_weight=1111.128488343209 193.02197096124291 515.90835786983371 246.56842606142163 178.77675835043192 676.94313752278686 243.33933161199093 883.43919242545962 128.63694510236382 976.12635970115662 392.13300781697035 14.306578684598206 357.03252450749278 358.22150773927569 238.41064764931798 293.06778803095222 211.59076225012541 219.03030009940267 68.974452286958694 135.30608878657222 78.505479708313942 96.682770576328039 402.40141337364912 79.221597883850336 195.04251156002283 98.65649002417922 803.07778057456017 93.978809162974358 70.483757875859737 45.197591695934534 4.9727699868381015
leaf_count=27221 2006 9903 3661 1414 14581 3573 12341 1775 11060 2597 170 6297 6390 3298 4620 3603 2546 679 1381 798 880 5094 940 2213 1160 7044 1380 1024 663 49
internal_value=0.000136563 0.0163811 -0.0273823 0.0214792 -0.0171761 0.0147309 0.0169033 -0.0138367 0.010238 0.0395979 0.026748 -0.00972214 -0.0059884 -1.30523e-05 0.00816934 -0.00950487 0.0186069 0.0353567 0.0418555 0.0369642 0.052568 0.00995844 0.0306902 0.0167253 0.0249487 0.0339431 0.00100532 0.00890833 0.0192377 0.0737856
internal_weight=9410.18 5917.22 3492.96 5063.01 2381.83 3689.03 3445.69 854.205 2054.61 1373.99 1391.08 1704.89 1347.86 989.638 531.478 458.159 714.96 676.12 483.098 414.124 180.161 416.708 298.252 1171.17 233.963 981.855 338.297 244.318 173.835 83.4782
internal_count=140361 70690 69671 55945 42450 44890 41317 14745 25614 11055 15703 27869 21572 15182 7918 7264 8750 6953 4947 4268 1727 5264 3486 13273 2541 8458 4842 3462 2438 847
is_linear=0
shrinkage=0.05


Tree=13
num_leaves=31
num_cat=0
split_feature=6 8 6 6 8 6 3 6 12 26 12 26 24 24 15 8 8 12 15 3 24 12 24 27 3 5 26 5 16 27
split_gain=1539.77 370.394 264.217 209.548 102.793 84.4268 75.2353 56.427 51.2306 48.9736 33.2447 36.108 31.9929 30.4571 29.8736 29.0922 27.6955 29.2598 27.4938 27.0404 24.4059 28.8974 24.1739 22.7335 22.374 22.1277 22.0641 29.8703 22.9879 28.6883
threshold=0.052631578947368453 3.5000000000000004 0.019607843137254905 0.12893330694636854 4.5000000000000009 0.10106684825785948 0.067821300841753168 0.20881782945736435 1.5000000000000002 -0.48868864155907393 2.5000000000000004 -1.6319067126384146 -0.17622763985268255 -0.66436086151258167 3.5000000000000004 6.5000000000000009 6.5000000000000009 1.5000000000000002 5.5000000000000009 0.083813578198688135 -1.0000000180025095e-35 4.5000000000000009 -0.18404770762019479 0.10030071674820569 0.041646631763402789 0.23257653812187226 -1.149958412750282 0.29311788829203494 509.00000000000006 -0.59522878563511539
decision_type=2 2 2 2 2 2 2 2 2 2 2 2 2 2 2 2 2 2 2 2 2 2 2 2 2 2 2 2 2 2
left_child=2 3 -1 6 19 15 18 14 12 10 13 -12 22 -10 20 -3 17 23 -2 -4 21 24 -8 -7 -5 -26 27 28 -16 -30
right_child=1 5 4 7 -6 16 8 -9 9 -11 11 -13 -14 -15 26 -17 -18 -19 -20 -21 -22 -23 -24 -25 25 -27 -28 -29 29 -31
leaf_value=-0.049016112092733502 0.0042838496843794057 -0.012241297113701399 -0.016290313782374541 -0.0094627156804598794 -0.035898539421652567 0.030022450766318293 0.05306329981634246 0.043766199863719893 0.049897538667096362 -0.0093351475113436361 0.035927297430107488 0.003936858726209606 0.025622014708946123 0.020009314446764695 0.040767750146965709 -0.032227469404012707 -0.010980861271897988 -0.0040745936731063489 -0.024394737579661027 -0.0020972400672250313 0.024128227421050075 0.0035379885165727487 0.19886982641341161 -0.014705799233152387 0.078520186264449343 0.043126311717645152 0.006975635105041407 0.016415959024562794 0.25083716616311275 0.074130732884635758
leaf_weight=1062.0753579549491 1095.4008290469646 495.75705399364233 908.94284708052874 17.632275842130184 585.25581944733858 208.25491691380739 102.50739292055368 727.42276787757874 118.59396464377642 200.51262899488211 108.62931599095464 469.18901331722736 343.75710049644113 303.04440909996629 66.759976968169212 287.76667408645153 171.71675103157759 152.26130395755172 90.474179610610008 531.99873849377036 442.92286251485348 46.009867317974567 2.9237959384918204 32.895469397306442 51.602723769843578 306.13279482722282 263.23605490475893 187.20035492628813 2.9233083277940741 10.718807041645048
leaf_count=27221 14759 8756 15726 159 13044 2661 873 5001 1243 2716 1319 5986 3580 3677 676 5890 2556 2153 1425 8276 4120 427 26 470 417 2495 2727 1844 28 110
internal_value=0.000110103 0.0142756 -0.0288159 0.0205958 -0.0182275 -0.00895719 0.0117012 0.0324761 0.0186082 0.0132164 0.0177408 0.00995103 0.033012 0.028416 0.0265894 -0.0195817 0.00577314 0.013086 0.00209587 -0.0110502 0.0323234 0.0409375 0.0571068 0.023921 0.0455217 0.0482318 0.0172535 0.0273637 0.0528534 0.111996
internal_weight=9394.52 6306.25 3088.27 4957.59 2026.2 1348.65 2835.03 2122.56 1649.16 1199.97 999.457 577.818 449.188 421.638 1395.14 783.524 565.128 393.412 1185.88 1440.94 864.301 421.378 105.431 241.15 375.368 357.736 530.839 267.602 80.4021 13.6421
internal_count=140361 76094 64267 53608 37046 22486 35604 18004 19420 14941 12225 7305 4479 4920 13003 14646 7840 5284 16184 24002 7618 3498 899 3131 3071 2912 5385 2658 814 138
is_linear=0
shrinkage=0.05


Tree=14
num_leaves=31
num_cat=0
split_feature=6 6 6 28 15 6 2 21 24 28 15 15 28 5 3 0 26 28 29 24 26 12 3 6 12 5 2 29 15 29
split_gain=1410.36 314.715 261.268 97.2482 86.8468 76.7971 67.3066 63.2299 62.8734 50.9635 52.3369 42.4224 39.6609 38.6313 37.4779 37.01 33.9655 32.8667 33.7244 28.174 23.4642 23.3942 22.2602 21.813 20.8429 20.6462 20.5611 25.9161 20.3611 21.6717
threshold=0.052631578947368453 0.12477758007117441 0.019607843137254905 0.046308130349403363 4.5000000000000009 0.20881782945736435 0.078980198545415978 0.47641145248912192 0.45515665161504226 0.65176331107507623 3.5000000000000004 4.5000000000000009 -0.63220991877357335 0.1829376597495993 0.082443489945769569 1.0000000180025095e-35 -1.1879550904452525 -0.13285305668786548 -0.40131255249489561 -1.4155796421423794 -1.0644008923188018 4.5000000000000009 0.041646631763402789 0.39444444444444454 1.5000000000000002 0.28443779108449774 0.11381126680591336 -1.1842640142502434 3.5000000000000004 -1.2223643498975059
decision_type=2 2 2 2 2 2 2 2 2 2 2 2 2 2 2 2 2 2 2 2 2 2 2 2 2 2 2 2 2 2
left_child=2 3 -1 4 6 9 -2 11 15 10 17 12 -4 20 -14 28 25 21 -19 -6 -8 22 -3 -7 -22 -12 -21 -28 29 -5
right_child=1 5 7 8 19 23 13 -9 -10 -11 16 -13 14 -15 -16 -17 -18 18 -20 26 24 -23 -24 -25 -26 -27 27 -29 -30 -31
leaf_value=-0.048771171862438525 0.0066213368508332045 0.00047228521993833753 0.0087157620525762924 0.17351881968228305 0.02920618339404607 0.037233528134741199 0.074226658266951628 -0.034193557362045962 -0.023442001932277981 -0.0047655320702566376 0.046086714975786779 -0.027388785228953355 -0.021335230381722331 0.019511762878480193 -0.00042962921492711653 -0.0070085468467795163 0.0018331846946275741 0.053188132291194561 0.015229645440222149 -0.014249864615198069 0.058399138194131575 0.0074712069392181713 0.044479944136509152 0.072799823765848815 0.016178542000029494 0.016480054137560395 0.22688789980649676 0.018984939960196755 5.795551567872611e-05 0.028045144377358916
leaf_weight=1015.2240836806595 1231.8128096237779 30.554682154208422 269.22301234677434 2.6144056580960742 45.42973855137825 774.37717700749636 52.095812931656837 446.1640992462635 428.69629333913326 175.90271543711424 82.731268588453531 378.06153907254338 548.04784487560391 639.18345430493355 352.12515157088637 459.72902841120958 351.60656466335058 68.384860403835773 405.42713441699743 473.97511386871338 50.645409870892763 54.73407993465662 482.5120633020997 45.651421874761581 69.134318593889475 204.28870132938027 1.6019849516451383 23.306198265403509 91.335752636194229 123.35816561058164
leaf_count=27221 16575 309 4239 29 626 5478 560 9500 7607 2041 846 7374 10271 7332 5662 6803 3898 652 4131 7571 603 505 4093 251 928 2045 24 351 1346 1490
internal_value=8.6804e-05 0.0134141 -0.0281243 0.00395259 0.009257 0.0264704 0.0139856 -0.0176102 -0.00845863 0.0208406 0.0235212 -0.0128289 -0.00812174 0.0251703 -0.0131575 0.00102876 0.0122514 0.0304309 0.0207082 -0.00849018 0.0462139 0.0385443 0.0418592 0.0392135 0.0340303 0.0250139 -0.0119229 0.0323563 0.0180322 0.0310643
internal_weight=9377.93 6369.09 3008.85 3692.92 2587.18 2676.17 2042.87 1993.62 1105.73 1856.14 1680.24 1547.46 1169.4 811.059 900.173 677.037 638.627 1041.61 473.812 544.313 171.876 567.801 513.067 820.029 119.78 287.02 498.883 24.9082 217.308 125.973
internal_count=140361 76094 64267 51845 34570 24249 25998 37046 17275 18520 16479 27546 20172 9423 15933 9668 6789 9690 4783 8572 2091 4907 4402 5729 1531 2891 7946 375 2865 1519
is_linear=0
shrinkage=0.05


Tree=15
num_leaves=31
num_cat=0
split_feature=6 6 8 8 8 6 6 15 16 26 7 8 21 12 24 12 24 12 29 2 14 15 27 15 22 15 12 24 29 12
split_gain=1278.63 313.851 259.452 126.784 123.375 101.86 86.886 49.8507 48.8197 44.6265 43.4457 36.1417 36.1054 71.0081 34.4799 44.4085 45.6021 32.513 31.0417 25.5288 25.3507 25.1556 25.0899 24.5188 24.5002 24.025 21.9293 28.8038 26.2461 20.9951
threshold=0.060606060606060615 0.020876917712691779 2.5000000000000004 1.5000000000000002 4.5000000000000009 0.14620443957248572 0.10106684825785948 4.5000000000000009 451.00000000000006 -1.1037835763099459 1.0000000180025095e-35 6.5000000000000009 -1.0000000180025095e-35 1.5000000000000002 -0.51544066400098443 3.5000000000000004 -1.4155796421423794 2.5000000000000004 1.0000000180025095e-35 0.067390603667126639 1.5000000000000002 5.5000000000000009 -0.25946671728632204 4.5000000000000009 -1.7769279643639315 5.5000000000000009 2.5000000000000004 0.21550981002305009 -1.2084778923133863 1.5000000000000002
decision_type=2 2 2 2 2 2 2 2 2 2 2 2 2 2 2 2 2 2 2 2 2 2 2 2 2 2 2 2 2 2
left_child=1 -1 3 5 12 9 11 8 -5 17 19 23 13 22 15 16 -7 -2 29 -8 -21 -12 -3 -4 -14 -15 27 28 -11 -10
right_child=2 4 6 7 -6 14 10 -9 18 26 21 -13 24 25 -16 -17 -18 -19 -20 20 -22 -23 -24 -25 -26 -27 -28 -29 -30 -31
leaf_value=-0.04812714783897911 0.044891576321133581 0.0098498128572676921 -0.0014563023757359636 0.019798432139419807 -0.033477377877657477 0.19708774866772266 0.0051120834942606844 0.013789214466927855 0.060465165931979703 0.076960281079858806 0.0046398547509620544 -0.030250152039595829 0.25978915835332095 -0.0050723284084873144 0.018359718980706253 0.021105390273334874 0.047434017110012078 0.013275051422257506 0.030479374402525763 0.05043497162880814 0.014566333188337516 -0.02910141649941039 0.04594550961771441 -0.023018030330210295 -0.017316288489153862 -0.028966705871882215 -0.0096695141385449851 -0.022330658661946237 0.0077032527378863187 0.039834939104438673
leaf_weight=1008.391454976052 98.529417756944895 117.13136208057404 512.25185315683484 246.57359230518341 651.62180030345917 5.1903756186366072 112.89052349328995 241.24040294438601 312.1836966201663 13.944240946322678 629.73850743845105 220.75160793587565 0.79859783500432868 751.40241695567966 562.72897055000067 251.61760146915913 264.20864405483007 465.40626150742173 237.73733204230666 113.29839380085468 87.154061213135719 60.551296357065439 81.737857587635517 177.54586829990149 681.52695968747139 122.32483350858092 313.24576127156615 81.392772797495127 721.14484694227576 203.85524076595902
leaf_count=28079 947 1492 7549 2188 15206 33 1390 3006 2452 158 7471 4601 14 12168 4501 2011 1919 5466 2125 1211 954 828 1046 3012 12099 2248 4001 1034 8973 1959
internal_value=-0.000336236 -0.0247106 0.0136928 0.0209087 -0.0148986 0.0149711 -0.00145751 0.034191 0.039111 0.00731152 0.00868902 -0.0126413 -0.0080001 -0.00227998 0.0269413 0.0362098 0.0503173 0.018799 0.0454284 0.0241295 0.0348398 0.00168012 0.0246856 -0.00700604 -0.016992 -0.00841762 0.00157722 0.00589206 0.00901702 0.0523154
internal_weight=9348.12 3414.94 5933.18 4019 2406.54 2777.41 1914.18 1241.59 1000.35 1693.66 1003.63 910.549 1754.92 1072.6 1083.75 521.017 269.399 563.936 753.776 313.343 200.452 690.29 198.869 689.798 682.326 873.727 1129.73 816.482 735.089 516.039
internal_count=140141 72352 67789 40773 44273 29043 27016 11730 8724 20579 11854 15162 29067 16954 8464 3963 1952 6413 6536 3555 2165 8299 2538 10561 12113 14416 14166 10165 9131 4411
is_linear=0
shrinkage=0.05


Tree=16
num_leaves=31
num_cat=0
split_feature=6 6 6 8 15 8 6 3 16 5 3 8 3 28 15 16 7 28 28 26 21 20 6 5 3 29 28 15 28 12
split_gain=1169.41 295.07 206.346 180.132 79.0662 69.1763 60.5262 52.6157 45.1675 34.4892 31.7789 30.7848 30.7587 30.108 30.5552 26.2207 24.2677 22.986 22.5662 21.4454 21.0653 20.0507 19.8019 21.0384 19.1679 19.9815 19.0629 21.1192 19.0527 19.2948
threshold=0.048681741878147548 0.10714285714285719 0.020876917712691779 3.5000000000000004 5.5000000000000009 5.5000000000000009 0.18490028490028498 0.067821300841753168 455.00000000000006 0.22546875642014821 0.090425434045027356 6.5000000000000009 0.074047408063801542 1.1039149738319072 3.5000000000000004 511.00000000000006 1.0000000180025095e-35 0.33585933029675558 -0.46124175555111663 -0.45813404645680689 0.79253903463914521 92.500000000000014 0.39444444444444454 0.36674016834150119 0.043279249838513334 -0.90485154239868193 -0.66190800070068623 4.5000000000000009 -1.0296186399502634 1.5000000000000002
decision_type=2 2 2 2 2 2 2 2 2 2 2 2 2 2 2 2 2 2 2 2 2 2 2 2 2 2 2 2 2 2
left_child=2 3 -1 7 6 10 8 28 20 13 26 -5 -10 14 19 16 -14 22 -11 -9 -3 -16 23 -8 -25 -26 27 -4 29 -2
right_child=1 4 5 11 -6 -7 17 9 12 18 -12 -13 15 -15 21 -17 -18 -19 -20 -21 -22 -23 -24 24 25 -27 -28 -29 -30 -31
leaf_value=-0.047861622970527651 0.077059164143903541 0.0088577573698037631 0.0061406021263002855 -0.012002147617813598 -0.011454443245264812 -0.038253286206541573 0.04511838601860526 0.044030270913102021 0.014512039945617256 0.015293410110437333 0.00018121343731936085 -0.03093640194159605 0.035735636815710424 -0.017109865779560817 0.017730022550017648 0.049257969552328508 0.017458495834028667 0.012140332255089516 -0.002232717511841151 0.019775968281934751 -0.022346068986217441 -0.016541206950813774 0.069017980042288013 -0.010212834474832025 0.048243527073048666 0.025590594026842484 -0.022536801273380522 -0.0252920186177727 -0.0046101754584188014 0.0092077629281936968
leaf_weight=964.39992304518819 11.218294061720369 494.87645636871457 143.45571963489056 594.76357121765614 181.15205849334598 336.32219088450074 270.54277156293392 205.86950154229999 752.26746960356832 330.23822453990579 346.42761925235391 335.92297641560435 301.77042089775205 48.451322626322508 242.3806379288435 127.32393101602793 456.12910209223628 123.77001479268074 413.80959811061621 163.53163635730743 60.723744619637728 51.799404457211494 41.083304822444916 30.573570288717747 123.61257831007242 458.12553571164608 599.69062071293592 85.163000784814358 874.40092610567808 158.69041022285819
leaf_count=28079 110 5051 2273 10863 2135 8242 2053 2189 8227 3684 5728 7421 2684 695 3259 1210 4445 998 5065 1973 769 754 212 219 813 3080 11356 1666 12697 2191
internal_value=-0.000336718 0.0103031 -0.0297919 -5.81582e-05 0.020692 -0.0182592 0.0224889 0.00693138 0.017766 0.0130739 -0.012535 -0.0188363 0.0219457 0.0209402 0.0237184 0.0282629 0.0247358 0.032375 0.00554608 0.033293 0.00544737 0.0116955 0.0350856 0.0335066 0.028376 0.0304041 -0.0178534 -0.0055684 -0.00163312 0.0136877
internal_weight=9328.49 6853.03 2475.46 3431.08 3421.95 1511.06 3240.8 2500.39 2193.09 1456.08 1174.74 930.687 1637.49 712.033 663.581 885.223 757.9 1047.71 744.048 369.401 555.6 294.18 923.938 882.854 612.312 581.738 828.309 228.619 1044.31 169.909
internal_count=140141 82797 57344 50901 31896 29265 29761 32617 22386 17619 21023 18284 16566 8870 8175 8339 7129 7375 8749 4162 5820 4013 6377 6165 4112 3893 15295 3939 14998 2301
is_linear=0
shrinkage=0.05


Tree=17
num_leaves=31
num_cat=0
split_feature=6 6 8 6 8 8 3 8 24 12 27 24 5 29 8 27 8 7 29 12 26 7 29 21 12 25 5 5 26 22
split_gain=1077.24 310.132 161.278 152.591 79.0455 67.7237 55.5396 54.6508 39.9824 59.6297 39.0586 36.5783 34.0881 28.9975 28.3814 31.6495 28.1989 26.416 25.8422 26.448 24.8445 24.0136 29.5056 21.8199 24.672 34.2149 21.4462 19.8658 19.883 19.3739
threshold=0.041712454212454238 0.099382716049382744 3.5000000000000004 0.01065722722798516 2.5000000000000004 1.5000000000000002 0.08169947516903342 3.5000000000000004 -0.48428006189112099 3.5000000000000004 0.024683255481959602 -1.4155796421423794 0.22656652291452115 0.039200278383646613 6.5000000000000009 -1.0000000180025095e-35 6.5000000000000009 1.0000000180025095e-35 0.687604457203291 2.5000000000000004 -1.7208365120444147 1.0000000180025095e-35 -0.66734532315551598 -0.22517174140498442 2.5000000000000004 -0.7735349415147238 0.11608320768940823 0.089483923817325436 0.29022805582088973 -0.92179229881946512
decision_type=2 2 2 2 2 2 2 2 2 2 2 2 2 2 2 2 2 2 2 2 2 2 2 2 2 2 2 2 2 2
left_child=3 2 6 -1 5 8 21 23 9 11 14 -3 17 -10 15 -6 -4 -8 19 26 -11 22 -2 24 25 29 -7 28 -17 -5
right_child=1 4 16 7 10 18 12 -9 13 20 -12 -13 -14 -15 -16 27 -18 -19 -20 -21 -22 -23 -24 -25 -26 -27 -28 -29 -30 -31
leaf_value=-0.051044372431961818 0.022841390892773206 0.14581211631905219 -0.013011875080364594 0.047791820159649626 0.007881979492469238 0.1058396005315355 0.030677354201128139 -0.035020983581450497 0.014743775397913137 0.029939496536566607 -0.0091458430889602652 0.035270275971439981 0.002776947616251971 -0.0068897618576281008 -0.0065881889634374401 0.24416517261887113 -0.030605425541772886 0.010273123115115211 0.0048145051085118915 0.018674239348798964 0.0036344963006614047 -0.0096706017388497184 -0.001434962208895866 -0.022496668926843832 -0.017913431018025876 0.0033977803521727367 0.040160402013255998 0.028930313953123767 0.032161396281397879 0.22126089455072645
leaf_weight=734.51906564831734 158.33007507771254 7.6017560958862296 617.23422206938267 3.9313843250274658 367.93837457150221 12.681804947555063 312.93838360160589 507.85382584109902 809.45823728665709 127.75537671893835 284.1797129586339 481.44496138766408 489.79707405343652 191.55394012853503 155.71394018083811 2.1634168177843085 360.93432352691889 321.67364104092121 68.086606584489346 159.05925526469946 301.83338215202093 612.4603014960885 597.50634563341737 366.34352792054415 194.50562154501677 181.56706810370088 623.43496126681566 251.46510804072022 2.2625939436256886 2.7254148386418811
leaf_count=22796 2193 47 11814 61 4049 105 3686 12569 7450 1084 3501 3845 5849 1769 2328 24 8461 4281 567 1570 2810 8896 8893 7306 3659 3102 4765 2593 25 43
internal_value=-0.000335026 0.00853812 -0.00229822 -0.0329392 0.0183159 0.0227472 0.00445342 -0.0223589 0.0175166 0.0250492 0.00672272 0.0369885 0.0126865 0.010604 0.0125075 0.017274 -0.0195037 0.0203348 0.0343786 0.03691 0.0114573 -0.0023122 0.00365037 -0.0137743 -0.0054253 0.00747961 0.0414698 0.0307786 0.135788 0.118813
internal_weight=9308.95 7317.51 3470.87 1991.45 3846.63 2782.91 2492.71 1256.93 1919.65 918.635 1063.72 489.047 1124.41 1001.01 779.543 623.829 978.169 634.612 863.263 795.176 429.589 1368.3 755.836 749.073 382.729 188.224 636.117 255.891 4.42601 6.6568
internal_count=140141 90605 54073 49536 36532 24012 33798 26740 17005 7786 12520 3892 13816 9219 9019 6691 20275 7967 7007 6440 3894 19982 11086 14171 6865 3206 4870 2642 49 104
is_linear=0
shrinkage=0.05


Tree=18
num_leaves=31
num_cat=0
split_feature=6 6 8 6 15 3 8 28 3 28 15 5 12 12 26 6 15 28 12 26 12 16 17 24 5 8 13 16 12 8
split_gain=996.358 276.941 167.545 152.619 66.9553 54.8264 52.7402 52.7171 41.5347 37.5585 34.3805 29.8626 31.9448 29.4556 22.9909 22.8904 21.9128 35.2211 25.2952 24.6482 24.5996 22.5071 26.6619 21.6851 21.6817 21.5856 21.2269 23.8451 20.9416 20.9289
threshold=0.041712454212454238 0.10714285714285719 4.5000000000000009 0.01065722722798516 5.5000000000000009 0.08169947516903342 3.5000000000000004 -0.54430967903583671 0.085749299719888039 0.39322452676051406 2.5000000000000004 0.26007018708360996 1.5000000000000002 1.5000000000000002 -1.2773771937027638 0.16024691358024695 4.5000000000000009 -0.023266075344455312 1.5000000000000002 -0.9688890926249617 2.5000000000000004 491.00000000000006 1.5000000000000002 -0.026857462142586958 0.042061034940291918 2.5000000000000004 1250.0000000000002 511.00000000000006 1.0000000180025095e-35 2.5000000000000004
decision_type=2 2 2 2 2 2 2 2 2 2 2 2 2 2 2 2 2 2 2 2 2 2 2 2 2 2 2 2 2 2
left_child=3 2 5 -1 7 16 -5 11 10 13 -9 25 -13 23 -15 -12 17 18 21 20 -20 -2 -23 -7 -16 -3 -10 -28 -19 -14
right_child=1 4 -4 6 -6 9 -8 8 26 -11 15 12 29 14 24 -17 -18 28 19 -21 -22 22 -24 -25 -26 -27 27 -29 -30 -31
leaf_value=-0.050925255679656445 0.015461745516733509 0.052437892285533222 -0.022773669887270642 -0.013257650896911197 -0.011420584142259485 0.044688731994384043 -0.034382419951269921 0.021882715478293027 0.039322739261784791 -0.0043933745321194364 -0.0035597359264433999 0.041512215126853276 0.022245894951327727 0.023611449084973292 0.088302088174277871 0.012842828534967085 -0.013143365222919562 0.0013544818725642086 0.03399891656148487 -0.0082840430149542701 0.0012147947530970541 0.098128202349514942 0.0098414173339217183 0.017688085016483595 0.0036833137893445868 0.018747649088408057 0.015859586305840934 0.04486355857608311 -0.01699458436549629 -0.0047103253993706264
leaf_weight=700.2893608789891 183.75380743667483 179.31530994921923 730.23351428285241 740.00629726052284 180.9479709006846 124.48118339106441 491.83155794814229 365.59869122505188 169.24305784329772 303.50386894494295 487.68848482146859 209.37955824285746 748.06233506649733 230.98136001080275 7.6758439876139155 377.22449486702681 359.13092055171728 305.21884227544069 92.298099651932716 269.7318407073617 150.55266712978482 19.472837291657925 15.247185129672287 184.69536144286394 549.38685185834765 64.698086608201265 572.06386956200004 80.882932975888252 316.99326798319817 79.675415482372046
leaf_count=22796 2198 1485 16428 14171 2135 1059 12569 3444 1530 4242 5606 1471 5849 2721 100 3111 5953 4742 1106 3858 1899 222 179 2036 7077 741 4984 693 4889 847
internal_value=-0.000333141 0.00805755 -0.00121872 -0.0322875 0.018201 0.00383734 -0.0216921 0.0198088 0.0148416 0.0111739 0.00902785 0.0277674 0.0240646 0.01548 0.0103486 0.0035941 -0.00216389 0.000749846 0.00819157 0.00211957 0.0136748 0.0224377 0.0593573 0.0285591 0.00484929 0.0435052 0.0235426 0.0194524 -0.00799367 0.0196512
internal_weight=9290.26 7358.14 3843.36 1932.13 3514.78 3113.12 1231.84 3333.83 2052.7 1400.72 1230.51 1281.13 1037.12 1097.22 788.044 864.913 1712.4 1353.27 731.056 512.583 242.851 218.474 34.72 309.177 557.063 244.013 822.19 652.947 622.212 827.738
internal_count=140141 90605 58709 49536 31896 42281 26740 29761 19368 17235 12161 10393 8167 12993 9898 8717 25046 19093 9462 6863 3005 2599 401 3095 7177 2226 7207 5677 9631 6696
is_linear=0
shrinkage=0.05


Tree=19
num_leaves=31
num_cat=0
split_feature=6 8 6 6 15 28 8 6 12 26 12 24 28 21 12 15 24 8 12 21 2 28 16 15 29 17 16 24 4 28
split_gain=921.314 246.615 152.534 152.191 71.753 64.5945 51.6288 47.9419 42.3006 55.1048 43.8476 28.0918 27.1445 25.2678 25.8201 25.0969 24.9289 34.1616 26.5633 25.6833 24.453 24.1872 22.2797 20.8034 19.6105 25.0196 21.1362 19.8366 19.554 24.5616
threshold=0.041712454212454238 4.5000000000000009 0.01065722722798516 0.15235814296241715 4.5000000000000009 -0.0074729117702611427 5.5000000000000009 0.10626411506002616 1.5000000000000002 -0.80449960624829642 2.5000000000000004 -1.5192391572356734 1.4179438302963723 -0.20514153744413713 2.5000000000000004 5.5000000000000009 0.46688027119227243 1.5000000000000002 1.0000000180025095e-35 -0.54383275603962689 0.069398959738008109 -0.86899540190389479 437.00000000000006 5.5000000000000009 0.32478320352836293 4.5000000000000009 501.00000000000006 -0.66436086151258167 14.500000000000002 -0.4191909522354183
decision_type=2 2 2 2 2 2 2 2 2 2 2 2 2 2 2 2 2 2 2 2 2 2 2 2 2 2 2 2 2 2
left_child=2 3 -1 4 5 8 13 -3 22 10 28 -6 15 14 -4 21 17 18 -7 -20 -12 -5 -2 -13 25 26 27 -24 29 -10
right_child=1 7 6 12 11 16 -8 -9 9 -11 20 23 -14 -15 -16 -17 -18 -19 19 -21 -22 -23 24 -25 -26 -27 -28 -29 -30 -31
leaf_value=-0.050808934042040094 0.0038957950845360865 -0.022224946555056552 0.0044680427109629562 0.035821235730436045 0.032060524921664259 0.0067398582176934757 -0.039646736298875745 0.00045366968060852263 0.17689544771765597 -0.0027665819964351871 -0.0056564397984279029 -0.0030359556351154354 -0.027488157434116631 -0.02353558478620759 -0.019230058304014714 -0.0028292538494931398 -0.013881660949259814 0.015325320475984901 0.013939588504752241 -0.017423096978502826 0.015797022071528402 0.022147766843999928 0.093371953463371127 -0.020123613964075457 0.011437836753970702 0.0078188549390198273 0.071543462672361488 0.032424792246100044 0.027571671323689751 0.0083146857474885507
leaf_weight=667.62258095666766 101.67145805060863 708.57187372073531 237.66747954301536 434.76654552668333 43.685688763856888 436.71237559616566 284.61849335022271 347.23355261236429 4.9271329194307327 528.73958066478372 207.2358596175909 497.91412511840463 25.615450605750084 463.06424313038588 222.58572991192341 81.053432874381542 225.89213423058391 445.2699160091579 81.90723741799593 321.51639560610056 369.91324710473418 1262.8574650734663 13.959054961800573 277.32708164304495 120.20210158824921 74.515836052596569 45.377431858330965 306.27149525657296 428.49268406257033 3.8480887971818429
leaf_count=22796 1037 16309 4342 2882 565 6110 7933 4785 52 6723 2403 7322 217 9992 4473 747 3137 5263 946 4528 3893 9355 105 4480 1223 703 409 2961 4409 41
internal_value=-0.000330351 0.0076073 -0.0316291 0.0113334 0.00644712 0.00939929 -0.0210285 -0.0147664 0.0148564 0.0103206 0.017142 -0.00695042 0.0236158 -0.0152893 -0.00699273 0.0243518 0.00143682 0.00412883 -0.00180528 -0.0110555 0.00809377 0.0256496 0.0254294 -0.00914872 0.0293367 0.0342251 0.039607 0.0350815 0.0290848 0.10297
internal_weight=9271.04 7395.48 1875.56 6339.67 4535.38 3716.45 1207.94 1055.81 2205.15 1543.16 1014.42 818.927 1804.29 923.317 460.253 1778.68 1511.3 1285.41 840.136 403.424 577.149 1697.62 661.997 775.241 560.326 440.124 365.608 320.231 437.268 8.77522
internal_count=140141 90605 49536 69511 56310 43943 26740 21094 23959 17521 10798 12367 13201 18807 8815 12984 19984 16847 11584 5474 6296 12237 6438 11802 5401 4178 3475 3066 4502 93
is_linear=0
shrinkage=0.05


Tree=20
num_leaves=31
num_cat=0
split_feature=6 6 8 6 3 12 8 28 24 7 12 8 24 5 29 24 12 24 16 13 9 1 12 3 29 1 16 5 12 28
split_gain=812.803 245.121 147.857 135.741 54.3993 55.969 51.5729 44.2761 38.676 36.5352 36.3953 35.2691 33.2382 34.8717 31.8321 28.201 32.6264 27.3416 26.5657 24.2688 23.6771 23.4953 23.0859 23.0668 20.8789 19.8785 19.5826 19.3645 19.2825 27.9811
threshold=0.038034960819770959 0.11639196206818703 3.5000000000000004 0.012739370334307047 0.052209903773584677 1.5000000000000002 2.5000000000000004 -0.48488352834487053 0.23489374501515806 1.0000000180025095e-35 3.5000000000000004 6.5000000000000009 0.47831532470837573 0.16656614394853239 -0.41431326877456448 -0.33170589213406132 2.5000000000000004 -1.0660569094206449 481.00000000000006 1850.0000000000002 2.5000000000000004 1.5000000000000002 2.5000000000000004 0.09496541528063783 -1.3813272575205577 1.0000000180025095e-35 455.00000000000006 0.13339264531435352 1.5000000000000002 -0.67991971384512029
decision_type=2 2 2 2 2 2 2 2 2 2 2 2 2 2 2 2 2 2 2 2 2 2 2 2 2 2 2 2 2 2
left_child=3 2 4 -1 -2 12 10 22 23 -8 14 28 13 18 19 16 27 25 -6 21 -15 -3 -7 -5 -19 -12 -16 -9 29 -4
right_child=1 6 11 8 5 7 9 15 -10 -11 17 -13 -14 20 26 -17 -18 24 -20 -21 -22 -23 -24 -25 -26 -27 -28 -29 -30 -31
leaf_value=-0.050286686199268675 -0.0062182421013849349 0.036900013026137324 0.042328700795139625 -0.018538404536289771 0.037020446462497143 0.02227094988323795 0.021584745474350242 0.059447546957008324 -0.035251314642395663 -0.0011410425656629996 0.049274479627937302 -0.027851981878417843 -5.089543228608874e-05 -0.0087613905520919737 0.007569609750320578 -0.014147323690147788 -0.0072313048972811825 0.040208472643624385 0.093756342844242002 0.04836766348280673 0.025163709908865434 0.0159630649110067 0.0051511158942378048 0.0047922269058925295 -0.0055318420262064297 0.014053964854369478 0.022634646854762578 0.012909842662372377 -0.01833553431683525 -0.006258765632999686
leaf_weight=666.18704977072775 899.33481435477734 282.87930747866631 32.210282295942307 464.57251027785242 75.038598079234362 323.93779133632779 259.61923338100314 25.306964233517647 297.68717036396265 554.75158776715398 51.327291131019592 425.76931728422642 150.2143012881279 60.456911709159613 289.92054335027933 396.21016513556242 293.63548056408763 27.566370837390423 28.456369534134865 176.14325664937496 344.50256007537246 254.59704777598381 502.20399101451039 137.24036606959999 262.73801546171308 182.52959854900837 842.71914903074503 191.50234919041395 356.77488274127245 370.13234627991915
leaf_count=23770 13423 2043 519 10250 770 3768 2635 327 7706 6137 406 10443 1803 578 2283 5842 4149 226 284 1268 3320 2003 6469 2667 2314 1504 6544 2387 7052 7065
internal_value=-0.000352932 0.00635636 -0.00118836 -0.0331796 0.0042648 0.00820706 0.0169592 0.00349108 -0.0205098 0.00610388 0.0206886 -0.0163335 0.0206136 0.0267186 0.0239897 -0.00413827 0.00363082 0.00906089 0.0526202 0.0322609 0.020099 0.0269824 0.011864 -0.013218 -0.00118849 0.0217842 0.0187785 0.0183419 -0.00987306 -0.00236901
internal_weight=9226.17 7660.48 4475.69 1565.69 3290.8 2391.47 3184.79 1732.8 899.5 814.371 2370.42 1184.89 658.669 508.454 1846.26 906.655 510.445 524.161 103.495 713.62 404.959 537.476 826.142 601.813 290.304 233.857 1132.64 216.809 759.118 402.343
internal_count=139955 95562 68199 44393 43120 29697 27363 22942 20623 8772 18591 25079 6755 4952 14141 12705 6863 4450 1054 5314 3898 4046 10237 12917 2540 1910 8827 2714 14636 7584
is_linear=0
shrinkage=0.05


Tree=21
num_leaves=31
num_cat=0
split_feature=6 6 8 6 8 3 12 28 22 7 12 8 24 27 24 6 24 3 12 24 20 16 24 0 8 28 26 28 15 28
split_gain=758.146 252.1 129.213 93.7123 80.0986 54.232 46.3432 38.8309 36.8457 35.197 34.3344 30.8715 28.6441 26.5109 26.4535 25.939 25.4836 27.0283 24.7807 24.8234 24.1303 23.8445 23.1439 23.0231 22.2769 20.8924 20.3829 20.1282 20.0221 20.5646
threshold=0.033223126136990792 0.089358304297328703 3.5000000000000004 0.011904761904761913 2.5000000000000004 0.099290902863187161 3.5000000000000004 -0.63220991877357335 -0.98744982870914555 1.0000000180025095e-35 2.5000000000000004 1.5000000000000002 -1.0660569094206449 -1.2918245646431992 0.12082909580893648 0.39444444444444454 0.23489374501515806 0.042988270449345299 1.5000000000000002 -1.3059024028826343 97.500000000000014 449.00000000000006 -0.28531286955626239 1.0000000180025095e-35 6.5000000000000009 -1.0667571737724064 -1.7208365120444147 -1.1998812445006128 3.5000000000000004 0.60043573980444498
decision_type=2 2 2 2 2 2 2 2 2 2 2 2 2 2 2 2 2 2 2 2 2 2 2 2 2 2 2 2 2 2
left_child=3 2 5 -1 6 7 8 10 -3 -6 -2 15 13 -8 -5 16 17 -10 22 26 -9 -13 -7 -11 -4 -14 -20 -19 29 -25
right_child=1 4 24 14 9 18 12 20 11 23 -12 21 25 -15 -16 -17 -18 27 19 -21 -22 -23 -24 28 -26 -27 -28 -29 -30 -31
leaf_value=-0.050446083253771014 0.020505980804790103 0.036365260279034875 -0.013986917171852171 -0.014820095319116891 0.014578492958111833 0.078004745614004112 0.10094710651318864 -0.0045849813939377662 -0.023551970665504199 0.015551751453723832 -0.0026015325332524762 0.0096795734237358853 0.016904825121766585 0.014913543679023129 -0.03620084828921049 0.070892664467157876 -0.011959940101601375 0.03982740439754693 0.029523339142428547 0.005732094706001863 -0.025938759779951137 0.030338681196963924 0.024670037821479834 0.0053797497554931677 -0.029320886083277004 -0.0098217398912652382 0.14313846049041098 0.014361722739666728 -0.01817278021709258 -0.020145041919707743
leaf_weight=622.25764685682952 296.20373438671231 323.89387022703886 632.75891055911779 381.80895351245999 403.7329826913774 24.322817698121071 9.2397601008415204 1256.835372261703 44.467345058917999 134.12124967575073 351.54104790464044 177.97184509038925 97.976912010461092 289.75967971608043 232.92721190862358 19.483220338821411 96.528792720288038 83.467795766890049 12.359003234654667 322.71976920217276 147.86269627138972 648.99337623640895 124.22414131090045 336.95550799369812 378.56060022115707 288.22734874114394 5.8002792932093135 1102.8878370001912 256.54158622026443 103.04184636473656
leaf_count=23339 3595 2505 13216 8808 4580 189 66 18915 436 1536 5142 1364 834 2541 6335 91 908 604 149 4372 2412 4943 1304 3909 10128 2890 73 9806 3465 1500
internal_value=-0.000347861 0.00530434 -0.00461043 -0.0367674 0.0132796 0.00140383 0.0174726 -0.00216256 0.0206326 0.00246803 0.00796518 0.0182884 0.00595364 0.0175722 -0.0229214 0.0136194 0.0127788 0.0147189 0.0163598 0.00893274 -0.00683274 0.0258926 0.033403 -0.00341812 -0.0197268 -0.00304143 0.0658133 0.0161534 -0.00707085 -0.000597835
internal_weight=9207.47 7970.48 3553.19 1236.99 4417.29 2541.87 3182.9 2052.44 2497.69 1234.39 647.745 2173.8 685.204 298.999 614.736 1346.83 1327.35 1230.82 489.426 340.879 1404.7 826.965 148.547 830.66 1011.32 386.204 18.1593 1186.36 696.539 439.997
internal_count=139955 101473 59495 38482 41978 36151 26988 30064 20657 14990 8737 18152 6331 2607 15143 11845 11754 10846 6087 4594 21327 6307 1493 10410 23344 3724 222 10410 8874 5409
is_linear=0
shrinkage=0.05


Tree=22
num_leaves=31
num_cat=0
split_feature=6 6 8 6 8 3 12 26 12 21 15 21 12 16 29 21 7 3 13 8 21 8 16 29 6 6 5 6 16 15
split_gain=707.104 236.085 121.953 79.9133 70.6825 52.7597 51.7008 45.674 40.6057 33.3499 32.2885 35.8927 32.1682 27.9853 28.8606 27.2834 27.1988 23.4087 22.692 22.483 21.3291 21.2424 20.9858 18.9781 19.0888 17.92 17.8939 18.8897 17.4379 17.3886
threshold=0.031320067264574009 0.089358304297328703 3.5000000000000004 0.011904761904761913 2.5000000000000004 0.051633300683761853 1.5000000000000002 -0.35416908029557387 3.5000000000000004 -0.61682961896423116 3.5000000000000004 0.66749624306313093 1.5000000000000002 453.00000000000006 0.046308130349403363 -0.12757192949866245 1.0000000180025095e-35 0.096640513826391314 2150.0000000000005 6.5000000000000009 -0.90430501970845889 5.5000000000000009 499.00000000000006 -0.98590574917674134 0.11098710317460313 0.37602459016393447 0.19438192017238157 0.055427547363031252 549.00000000000011 2.5000000000000004
decision_type=2 2 2 2 2 2 2 2 2 2 2 2 2 2 2 2 2 2 2 2 2 2 2 2 2 2 2 2 2 2
left_child=3 2 5 -1 8 -2 15 16 9 25 11 13 -11 -6 -15 29 26 28 -14 -4 22 -5 -10 24 -19 -3 27 -8 -12 -7
right_child=1 4 19 21 10 6 7 -9 20 12 17 -13 18 14 -16 -17 -18 23 -20 -21 -22 -23 -24 -25 -26 -27 -28 -29 -30 -31
leaf_value=-0.050329549877980044 -0.010670002144171187 0.026055409381866464 -0.013568566777024296 -0.017475110984129249 -0.00076554924863686817 0.061085672525084261 0.0084184452584932842 -0.024948622187300363 0.0050880845090858825 0.021336535289770434 -0.016282933235547151 -0.00746162627717628 0.0041778126965475648 0.033836198827338806 0.0057685373740696258 0.0082680229028982925 -0.0027929516149943039 0.20088960591436536 0.03289007788910648 -0.028873171131220721 -0.0054456942581419089 -0.040905426265029993 0.029136495265157172 0.0066797709349209356 0.034984205917189919 0.075564032032480605 0.0040392183504679305 0.037395038779945954 0.12452243141421415 0.02506634008311244
leaf_weight=593.24591633491218 699.29298256337643 876.32924748584628 642.16396918147802 383.70656518638134 189.23192417621613 40.200220450758934 112.46219208464026 158.73699249699712 289.34253872931004 911.50426792353392 320.36045273765922 259.1822461783886 648.25817029550672 231.596007745713 151.49834847077727 287.63828451931477 704.49031723663211 2.5425504669547072 76.986575517803431 383.13966981694102 266.41393295302987 129.34483218565583 132.15187803283334 74.388557694852352 5.4506709389388561 18.666773736476898 284.47346814349294 112.51046230271459 2.2140434943139544 201.23986101523042
leaf_count=23339 11562 6578 13649 9208 2106 353 1775 2596 2559 7347 4346 3502 6016 2323 1693 3625 10339 34 630 10572 2631 4025 1141 901 58 86 3748 1359 27 1827
internal_value=-0.000342198 0.00478934 -0.00468341 -0.0378325 0.0124982 0.00107342 0.00539159 0.000273382 0.0164006 0.0193275 0.00233659 0.00797522 0.015084 0.0149659 0.0227366 0.0186706 0.00357147 -0.00924137 0.00722569 -0.0192877 0.00562841 -0.0233821 0.012628 0.0145464 0.0877568 0.027088 0.0123725 0.0229099 -0.0153165 0.0310636
internal_weight=9188.76 8082.47 3626.35 1106.3 4456.12 2601.04 1901.75 1372.67 3219.65 2531.75 1236.46 831.509 1636.75 572.326 383.094 529.078 1213.94 404.956 725.245 1025.3 687.908 513.051 421.494 82.3818 7.99322 894.996 509.446 224.973 322.574 241.44
internal_count=139955 103383 61405 36572 41978 37184 25622 19817 26988 20657 14990 9624 13993 6122 4016 5805 17221 5366 6646 24221 6331 13233 3700 993 92 6664 6882 3134 4373 2180
is_linear=0
shrinkage=0.05


Tree=23
num_leaves=31
num_cat=0
split_feature=8 15 28 5 12 26 16 8 21 12 0 3 16 16 15 16 21 2 5 21 12 24 26 15 15 27 23 3 28 26
split_gain=368.931 112.693 117.668 61.7664 54.1267 64.1699 40.9896 36.4231 32.0201 30.8201 28.6266 28.4228 26.6975 24.926 33.2983 24.6554 24.6549 24.3374 20.7756 21.7208 20.7325 34.8319 22.6612 20.0213 19.6929 18.6212 20.4711 18.3488 17.3851 17.2487
threshold=4.5000000000000009 4.5000000000000009 -0.052171545291197698 0.24107900800388068 1.5000000000000002 -0.95183341176087433 455.00000000000006 2.5000000000000004 -0.65418676764528128 3.5000000000000004 1.0000000180025095e-35 0.069398959738008109 457.00000000000006 465.00000000000006 3.5000000000000004 449.00000000000006 -0.19120353386661001 0.089282918579992196 0.33310408069692804 -0.11468790335722297 1.5000000000000002 0.077101760121454962 -0.50923516793318424 2.5000000000000004 5.5000000000000009 1.0000000180025095e-35 0.14260005135617318 0.052209903773584677 -1.671580815346992 -0.15009271861845944
decision_type=2 2 2 2 2 2 2 2 2 2 2 2 2 2 2 2 2 2 2 2 2 2 2 2 2 2 2 2 2 2
left_child=1 2 4 17 7 9 18 15 24 12 16 -7 -6 -5 -15 -1 23 -2 19 -4 21 29 -22 -8 -3 26 28 -17 -9 -12
right_child=3 8 6 13 5 11 10 25 -10 -11 20 -13 -14 14 -16 27 -18 -19 -20 -21 22 -23 -24 -25 -26 -27 -28 -29 -30 -31
leaf_value=0.01320606013469384 -0.031724596229527426 0.0035639349455904483 0.0034818683520411384 -0.020344389922165501 0.0062653637111571153 -0.0092273088100160421 0.081515635545584789 0.16449959987018709 -0.018377274947445451 0.0050916417498514353 0.022613322056437287 0.006681103520212295 0.025585460279013539 0.018096080593817666 -0.022630952970530669 0.0081822118952784746 0.0050759076061439043 -0.013079981362503433 0.0064292233602420649 -0.018239396509381483 -0.0028296315180159916 -0.0049008630501165759 -0.02714542479967428 0.020434077781238652 -0.013009478377703885 -0.012251560581422741 0.0021679745548240019 0.040164869113750737 0.023822744272580285 0.092517357262753341
leaf_weight=153.02449757046998 949.75253156386316 486.44663820788264 145.22405779920518 163.66917636431754 235.32661329954863 476.32752184197307 14.527153111994265 2.2162522338330737 545.27615696191788 446.11655121482909 95.758477136492729 683.89182524755597 744.545056136325 157.88487531244755 73.575508132576942 50.657209735363722 804.26375213451684 214.57118001207709 156.30608482472599 554.69754707999527 268.90885437093675 265.93217765167356 148.85968828201294 175.34680652990937 283.80814180523157 68.186178738251328 161.56391487084329 390.88433325104415 242.7682308871299 9.7202815134078246
leaf_count=1372 27534 6923 1970 3036 2496 6805 130 19 9802 4734 993 7922 7322 2679 1473 504 11502 5946 1445 9833 3739 3806 2446 2006 4713 902 2088 2999 2698 118
internal_value=-0.000336338 0.00420344 0.00698482 -0.0224918 0.0127937 0.00888147 -0.00105985 0.0222557 -0.009106 0.0159857 0.00325755 0.000149912 0.0209455 -0.00541022 0.00514997 0.0305015 0.00890179 -0.0282886 -0.010052 -0.0137325 -0.00385256 0.0047425 -0.0114939 0.0251074 -0.00254271 0.0119285 0.0159839 0.0364956 0.0250954 0.0290553
internal_weight=9170.04 7610.58 6295.05 1559.45 3655.51 2586.21 2639.54 1069.3 1315.53 1425.99 1783.32 1160.22 979.872 395.13 231.46 594.566 994.138 1164.32 856.228 699.922 789.179 371.411 417.769 189.874 770.255 474.735 406.548 441.542 244.984 105.479
internal_count=139955 99287 77849 40668 39861 29279 37988 10582 21438 14552 24740 14727 9818 7188 4152 4875 13638 33480 13248 11803 11102 4917 6185 2136 11636 5707 4805 3503 2717 1111
is_linear=0
shrinkage=0.05


Tree=24
num_leaves=31
num_cat=0
split_feature=6 6 8 6 8 8 21 12 7 8 22 24 8 8 6 1 2 3 24 5 16 0 5 5 21 16 3 20 12 23
split_gain=646.397 204.08 96.6583 81.2099 62.6804 42.2829 44.5495 36.7851 33.9771 31.0091 29.6389 29.1289 26.7876 22.4188 21.5991 21.5273 20.8177 20.8033 21.0954 19.4971 19.2633 19.0814 19.7198 18.7429 21.5584 19.595 18.8991 18.0053 17.6498 17.3957
threshold=0.031320067264574009 0.082079496968335955 3.5000000000000004 0.0076923076923076997 2.5000000000000004 1.5000000000000002 -0.90430501970845889 3.5000000000000004 1.0000000180025095e-35 2.5000000000000004 -0.98744982870914555 -1.0660569094206449 1.5000000000000002 5.5000000000000009 0.39444444444444454 1.0000000180025095e-35 0.064167523020814604 0.042988270449345299 0.25516163354746141 0.24107900800388068 451.00000000000006 1.0000000180025095e-35 0.17752144139352441 0.18189137754355147 0.16342400599606541 469.00000000000006 0.1043283253334434 84.500000000000014 1.5000000000000002 -0.72053019454054368
decision_type=2 2 2 2 2 2 2 2 2 2 2 2 2 2 2 2 2 2 2 2 2 2 2 2 2 2 2 2 2 2
left_child=3 2 5 -1 7 6 -2 10 -6 23 -3 15 14 -5 17 -9 -4 -12 -19 27 -14 22 -10 24 25 -7 -25 -11 -22 -17
right_child=1 4 16 13 8 9 -8 11 21 19 12 -13 20 -15 -16 29 -18 18 -20 -21 28 -23 -24 26 -26 -27 -28 -29 -30 -31
leaf_value=-0.050974556744808358 0.0096335279885990874 0.030335146219776739 -0.027110953796753774 -0.017280497442230071 0.01286282487321796 0.016660092007156752 -0.011610926963603345 0.039487217956018582 0.052139849210564949 0.0082489464689125252 -0.020444219084208431 -0.0041530995313036794 0.0086168617845907066 -0.041031449912223968 0.062083257638324466 0.0049705114414739992 -0.011866000308197155 0.012924563153188122 -0.011462688077110428 -0.020905516439279015 0.031478196646643468 -0.0069248307344438546 0.0042718152500797113 0.0033075242461618605 -0.003812693567589483 0.050206286559826202 0.036077781642853565 -0.027479678920004465 0.015161010690834127 0.053290288329197112
leaf_weight=528.28407620824873 335.32990844547749 361.49698236212134 439.85914035700262 395.41642569564283 462.27523375675082 80.630968678742647 934.38145062327385 73.704636950045824 25.988752201199532 280.1855327039957 53.529785316437483 423.26408600434661 218.05544356256723 132.69809691049159 20.301382020115852 234.65578936040401 456.17439775168896 1334.5202049165964 94.986611228436232 106.90592507645488 458.82780167460442 771.75150910019875 125.00033493712544 296.16422811150551 45.630187809467316 94.608216021209955 51.67330938577652 40.338806495070457 259.42903603985906 20.23255667090416
leaf_count=22091 4402 2753 11291 9970 5423 992 15502 607 341 3922 554 4225 1688 4511 91 2119 10973 11847 931 1409 3040 10419 1433 3725 685 1253 558 691 2348 161
internal_value=-0.000327413 0.00447029 -0.00544792 -0.0371137 0.0108211 4.95581e-05 -0.00600028 0.0143382 0.0017985 0.00776089 0.016974 0.00451827 0.0149942 -0.0232483 0.0108594 0.0156879 -0.0193497 0.0101582 0.0113041 -0.00241486 0.021633 -0.00374452 0.012511 0.0154088 0.0267999 0.034771 0.00817574 0.00375241 0.0255846 0.00880604
internal_weight=9156.3 8099.9 3161.88 1056.4 4938.02 2265.85 1269.71 3553 1385.02 996.137 2801.15 751.857 2439.65 528.115 1503.34 328.593 896.034 1483.04 1429.51 427.43 936.312 922.741 150.989 568.707 220.869 175.239 347.838 320.524 718.257 254.888
internal_count=139955 103383 55403 36572 47980 33139 19904 30364 17616 13235 23252 7112 20499 14481 13423 2887 22264 13332 12778 6022 7076 12193 1774 7213 2930 2245 4283 4613 5388 2280
is_linear=0
shrinkage=0.05


Tree=25
num_leaves=31
num_cat=0
split_feature=6 8 6 6 15 8 5 6 15 29 28 5 28 26 12 22 2 21 6 15 28 18 3 6 12 25 4 15 6 29
split_gain=611.044 151.067 147.538 92.2227 56.6462 40.7718 36.2378 35.6684 29.4063 26.8885 25.4643 23.2387 25.0536 21.925 21.3162 22.4481 22.0866 20.8675 19.0923 18.6304 18.3899 22.2013 18.2698 19.5169 17.1665 19.3492 16.2711 16.2378 15.6257 18.815
threshold=0.041580221300138338 4.5000000000000009 0.01065722722798516 0.12477758007117441 5.5000000000000009 5.5000000000000009 0.16131743019788564 0.10526315789473689 4.5000000000000009 -0.60356487920815061 -0.74513534428531769 0.24227416313637146 -0.052171545291197698 -2.2255971104359822 2.5000000000000004 -1.5261270634204629 0.10254578050464494 -0.20514153744413713 0.27165775401069531 4.5000000000000009 -1.2177156467391237 7.5000000000000009 0.096033660172942722 0.048681741878147548 2.5000000000000004 0.72110408186312835 405.50000000000006 3.5000000000000004 0.074227119681665177 2.0024442685301729
decision_type=2 2 2 2 2 2 2 2 2 2 2 2 2 2 2 2 2 2 2 2 2 2 2 2 2 2 2 2 2 2
left_child=2 3 -1 4 6 17 9 -3 11 26 14 12 -5 -13 16 -16 -8 19 -15 -4 21 -19 23 -12 25 -9 -2 -25 -11 -30
right_child=1 7 5 8 -6 -7 10 24 -10 28 22 13 -14 18 15 -17 -18 20 -20 -21 -22 -23 -24 27 -26 -27 -28 -29 29 -31
leaf_value=-0.050618865025550713 0.03987023378152716 -0.019732403208850575 0.0018503126003414382 0.0408347675901162 -0.019820269966297419 -0.036889507595521828 0.015009476257428225 0.02114148248182264 0.0024796753835849201 0.0031237461535945032 -0.023713455710702089 0.076457077769635257 0.013569909451824753 0.012444550675393344 0.03633394490301111 -0.0020330663856200984 0.056760735617157193 0.0206957790810334 0.025265896238466125 -0.02061182901841678 -0.022302336669883308 0.2720542214957215 0.0062590561399750973 0.0015007145815928177 -0.02738282377955192 -0.0051847645762872659 -0.016332953060360648 -0.010612328719738237 0.019288043412040722 0.13310267560977904
leaf_weight=519.14940868876874 131.40905212983489 647.22610908560455 291.1647414509207 197.00142356753349 252.43457555025816 227.63236962072551 323.1904774941504 111.21469049155712 398.2958248257637 311.30409770831466 110.93150536343455 14.466941244900225 147.22324936836958 1662.9645694755018 42.847007185220718 345.90407004207373 35.117812413722277 4.7626122068613759 351.77737939357758 135.16625730879605 407.32866145856678 1.0771628469228742 700.54564687237144 983.30953074991703 48.743021588772535 187.40541721880436 14.276699934154747 384.99260558560491 176.20922853425145 3.7075766064226618
leaf_count=22775 1731 16604 5302 1421 4285 7604 3329 1483 3795 4768 1941 88 1269 12635 487 4225 323 101 1866 3182 9562 23 7821 12524 744 2604 198 5398 2035 45
internal_value=-0.00053597 0.00536787 -0.0287566 0.00811006 0.00306837 -0.0181208 0.00468966 -0.0127957 0.0150516 0.015498 0.00233767 0.0171613 0.0291737 0.0151236 0.0103041 0.00219563 0.0191015 -0.0130316 0.0146832 -0.0052712 -0.0210393 0.0670595 -0.000392616 -0.00354276 0.00012917 0.00461988 0.0343625 -0.00190747 0.00990319 0.0216334
internal_weight=9168.78 7582.5 1586.28 6587.91 3816.18 1067.13 3563.75 994.589 2771.73 636.907 2926.84 2373.43 344.225 2029.21 747.059 388.751 358.308 839.499 2014.74 426.331 413.168 5.83978 2179.78 1479.23 347.363 298.62 145.686 1368.3 491.221 179.917
internal_count=140168 91619 48549 70184 49110 25774 44825 21435 21074 8777 36048 17279 2690 14589 8364 4712 3652 18170 14501 8484 9686 124 27684 19863 4831 4087 1929 17922 6848 2080
is_linear=0
shrinkage=0.05


Tree=26
num_leaves=31
num_cat=0
split_feature=6 6 6 8 8 15 12 28 24 28 12 8 8 3 5 24 28 29 6 10 27 3 5 3 24 12 28 16 29 12
split_gain=568.298 165.961 97.1214 78.3784 54.2834 41.0386 40.3751 39.6021 33.1359 30.1747 31.5691 27.9674 27.5961 27.3513 26.7271 23.1066 21.1154 20.2651 21.7178 21.0653 18.9479 18.1786 18.1752 17.5424 20.3364 18.2112 20.1012 18.7455 17.5008 17.082
threshold=0.034464199547158646 0.082079496968335955 0.01065722722798516 4.5000000000000009 2.5000000000000004 4.5000000000000009 3.5000000000000004 -0.044237108509288428 -1.1009559374160287 -0.044237108509288428 1.5000000000000002 5.5000000000000009 1.5000000000000002 0.1043283253334434 0.12746175393234219 -1.0660569094206449 -1.671580815346992 -1.0523679776156285 0.095357741086384326 1.0000000180025095e-35 -1.2918245646431992 0.10127315107557219 0.15910994365768238 0.09496541528063783 0.1389117284094383 1.5000000000000002 -0.30936041755892896 455.00000000000006 -1.1240082980566237 1.5000000000000002
decision_type=2 2 2 2 2 2 2 2 2 2 2 2 2 2 2 2 2 2 2 2 2 2 2 2 2 2 2 2 2 2
left_child=2 3 -1 5 6 7 8 14 -3 10 16 23 17 -11 -2 20 -6 18 28 -19 -8 -9 -17 -4 25 26 27 -25 -10 -14
right_child=1 4 11 -5 9 -7 15 21 12 13 -12 -13 29 -15 -16 22 -18 19 -20 -21 -22 -23 -24 24 -26 -27 -28 -29 -30 -31
leaf_value=-0.050531197586934543 0.029998521182384032 0.041464818447039607 -0.020509905375224395 -0.021880935495592758 0.15629390701423485 -0.014815177019508411 0.074132541703447449 -0.0092816538726390296 0.099356620480882132 -0.011107934175826693 -0.0022708201551286016 -0.040249053714141565 0.02582377207387207 0.01800986098465102 0.0053556705169682146 0.04010010303469199 0.017018237131188635 0.01414157249931663 0.020538670051640052 0.0024163791887271539 0.010199674732044802 0.010235946921954134 -0.0074327672978922472 0.010406385852474094 -0.031397944265151981 0.0040972535662452021 0.025737099581895007 0.22357683578321261 -0.01811139997246666 0.012516602683034879
leaf_weight=494.66544710844755 123.86611470580101 118.89676099643111 356.46910739131272 569.0482566151768 2.7406995408236972 455.2278018668294 12.021910652518271 734.41286404430866 16.054320424795154 539.20184440165758 379.67857154458761 142.16840880550444 656.50605799257755 94.833888445049524 985.00680582225323 21.163316871970892 385.94310339167714 845.58580703288317 143.1194549575448 700.31242468208075 321.94377150386572 142.44092853367329 404.41276732087135 1.5557645373046387 33.34794838540256 70.413592526689172 10.088744319975374 3.0591994151473045 3.9510612562298766 381.18780742585659
leaf_count=22775 1644 801 8858 16147 21 8169 80 12340 173 7643 5010 5056 4345 1113 12437 234 3960 7368 1087 6153 2799 1895 4015 26 824 1544 185 48 43 3375
internal_value=-0.000519465 0.0041151 -0.0340251 -0.00517042 0.00967434 -0.00127477 0.0129058 0.00182937 0.0156224 0.00132114 0.00798353 -0.020794 0.0145038 -0.00675273 0.00810839 0.00265645 0.0180003 0.0105985 0.0273596 0.0088299 0.0125011 -0.00611111 -0.00506902 -0.0149703 0.00169886 0.0146658 0.0652768 0.151714 0.0761567 0.0209355
internal_weight=9149.32 8037.56 1111.77 3010 5027.55 2440.95 3625.16 1985.73 2865.61 1402.4 768.362 617.103 2746.72 634.036 1108.87 759.542 388.684 1709.02 163.125 1545.9 333.966 876.854 425.576 474.934 118.465 85.1173 14.7037 4.61496 20.0054 1037.69
internal_count=140168 100852 39316 52632 48220 36485 30473 28316 23345 17747 8991 16541 22544 8756 14081 7128 3981 14824 1303 13521 2879 14235 4249 11485 2627 1803 259 74 216 7720
is_linear=0
shrinkage=0.05


Tree=27
num_leaves=31
num_cat=0
split_feature=6 6 8 8 6 8 27 15 21 16 6 5 5 15 28 29 28 29 8 2 2 5 27 24 15 6 15 28 26 20
split_gain=529.4 176.312 70.349 67.9293 62.2159 43.7646 40.5166 40.2832 41.4339 34.6925 30.9216 26.6344 22.2509 23.0982 23.2098 22.007 21.2022 20.8451 19.9695 19.7186 19.6725 19.1554 32.9028 22.2489 18.738 17.85 17.2935 22.4228 26.1401 19.0845
threshold=0.027907580477673954 0.068181818181818218 2.5000000000000004 5.5000000000000009 0.01065722722798516 1.5000000000000002 1.0000000180025095e-35 4.5000000000000009 -0.12757192949866245 453.00000000000006 0.18230694037145653 0.18471903248068244 0.14274758983347943 3.5000000000000004 -0.57696901287680102 -0.85415682639618218 -0.96476149539981482 0.48080917017826014 8.5000000000000018 0.081080230964524033 0.1043283253334434 0.15794042397660821 1.670102108984715 0.12082909580893648 3.5000000000000004 0.15633729050279338 4.5000000000000009 -0.19455518193453805 -1.071868905538149 56.500000000000007
decision_type=2 2 2 2 2 2 2 2 2 2 2 2 2 2 2 2 2 2 2 2 2 2 2 2 2 2 2 2 2 2
left_child=4 3 5 7 -1 10 9 8 11 18 16 -2 15 17 -15 -7 19 -14 25 -3 26 22 -18 24 -23 -4 27 -11 29 -29
right_child=1 2 6 -5 -6 12 -8 -9 -10 20 -12 -13 13 14 -16 -17 21 -19 -20 -21 -22 23 -24 -25 -26 -27 -28 28 -30 -31
leaf_value=-0.050445106005908194 0.016147774579827235 0.0046872644984147158 -0.011181385479855244 -0.027856789771092901 -0.02291267202098065 0.11691643522188949 -0.012949552091523309 -0.018666141183684221 -0.0092859075564019362 0.020605672922225288 0.017075700263517169 -0.0015026715494882972 0.025951678459850986 0.019268219745653709 -0.0030223536802926644 0.035294591591290336 0.016979896928876474 0.0028288529764837196 -0.038592521215026071 0.025945451791723896 0.032363962805864274 0.0069778753821971053 0.2213975360748334 -0.018433617135730152 -0.0050647077296956554 0.016157845440874629 -0.0094426707652922083 0.045023387397777469 0.00027938663097512925 0.23952972151069898
leaf_weight=471.32321829721332 393.06573436409235 229.46867554634809 232.25210469588637 366.57752406597137 363.38619042560458 9.6287675090134126 475.21172465384007 403.22987382486463 793.45716995559633 297.61304217204452 703.22959391772747 468.46608466282487 683.80579239502549 245.50383321940899 222.72457807511091 58.019369442015886 143.52778629213572 113.67062414437532 48.641765065491199 207.93120547011495 85.850380826741457 904.98773786425591 1.995878543704747 136.91949868202209 502.30141156539321 80.362671889364719 130.79927479475737 3.9323723018169394 350.91766477376223 1.8564923591911791
leaf_count=22775 5564 2223 3388 11483 10800 91 6916 8107 14748 3211 4309 6322 4592 2273 2286 491 1633 852 1020 1739 1008 9230 29 1606 5527 708 2100 46 5069 22
internal_value=-0.000503388 0.00331557 0.00799997 -0.00802674 -0.038459 0.0115048 -0.000546868 -0.00449492 -0.00104217 0.00423627 0.00798644 0.00655018 0.0189734 0.0174802 0.00866515 0.0469123 0.00498153 0.0226558 -0.00879049 0.014793 0.00963944 0.00244177 0.0197835 0.000807508 0.00267954 -0.0041534 0.00715458 0.0104724 0.00201784 0.107402
internal_weight=9130.66 8295.95 5871.15 2424.8 834.709 4163.71 1707.44 2058.22 1654.99 1232.23 2830.36 861.532 1333.35 1265.7 468.228 67.6481 2127.13 797.476 361.257 437.4 870.969 1689.73 145.524 1544.21 1407.29 312.615 785.119 654.32 356.707 5.78886
internal_count=140168 106593 60369 46224 33575 36881 23488 34741 26634 16572 26296 11886 10585 10003 4559 582 21987 5444 5116 3962 11456 18025 1662 16363 14757 4096 10448 8348 5137 68
is_linear=0
shrinkage=0.05


Tree=28
num_leaves=31
num_cat=0
split_feature=6 6 8 6 15 28 15 8 5 28 7 5 21 0 27 6 2 6 6 29 16 16 5 7 19 23 2 25 15 3
split_gain=495.129 159.374 85.1702 62.7589 45.2104 49.1449 44.262 40.6872 30.0516 29.753 25.4854 28.4603 29.1392 27.2939 23.251 20.9645 18.9329 19.1987 18.7658 18.5631 16.5335 16.4994 16.3104 16.2342 15.4333 15.3253 15.2644 14.2033 14.1569 14.1186
